// This header is autogenerated
// CONV layer constants
#define CONV_IN_DIM_X 28
#define CONV_IN_DIM_Y 28
#define CONV_IN_DIM_Z 1
#define CONV_OUT_DIM_X 24
#define CONV_OUT_DIM_Y 24
#define CONV_OUT_DIM_Z 32
#define CONV_NFILTERS 32
#define CONV_STRIDE 1
#define CONV_EXTFILTER 5

// RELU layer constants
#define RELU_DIM_X 24
#define RELU_DIM_Y 24
#define RELU_DIM_Z 32

// POOL layer constants
#define POOL_IN_DIM_X 24
#define POOL_IN_DIM_Y 24
#define POOL_IN_DIM_Z 32
#define POOL_OUT_DIM_X 12
#define POOL_OUT_DIM_Y 12
#define POOL_OUT_DIM_Z 32
#define POOL_STRIDE 2
#define POOL_EXTFILTER 2

// FC layer constants
#define FC_IN_DIM_X 12
#define FC_IN_DIM_Y 12
#define FC_IN_DIM_Z 32
#define FC_OUT_DIM_X 10

#define FC_WEIGHTS_X 4608
#define FC_WEIGHTS_Y 10

// CONV weights
float conv_filter[CONV_NFILTERS][CONV_EXTFILTER][CONV_EXTFILTER] = {
	0.00737742, -0.066212, 0.011569, 0.107919, 0.0789069, 0.0351529, 0.170219, 0.279935, 0.231903, 0.183707, 
	-0.0459811, 0.173394, 0.032474, -0.0506284, -0.0499832, -0.0933387, 3.7868e-05, 0.0805545, 0.0456674, 0.0593075, 
	-0.51333, -0.507271, -0.153213, -0.0744866, 0.0226894, -0.323122, -0.511408, -0.28669, -0.187945, -0.114915, 
	-0.0851005, 0.105159, 0.146057, 0.0666363, 0.0482911, 0.328293, 0.484904, 0.236329, 0.144465, 0.0541637, 
	0.101745, -0.0159213, -0.0866531, -0.032276, -0.00320499, 0.0467274, -0.045072, 0.0178494, 0.0146269, -0.0293358, 
	-0.636617, -0.636742, -0.114843, -0.00407215, 0.0353368, -0.707068, -0.808631, -0.258702, -0.038976, 0.00744904, 
	-0.321495, -0.28193, -0.0137898, 0.0752615, 0.01169, -0.169915, 0.286664, 0.130138, 0.231222, 0.204126, 
	0.274702, 0.195933, 0.0339976, 0.123911, 0.223265, -0.395878, -0.386407, -0.0548092, -0.0102604, 0.024847, 
	-0.329017, -0.254056, 0.0734638, 0.113717, 0.130627, -0.196207, 0.0182519, 0.0465743, 0.0915777, 0.00888718, 
	-0.021542, 0.210337, 0.0768268, 0.129853, 0.08985, 0.0996134, -0.00407249, -0.0682791, -0.0489305, 0.015505, 
	0.00494095, 0.00222315, -0.0066759, -0.0170816, -0.0150586, 0.0594963, -0.0144818, -0.0418792, 0.000809513, 0.00191174, 
	0.154256, 0.0322525, -0.0878858, -0.0479769, -0.0398157, 0.00853459, 0.215651, 0.179717, 0.0842429, 0.0538577, 
	-0.241164, -0.1485, -0.0227367, -0.00541339, -0.000780704, -0.0123837, -0.0149677, -0.0269347, 0.0125275, -0.094018, 
	0.0186329, -0.000195669, 0.0224351, 0.0177382, -0.0801545, 0.0302123, -0.00204021, 0.00332555, 0.00309523, -0.0509442, 
	0.0248132, 0.0824973, -0.00815476, 0.00419322, -0.04579, -0.00759012, 0.099352, 0.0408244, 0.0463594, -0.0373811, 
	-0.296721, -0.274515, -0.0379067, -0.0054673, 0.0820618, -0.269635, -0.224346, 0.0335369, 0.116639, 0.195065, 
	-0.195033, -0.041174, 0.00810387, 0.140675, 0.122208, -0.113686, 0.0898831, 0.0156649, 0.139165, 0.0908925, 
	0.0123937, -0.0488191, -0.0749271, 0.00305116, 0.0498686, -0.630415, -0.608407, -0.0341722, 0.0451733, 0.117176, 
	-0.616031, -0.55062, 0.0566095, 0.184633, 0.229746, -0.419249, -0.201992, 0.0461099, 0.205939, 0.117474, 
	-0.245681, 0.224026, 0.142845, 0.251437, 0.160791, 0.153088, 0.0724152, -0.0376248, -0.0259056, 0.0822411, 
	0.0349501, -0.0200478, -0.0252107, 0.157864, 0.0310914, 0.0501517, -0.0102074, 0.0636828, 0.152506, -0.0847009, 
	0.0174587, 0.0515066, 0.065489, 0.0331626, -0.15834, -0.0483401, 0.132925, 0.116409, 0.00655111, -0.13395, 
	-0.234129, -0.124658, 0.0717186, -0.00316291, -0.112347, -0.0670259, -0.0593314, -0.100472, -0.14648, -0.0603845, 
	0.153671, 0.113249, 0.0502964, 0.150225, 0.133227, -0.00433598, -0.0460913, -0.0194798, 0.00947004, -0.0731458, 
	-0.0163914, 0.0706907, 0.102558, 0.0256716, -0.0124307, -0.100296, -0.0504122, 0.00227514, 0.0100203, 0.0134662, 
	-0.103401, -0.126646, -0.121346, -0.135246, -0.0912356, 0.267373, 0.147107, 0.0997192, 0.153632, 0.136574, 
	0.158144, 0.0482383, -0.0496985, -0.0011732, -0.0179454, -0.114745, 0.0982248, 0.0662949, -0.0193695, -0.0615874, 
	-0.223825, -0.0825841, 0.0268457, 0.0121256, -0.00143124, -0.359609, -0.525767, -0.331253, -0.205139, -0.0931643, 
	-0.0972428, -0.1738, -0.219604, -0.266689, -0.225284, 0.410348, 0.622461, 0.372371, 0.243653, 0.0274787, 
	0.134208, 0.168866, 0.189562, 0.208575, 0.163982, -0.041263, -0.0922835, -0.035009, -0.0346004, -0.0533987, 
	-0.0297379, 0.189718, 0.133261, -0.0604779, -0.0742093, 0.200601, 0.341354, 0.030539, -0.42275, -0.363049, 
	0.515905, 0.552967, -0.0456856, -0.707959, -0.590561, 0.558463, 0.453324, -0.0825198, -0.683615, -0.539259, 
	0.361148, 0.236311, -0.0807627, -0.418971, -0.352455, -0.35073, -0.287267, -0.0526503, -0.105054, -0.0718708, 
	0.0719952, 0.440354, 0.54608, 0.430808, 0.301596, -0.148473, 0.166381, 0.360854, 0.193383, 0.0647806, 
	-0.535839, -0.592131, -0.219467, -0.20899, -0.116807, -0.499362, -0.516075, -0.0478087, -0.000674811, 0.110206, 
	-0.201928, -0.171368, 0.0877104, 0.121401, 0.020912, -0.208062, 0.0229431, 0.21991, 0.161905, -0.0262626, 
	-0.0538537, 0.153842, 0.0439962, -0.0273314, -0.134972, 0.100368, 0.1348, -0.00258364, -0.056679, -0.148825, 
	0.14694, 0.0345623, 0.00293371, -0.0588298, -0.150628, -0.148041, -0.00813372, 0.108361, 0.165979, -0.0787822, 
	-0.131954, 0.106373, 0.204817, 0.0331523, -0.256088, -0.00527086, 0.270753, 0.195035, -0.1499, -0.383656, 
	0.125058, 0.289782, 0.191702, -0.209122, -0.403334, 0.0784478, 0.166793, 0.111418, -0.118433, -0.321615, 
	-0.176163, -0.116576, 0.0451981, 0.104559, 0.00910475, -0.136254, 0.0451975, 0.177863, 0.175779, -0.0411286, 
	0.0432374, 0.152767, 0.071109, -0.0348167, -0.196402, 0.137479, 0.0972023, 0.0146751, -0.0869912, -0.199594, 
	0.063025, 0.0197005, 0.0197776, -0.0706218, -0.171097, -0.0177355, 0.0686332, 0.11552, 0.0878285, -0.0453686, 
	0.0797462, 0.210504, 0.180047, -0.0208795, -0.185181, 0.176057, 0.226518, 0.0560244, -0.25088, -0.339546, 
	0.173457, 0.129329, -0.0710803, -0.318115, -0.311568, -0.0101606, -0.0158936, -0.107117, -0.272354, -0.238964, 
	-0.415487, -0.461762, -0.28804, -0.305561, -0.221881, -0.0954824, 0.0196418, 0.182155, 0.233007, 0.204534, 
	0.119786, 0.333638, 0.294875, 0.268811, 0.125345, -0.0250888, -0.0122928, -0.026908, 0.0236279, 0.0362142, 
	-0.139343, -0.152956, -0.180578, -0.168014, -0.129827, -0.506683, -0.512216, -0.0951385, -0.00732761, 0.120146, 
	-0.435938, -0.465228, -0.0132891, 0.223732, 0.319851, -0.377445, -0.239326, 0.0571515, 0.354281, 0.306018, 
	-0.280538, 0.0784928, 0.129535, 0.288646, 0.211688, -0.0922351, -0.0497666, -0.134259, -0.0368517, 0.0571437, 
	-0.315867, -0.389866, -0.0936689, -0.0976831, -0.0489633, -0.0728651, 0.2731, 0.281815, 0.173421, 0.130924, 
	0.0935106, 0.202266, -0.127014, -0.0920588, -0.0854508, 0.198118, 0.033637, -0.0618567, 0.00353874, -0.0112233, 
	0.0957354, -0.0381268, 0.00332253, 0.0198076, -0.00347644, -0.0633358, 0.0228895, -0.0043547, 0.0133775, -0.0336213, 
	-0.0374835, 0.0821702, 0.00911105, 0.0248046, -0.0251135, 0.0958164, 0.033341, -0.0465846, 0.00793664, -0.0647731, 
	0.226577, 0.102541, 0.0483175, 0.0412684, -0.0600181, -0.134842, -0.0459422, -0.0151728, -0.0112035, -0.108588, 
	-0.40025, -0.356065, -0.00678364, -0.020985, 0.0656164, -0.307469, -0.204076, 0.0534844, 0.100941, 0.176511, 
	-0.162561, 0.0135138, 0.0226217, 0.176193, 0.144679, -0.0681264, 0.0967902, 0.0379301, 0.1854, 0.157605, 
	-0.127595, -0.095869, -0.0730787, -0.0242206, 0.0334847, -0.317813, -0.264832, 0.0483418, 0.0590547, 0.0274343, 
	-0.245031, 0.0570984, 0.302637, 0.24717, 0.0840119, 0.0484498, 0.191071, 0.0202238, -0.058938, -0.141939, 
	0.114141, 0.0915994, -0.0186861, -0.0685484, -0.111327, 0.0485412, 0.0226292, 0.013596, -0.043713, -0.109331, 
	-0.0236224, 0.0151786, -0.0331022, -0.0163001, -0.0222942, 0.0950752, 0.0177562, -0.00471197, 0.0283484, -0.00177878, 
	0.0883736, -0.0291284, -0.0441738, 0.0120696, -0.0354606, 0.0404673, 0.0847531, 0.0441307, 0.0185456, -0.0375782, 
	-0.106832, -0.0182831, 0.00685876, -0.0045854, -0.0602899, -0.370795, -0.592486, -0.528999, -0.554375, -0.391192, 
	0.19301, 0.414464, 0.474709, 0.449322, 0.270998, 0.151165, 0.247505, 0.189342, 0.185721, 0.0522681, 
	-0.0321597, -0.0804925, -0.0425299, -0.0401323, 0.0188225, -0.021688, -0.0207087, 0.0231938, -0.0151719, -0.0958443, 
	-0.102389, -0.0135083, 0.127603, 0.15431, -0.167062, -0.125855, 0.039282, 0.232574, 0.0926809, -0.246169, 
	-0.155674, 0.130489, 0.296657, 0.000740428, -0.309417, -0.0870652, 0.21594, 0.277269, -0.0120638, -0.362163, 
	-0.0193547, 0.147798, 0.16205, 0.0315967, -0.305503, -0.44001, -0.358409, 0.0513801, 0.0205629, 0.0409305, 
	-0.367085, -0.204733, 0.174818, 0.135005, 0.129685, -0.151038, 0.0120452, 0.0913242, 0.111481, 0.0294998, 
	-0.0820701, 0.128026, 0.100858, 0.117399, 0.0401288, -0.0845109, 0.0224412, 0.0105109, -0.00785786, 0.0189369, 
	-0.0925713, -0.0375356, 0.0808644, -0.0253405, -0.0368531, -0.15247, 0.00471393, -0.0118133, -0.0752083, -0.0556425, 
	-0.00256096, 0.0733053, -0.0460313, -0.0561404, 0.00523159, 0.215662, 0.110371, 0.0483466, 0.150728, 0.1203, 
	-0.0204779, -0.100368, -0.0496242, -0.000352675, -0.0651778, -0.0376278, 0.0165413, -0.00694533, -0.00992908, -0.0681203, 
	-0.0215533, 0.0668968, -0.00767216, -0.00227578, -0.0521335, 0.0176026, 0.0381073, -0.0248704, 0.00890411, -0.0460279, 
	0.0980619, 0.00423181, -0.0144819, 0.0204582, -0.0536254, 0.0718328, 0.0282143, 0.0238127, 0.0256151, -0.0450223, 
	-0.0815687, -0.156489, -0.134482, 0.0347272, 0.0173455, 0.0999248, 0.0503682, 0.271212, 0.344235, 0.215663, 
	0.270749, 0.530832, 0.437221, 0.223745, -8.44307e-05, 0.167786, 0.204542, -0.103948, -0.230412, -0.244718, 
	-0.499192, -0.620898, -0.374695, -0.342533, -0.203173, -0.283513, -0.271781, -0.0439139, -0.0440235, -0.0603, 
	-0.272016, -0.198014, -0.0441278, -0.0836687, -0.0512573, -0.000922602, 0.089402, -0.0405847, -0.0888656, -0.10236, 
	0.158396, 0.127485, 0.0577085, 0.0986576, 0.0577193, 0.0838783, 0.0323306, 0.062318, 0.0814019, 0.0593089, 
	};

// FC weights
float fc_weights[FC_WEIGHTS_X][FC_WEIGHTS_Y] = {
	0.000308691, -0.000241846, -0.00429421, -0.00118395, -0.00456896, -0.00203101, -0.00552193, -0.0020352, 0.0178855, -0.00829493, 
	0.00795151, -0.0034427, -0.0129666, -0.00543426, -0.0110767, -0.00651783, -0.000447124, -0.002495, 0.0173211, -0.0127172, 
	-0.00197924, -0.0103174, -0.0122142, -0.0132227, 0.000681986, -0.0148121, 0.00505499, -0.0116895, 0.0111978, -0.0152998, 
	-0.0111341, -0.0039854, -0.000308883, -0.0185748, -0.032272, -0.0249386, 0.0572911, -0.00780869, -0.00616454, -0.0239771, 
	-0.000562774, -0.0165667, 0.0676302, 0.0353113, -0.111389, -0.0228554, 0.0246617, -0.0190388, 0.0242279, -0.0311123, 
	-0.00515523, -0.0170512, 0.0371161, 0.0486351, -0.110119, -0.0280047, 0.0766043, -0.0200533, 0.0149011, -0.0317588, 
	-0.0889512, -0.0339488, -0.213141, -0.0312003, 0.0722726, -0.0541905, 0.157481, -0.0121043, -0.0356766, -0.0352225, 
	-0.0601205, 0.000573771, -0.102238, -0.067963, 0.143708, -0.0796409, -0.0158118, -0.0200011, -0.0642912, -0.0433789, 
	-0.0184266, 0.0203408, 0.0527527, 0.00246378, 0.0419766, -0.0722, -0.101448, -0.0101849, -0.0932852, -0.0370082, 
	0.0322668, 0.00203, 0.0164802, -5.07532e-05, -0.0622693, -0.0405163, -0.0175335, -0.0231519, -0.0904741, 0.00191037, 
	0.0390582, -0.0172147, 0.0221635, -0.0267603, -0.102808, 0.018838, 0.00342308, -0.0309137, -0.0778435, 0.0150538, 
	0.0464736, -0.0199498, -0.0111663, -0.035859, -0.0617293, 0.0101309, -0.0482654, -0.0204422, -0.0153932, 0.0206325, 
	-0.00266238, -0.00233817, -0.00514382, -0.00211592, -0.0103992, -0.00570906, -0.00520629, -0.00347638, 0.0358958, -0.0175986, 
	0.00780727, -0.00798381, -0.00462196, -0.011213, -0.0290232, -0.0145502, -0.0020191, -0.00682502, 0.0363673, -0.0223414, 
	0.00343315, -0.0144363, -0.00455405, -0.0140959, -0.011335, -0.0261323, 0.0254965, -0.011971, 0.0326437, -0.0241317, 
	0.0137847, -0.0116455, 0.0100925, 0.0101426, 0.000621335, -0.0308053, 0.0187401, -0.0186368, 0.0552154, -0.0293527, 
	0.00127165, -0.0277861, -0.0103548, 0.069807, 0.000353147, -0.0287505, -0.00536, -0.0286773, 0.0818514, -0.031539, 
	0.00518884, -0.0244825, -0.0162757, -0.00776809, 0.0319646, -0.0222027, 0.0249211, -0.0318252, 0.057867, -0.0193734, 
	0.0140161, -0.0130716, -0.0571588, -0.0151285, 0.117712, -0.0243852, -0.0275958, -0.0204838, -0.00195669, -0.0223041, 
	-0.0476879, 0.0174435, -0.0110629, -0.00356879, 0.0729946, -0.0401759, -0.071077, -0.00239411, -0.0169091, -0.0331945, 
	-0.0362475, 0.0232866, -0.09644, -0.0109675, 0.113607, -0.072946, -0.0463916, 0.0201336, -0.052593, -0.0525456, 
	-0.00789386, 0.00317929, -0.0423849, 0.0134081, -0.00759823, -0.0508531, 0.0240789, 0.0206275, -0.075675, -0.0283065, 
	0.0288745, -0.0273784, 0.0551149, -0.0266707, -0.080292, 0.0147225, -0.00959648, -0.0380309, -0.0964805, 0.0131743, 
	0.0554289, -0.0304347, -0.00489996, -0.0539255, -0.0649554, 0.000618156, -0.0679893, -0.0455355, -0.0220162, 0.0333333, 
	-0.000820518, -0.00440235, -0.00624476, -0.00352906, -0.0123537, -0.0105166, -0.00410322, -0.008659, 0.0443221, -0.0207968, 
	0.011607, -0.0115344, 0.00402278, -0.00872355, -0.0323004, -0.0242107, -0.00898308, -0.0141023, 0.040775, -0.02423, 
	0.00780183, -0.0156608, 0.0112728, -0.020464, -0.0320536, -0.0415576, 0.0364784, -0.0170162, 0.0386762, -0.0306288, 
	-0.00637651, -0.0106877, 0.0329818, 0.00572909, -0.0912839, -0.042915, 0.0656541, -0.0247645, 0.0687655, -0.0376964, 
	0.0218672, -0.0305425, 0.0245952, 0.0518422, -0.0259489, -0.0431345, -0.0118606, -0.0288589, 0.0783245, -0.0361824, 
	0.00948323, -0.0235041, 0.0181911, 0.00155364, 0.0176704, -0.0192303, 0.00653297, -0.0347886, 0.0549484, -0.0251633, 
	0.0111678, -0.00201105, -0.00267941, 0.0050957, 0.0159398, 0.0150652, 0.0126293, -0.0299319, -0.0045575, -0.0241998, 
	-0.0489775, 0.00799576, -0.0115018, 0.041865, 0.00648788, -0.0211523, -0.0372018, 0.00557759, -0.019434, -0.0337745, 
	0.00968075, 0.0212874, -0.0336219, -0.0534751, 0.0404159, -0.0888838, -0.0547853, 0.072676, -0.0506515, -0.0668194, 
	-0.0183303, 0.00979065, -0.0812121, -0.00668321, -0.00842055, -0.0473948, 0.0361461, 0.0508122, -0.0760196, -0.0391958, 
	0.000620561, -0.0302655, 0.0432666, -0.0217593, -0.0491474, -0.0114046, -0.0164635, -0.0083157, -0.0891669, -0.0129338, 
	0.0335235, -0.0388082, -0.0280489, -0.0661992, -0.058905, -0.0386544, -0.0391366, -0.0435661, -0.0392283, 0.0471489, 
	-0.00118414, -0.00474139, -0.0062505, -0.00222555, -0.0108518, -0.0175822, -0.00888167, -0.0134243, 0.058155, -0.0136888, 
	0.0225672, -0.0116666, 0.00884174, -0.00892967, -0.0204334, -0.0277981, -0.0290345, -0.0171948, 0.0479051, -0.0151847, 
	0.00875427, -0.0156703, 0.00607904, -0.0122215, -0.0283785, -0.0402672, 0.0274622, -0.0235273, 0.0348935, -0.0236894, 
	-0.0231888, -0.0119319, 0.0412785, -0.0183266, -0.0973847, -0.0391972, 0.0744454, -0.0340463, 0.0533265, -0.0240365, 
	0.0296034, -0.0169871, 0.0752535, -0.00484377, -0.0273672, -0.0186953, -0.0290209, -0.0432514, 0.0823003, -0.0244199, 
	0.015603, -0.021449, 0.0459069, 0.00235976, -0.0115366, -0.000725909, -0.00272462, -0.0313169, 0.0534059, -0.0215588, 
	-0.00294208, -0.00238087, 0.0193113, 0.0463374, -0.00163591, 0.034622, -0.0144831, -0.0377101, -0.0067875, -0.0283515, 
	-0.0434133, -0.00376005, 0.0107668, 0.0710041, -0.0723229, -0.044655, -0.0436978, 0.0112149, -0.0240028, -0.0269995, 
	0.0294839, 0.030649, -0.0333963, -0.0913142, 0.00382168, -0.0758983, -0.00217052, 0.0818294, -0.0305665, -0.0680622, 
	0.0048031, 0.0084881, -0.0724835, -0.0222152, -0.0365526, -0.0369644, 0.0231163, 0.0576835, -0.0770325, -0.0418905, 
	-0.0111977, -0.0264352, 0.0281124, -0.00521336, -0.00622769, -0.0124068, -0.0277103, 0.0258147, -0.0752405, -0.0451815, 
	0.0150849, -0.0431232, -0.0624044, -0.072438, -0.054628, -0.0684476, -0.0240655, 0.00380334, -0.0534325, 0.0270813, 
	-0.00301483, -0.00480696, -0.00913437, -0.00671492, -0.0137093, -0.0160123, -0.00501112, -0.0126128, 0.0632042, -0.00953003, 
	0.0238258, -0.0108418, 0.015243, -0.0106332, -0.0230095, -0.0205756, -0.0277563, -0.0146412, 0.0496024, -0.0120206, 
	-0.00655256, -0.0171041, 0.0136108, 0.0100239, -0.00629196, 0.00100979, 0.0251261, -0.0382936, 0.0229909, -0.0209208, 
	-0.0248521, -0.0115876, 0.0176661, -0.0282712, -0.0385187, 0.00992729, 0.043321, -0.0574751, 0.0342256, -0.0201091, 
	0.0127892, -0.0153191, 0.0707988, -0.019328, -0.0031074, 0.0125725, -0.0366978, -0.0454368, 0.0684669, -0.0313354, 
	0.00992275, -0.0210489, 0.0338293, 0.00767338, -0.0303819, 0.0200674, -0.00813776, -0.0398557, 0.0555145, -0.0244435, 
	-0.0126504, -0.016061, 0.00136004, 0.0705941, 0.00575709, 0.0317157, -0.00294472, -0.0372515, -0.00152367, -0.0243835, 
	-0.0729238, -0.0137487, 0.0118458, 0.115683, -0.102504, -0.0173384, -0.0401762, 0.0102247, -0.0228115, -0.042465, 
	0.0149571, 0.0246391, -0.0510373, -0.0975303, -0.0149111, -0.0270493, 0.0199281, 0.030651, -0.0132346, -0.0374908, 
	-0.0135995, -0.00085425, -0.0313978, -0.0325838, -0.0238698, -0.0185228, -0.000642166, 0.0333455, -0.0548803, -0.022075, 
	-0.0024979, -0.0249925, 0.0306908, 0.00314474, 0.0141269, -0.0255056, -0.0364279, 0.0534775, -0.0577711, -0.0493584, 
	-0.00442873, -0.0455587, -0.0834069, -0.0754348, -0.0454589, -0.100755, -0.0137762, 0.0274406, -0.0529431, 0.0162526, 
	-0.0120507, -0.00463592, -0.0115384, -0.0145204, -0.0142989, -0.0151465, -0.0027954, 0.00439015, 0.0441269, -0.00602435, 
	0.0205371, -0.0111809, 0.0310597, -0.0122798, -0.0367307, -0.0247876, -0.00568055, 0.000958725, 0.0269479, -0.00931788, 
	-0.0186684, -0.0172265, 0.0285783, 0.0105091, 0.00125014, 0.0470821, 0.0199959, -0.0637626, 0.00596068, -0.0264111, 
	-0.00724956, -0.0129135, 0.0201976, -0.0337591, -0.0130323, 0.0540046, 0.00321716, -0.0646494, 0.0208783, -0.0315502, 
	0.00620616, -0.0120399, 0.0421975, -0.0190165, -0.0085677, 0.0441544, -0.0203532, -0.0463258, 0.0511845, -0.0431796, 
	-0.00416862, -0.0116627, 0.00783058, -0.0076691, -0.0102213, 0.0394108, -0.0101522, -0.050349, 0.0496103, -0.0299407, 
	-0.00774812, -0.0265094, -0.0127851, 0.0493351, 0.0152359, 0.0235822, 0.00892527, -0.0232653, 0.0113661, -0.028263, 
	-0.0638384, -0.0185182, 0.0312893, 0.117202, -0.0870707, 0.0021572, -0.0364139, 0.0120757, -0.0191414, -0.0631483, 
	0.0195692, 0.00429276, -0.0541326, -0.0430038, -0.0533107, -0.0046655, 0.0114696, 0.017826, -0.017519, -0.0645958, 
	-0.0365694, -0.00605594, -0.026951, -0.018876, -0.00189003, -0.0356092, -0.0239221, 0.0148135, -0.0334528, -0.0146772, 
	-0.00113528, -0.0247286, 0.0345759, 0.0161939, 0.0216062, -0.0309834, -0.0287456, 0.0268213, -0.0364231, 0.00237286, 
	-0.0103636, -0.0469264, -0.0718469, -0.0496481, -0.030899, -0.0934578, -0.0248538, 0.0408467, -0.0355471, 0.00927498, 
	-0.0186655, -0.0065692, -0.0194405, -0.01786, -0.016731, -0.0323973, -0.00415837, 0.00205158, 0.0265668, 0.0246632, 
	0.00703034, -0.0120742, 0.0367313, -0.0138816, -0.0368128, -0.00767755, 0.00736109, -0.0422382, 0.010012, 0.0265658, 
	-0.0230527, -0.0170356, -0.00385624, -0.0148217, 0.0394203, 0.0614287, 0.0312877, -0.0931122, -0.00424983, -0.00392471, 
	-0.01172, -0.0148893, 0.00585335, -0.0351345, 0.000781261, 0.0690325, 0.00535856, -0.0657829, 0.00906757, -0.0333198, 
	0.00241717, 0.000752779, 0.0340732, -0.0385537, -0.0101089, 0.0370997, -0.0157165, -0.0389255, 0.0355774, -0.0449319, 
	-0.000173322, 0.00667657, 0.00786587, -0.00992281, 0.00824304, 0.0397229, -0.0332658, -0.0320326, 0.0436597, -0.0339452, 
	-0.00203437, -0.0260499, -0.021622, 0.0328073, 0.0211746, 0.0168721, 0.0110188, -0.00952977, 0.0150039, -0.030319, 
	-0.029269, -0.0134604, 0.0349825, 0.0625611, -0.043882, 0.0193423, -0.0368437, -0.00553592, -0.00544275, -0.0593694, 
	0.0111331, -0.00822669, -0.0396473, -0.0109862, -0.0514663, 0.0247544, 0.0120486, -0.028514, -0.0057912, -0.0596396, 
	-0.0294485, -0.00351672, -0.0203394, 0.000440626, 0.00406995, -0.00283428, -0.0302273, -0.0140544, -0.0110819, -0.0175055, 
	-0.0270477, -0.0216217, 0.0202523, 0.00316839, 0.0234307, 0.0198598, -0.00701214, -0.0308453, -0.0127594, 0.000853426, 
	-0.0395543, -0.0457192, -0.0635167, -0.0426799, -0.0215102, -0.0585543, -0.0205156, 0.0281391, -0.0198828, -0.00142718, 
	-0.0225297, -0.00603808, -0.0177975, -0.0159967, -0.0141337, -0.0381855, -0.0142316, -0.0249965, 0.0183621, 0.0518538, 
	-0.00103876, -0.0140224, 0.0235583, -0.00621878, -0.0151338, -0.0149789, 0.0248433, -0.0606074, -0.0121746, 0.0441162, 
	-0.0262612, -0.0181041, -0.0355229, -0.023445, 0.044967, 0.0338965, 0.0564434, -0.0652157, -0.0208065, -0.00390193, 
	-0.0132282, -0.0206687, -0.0138333, -0.0164939, -0.00173475, 0.0463516, -8.15064e-05, -0.0367071, -0.00222974, -0.0387061, 
	0.000621732, 0.0252724, -0.00652527, -0.0474523, -0.0152495, 0.0175399, -0.0201447, -0.0135035, 0.0140306, -0.0436986, 
	-0.0159646, 0.0250683, -0.0144137, -0.0207882, 0.00520078, 0.0313103, -0.0194471, -0.0116107, 0.0295724, -0.0384218, 
	-0.00853881, -0.026305, -0.0280184, 0.0156718, 0.0166656, 0.0263852, 0.0176049, -0.00967126, 0.0250531, -0.0339544, 
	-0.00191394, -0.01272, 0.0144536, -0.00551861, -0.0425874, -0.00413627, -0.0178146, -0.00164422, 0.0172015, -0.0556809, 
	0.00466988, -0.0239618, -0.054417, 0.0143451, -0.0316332, -0.0215715, 0.000328668, -0.0193829, 0.00499567, -0.057383, 
	-0.0197522, -0.00769186, -0.0198392, 0.00209902, -0.00170625, 0.00439998, -0.0212442, -0.0285604, 0.00430578, -0.0151622, 
	-0.0367595, -0.0201566, 0.00589787, -0.00153459, 0.0297109, 0.0281475, 0.00423555, -0.0573699, 0.0154503, 0.00414427, 
	-0.0551715, -0.0443212, -0.0454608, -0.0226435, -0.0184052, 0.00349304, -0.0272477, -0.00715267, 0.00377114, -0.0228705, 
	-0.0212084, -0.00830778, -0.0063027, -0.0121953, -0.0112724, -0.0349573, -0.0160703, -0.0112074, 0.00527109, 0.0463107, 
	0.00390199, -0.0168875, -0.000306798, -0.00519108, 0.0174689, -0.0177702, 0.0166159, -0.0375001, -0.0250685, 0.0367503, 
	-0.021125, -0.0182875, -0.0417719, -0.0199698, 0.0179228, 0.0218064, 0.080724, -0.0348919, -0.0195314, -0.00920843, 
	-0.0101875, -0.0204707, -0.0188787, -0.00514797, 0.0135387, 0.0472122, -0.013474, -0.0263007, 0.00307185, -0.0341391, 
	-0.00696017, 0.0453135, -0.0220317, -0.0317208, -0.0205949, 0.0304674, -0.0286804, -0.00965597, 0.0114977, -0.0335775, 
	-0.014072, 0.0420653, -0.0328024, -0.0229687, 0.0042603, 0.0207765, -0.0238272, -0.0039714, 0.0186989, -0.026199, 
	-0.0108884, -0.0270616, -0.0367547, 0.0255921, 0.0135876, 0.0282888, 0.0186018, -0.00486135, 0.0159889, -0.0200098, 
	-0.00339453, -0.0128996, 0.00919412, -0.0208777, -0.0399476, -0.00741132, -0.00518276, -0.0124996, 0.0121912, -0.0275466, 
	0.0179341, -0.0300265, -0.0436619, 0.011259, -0.030006, -0.0355214, -0.0136122, -0.0210375, 0.0106639, -0.0384722, 
	0.00208118, -0.0110945, -0.0245885, -0.00291043, 0.00195527, -0.0328229, -0.0241755, 0.00237488, 0.0164106, -0.00487535, 
	-0.0436738, -0.0223461, -0.00507006, -0.00230888, 0.0163788, -0.0436746, 0.0183809, -0.000807031, 0.029793, 0.0114912, 
	-0.0562959, -0.0406086, -0.0261468, -0.0135337, -0.0188469, -0.00976364, -0.0193549, -0.0372578, 0.0214303, 0.0200147, 
	-0.0157742, -0.00831815, 0.00715755, -0.0103132, -0.00705945, -0.0243735, -0.0182632, -0.00630134, 0.00282119, 0.0280827, 
	-0.00840115, -0.0144937, 0.00959006, -0.0107882, 0.0289836, -0.0217537, 0.0201533, -0.0155035, -0.0234492, 0.0224812, 
	-0.0160255, -0.0167974, -0.0132553, -0.0267115, -0.0187913, 0.00362651, 0.0692427, -0.00652388, -0.00766495, -0.00777891, 
	-0.00131828, -0.0123972, -0.00633517, -0.00409035, 0.0161108, 0.0264192, 0.00450386, -0.014732, 0.00442533, -0.0232483, 
	-0.00610887, 0.0548002, -0.0224131, -0.0200065, -0.0211978, 0.00668641, -0.016762, -0.00545117, 0.0132384, -0.0229035, 
	-0.00565292, 0.051091, -0.0218334, -0.0283794, -0.00611546, -0.00378725, -0.0173336, -0.0112796, 0.0112867, -0.0157961, 
	-0.018253, -0.0221428, -0.0327203, 0.0150583, 0.00261036, 0.0122698, 0.0261598, -0.0102761, 0.00818183, -0.017521, 
	-0.0182259, -0.0137548, 0.0116913, -0.00153566, -0.0386549, 0.00650003, -0.00243973, -0.0236531, 0.0032986, -0.0221472, 
	0.0210172, -0.0335562, -0.00252502, 0.0184954, -0.0664686, -0.0530947, -0.0378903, -0.0275906, 0.00728134, -0.0264253, 
	0.0280194, -0.0123539, -0.022389, -0.0114628, 0.00937868, -0.0647154, -0.0147852, -0.00564161, 0.0206918, -0.00251616, 
	-0.0384388, -0.0228509, -0.00880344, -0.0205817, 0.0240776, -0.0729749, 0.0105758, 0.00554579, 0.0340406, 0.0144607, 
	-0.050063, -0.03663, -0.00157754, -0.0209858, -0.00217847, -0.0169, -0.0274841, -0.0824345, 0.0187793, 0.0600395, 
	-0.0123006, -0.00465238, 0.0101602, -0.00745566, 0.00326387, -0.00346722, -0.0152332, -0.00248156, 0.00170979, 0.0114756, 
	-0.0307494, -0.0144374, 0.0268667, -0.0162935, 0.0429509, -0.0133852, 0.0128594, -0.00912264, -0.0224123, 0.0156713, 
	-0.0202014, -0.0158135, -0.00837739, -0.0189141, 0.0324331, -0.00996245, 0.0297329, 0.00906213, -0.00444753, -0.00679788, 
	-0.0088596, -0.00734478, 0.0100472, 0.0115203, 0.0186988, 0.0243037, -0.000303664, -0.0133695, -0.00194538, -0.0127587, 
	-0.00936869, 0.067886, -0.0207719, -0.0110691, -0.0266861, -0.00219038, -0.0287708, -0.00671368, -0.000404277, -0.0152614, 
	-0.00824305, 0.0584341, -0.0203483, -0.0130546, -0.0175216, -0.0101519, -0.0224353, -0.0182483, -0.00622797, -0.0131968, 
	-0.0201051, -0.0258492, -0.0295319, 0.0251702, -0.0152635, 0.0374044, 0.0210052, -0.0300337, -0.00352688, -0.0103433, 
	-0.020347, -0.0172977, 0.00298784, 0.0310959, -0.0474226, 0.00889369, -0.0130894, -0.0302192, -0.00609553, -0.0110647, 
	0.00444661, -0.0319996, 0.0185972, 0.0355908, -0.0688995, -0.0732469, -0.0677449, -0.0341518, 0.00316539, -0.0300317, 
	0.0375143, -0.010505, -0.03357, 0.0158188, 0.00178897, -0.0660881, -0.0142187, -0.0193423, 0.0215194, -0.0129601, 
	-0.030761, -0.0222573, -0.029954, -0.0124567, 0.00496661, -0.0759735, 0.0209391, 0.00286668, 0.0258997, -0.00532845, 
	-0.0535631, -0.0286328, 0.000557017, -0.0175442, 0.0254819, -0.015489, -0.0374537, -0.0442303, 0.0124697, 0.0248203, 
	-0.00824625, -0.00243257, 0.016471, -0.00559089, 0.00376917, 0.0072447, -0.00965518, -0.00335787, -0.00465358, 0.00153941, 
	-0.0321352, -0.0137501, 0.0118311, -0.0183134, 0.0553797, -0.00282486, 0.0101338, -0.00491578, -0.0396751, -0.00154985, 
	-0.0224638, -0.0160442, -0.0181929, -0.0222276, 0.0819729, -0.0175488, -0.0124969, 0.01272, -0.0184129, -0.0129761, 
	-0.00694686, 0.000967675, 0.0106953, 0.0109925, 0.0207117, 0.0135164, -0.0328145, -0.00865484, 0.000156699, -0.0106788, 
	-0.0115219, 0.0713207, -0.0191096, -0.0148418, -0.0515599, 0.00044152, -0.0214455, -0.00917395, 0.00395269, -0.0130335, 
	-0.0203298, 0.0593184, -0.0273789, -0.0159505, -0.0590846, -0.0113139, -0.000247873, -0.0238623, -0.00796029, -0.0130294, 
	-0.0167624, -0.0281961, -0.0392998, 0.0401571, -0.0458864, 0.0379052, 0.0386964, -0.0331632, -0.0107607, 0.00242416, 
	-0.0179188, -0.0168044, -0.0306515, 0.0419074, -0.0584476, -0.0132839, 0.0175774, -0.0354995, -0.0146231, -0.0159246, 
	-0.00420184, -0.0369402, -0.0152505, 0.0385844, -0.0684943, -0.0761554, -0.0299342, -0.0386887, 0.000793586, -0.0422286, 
	0.024842, -0.0124562, -0.0330725, 0.027102, -0.021069, -0.0615532, -0.0129787, -0.0278891, 0.0335216, -0.0183713, 
	-0.0134143, -0.0178926, -0.038233, 0.00171239, -0.0522565, -0.067112, 0.0334063, -0.00430794, 0.00613268, -0.0156342, 
	-0.0498175, -0.0210857, -0.00397011, -0.0149632, 0.0473933, -0.0155725, -0.036142, -0.0186604, 0.000484102, 0.00387447, 
	0.00679082, -0.00204793, -0.0225005, -0.00454176, -0.00943248, -0.00709059, 0.0133535, 0.0018646, -0.00701133, -0.0131958, 
	-0.0199795, -0.0124768, 0.000870602, -0.0196562, -0.0488395, -0.0203621, -0.00132451, -0.0165646, -0.0501024, -0.0162348, 
	-0.00905682, 0.0055621, 0.0438157, 0.00862022, -0.12134, -0.0485021, 0.0169582, -0.0161201, -0.0577362, -0.0312593, 
	-0.0120749, 0.0212797, 0.0177496, 0.0487322, 0.0489362, -0.0721963, -0.0937733, -0.00290563, -0.0918392, -0.0470374, 
	0.0253591, 0.03184, -0.0217174, -0.0712936, 0.0693898, -0.0703441, -0.079766, -0.0419793, -0.0683137, -0.0314144, 
	-0.0262398, -0.0440183, -0.202799, -0.0396614, 0.0890524, -0.0594122, 0.0957513, -0.0260339, 0.00886142, -0.00550778, 
	-0.0344163, -0.0355319, -0.086907, -0.0152728, -0.00887316, -0.0304851, 0.0339287, -0.0273672, -0.00312596, 0.0136051, 
	-0.026978, -0.0202108, -0.0157596, 0.0129913, -0.0554449, 0.00361668, 0.056265, -0.0306114, 0.00397625, 0.00297723, 
	0.0256973, -0.0166661, -0.0160719, -0.0100863, -0.0139105, 0.0168583, 0.0392436, -0.0186361, -0.0376167, 0.00762757, 
	0.0186073, -0.00791105, -0.0233146, -0.0135644, -0.00553761, 0.0282635, 0.0429002, -0.0116357, -0.0308525, -1.50714e-06, 
	0.00465584, -0.00583577, -0.0164553, -0.0111232, -0.00438059, 0.0387754, 0.00605897, -0.00980051, -0.00731705, -0.00518168, 
	0.00118031, -0.00163923, -0.00970169, -0.00380003, -0.0049846, 0.00417031, -0.011917, -0.00267596, -0.00055513, 0.00607285, 
	0.0206448, -0.00735479, -0.0337511, -0.0119371, -0.0250746, -0.0208773, -0.00368, -0.00268627, -0.00426518, -0.027821, 
	0.0248467, -0.0287051, 0.0640481, -0.0515654, -0.0490986, -0.0388974, -0.0413456, -0.0236078, -0.0538388, -0.0294761, 
	-0.0379448, -0.0032057, 0.0168005, 0.0330401, -0.0594335, -0.0726918, 0.0485712, -0.0036975, -0.0342117, -0.0489594, 
	-0.0239454, 0.0213198, -0.0597248, 0.0165672, 0.102381, -0.0726566, -0.00653345, -0.0119946, -0.027486, -0.0388217, 
	-0.00710314, 0.0259959, 0.00459478, -0.0279958, 0.0272138, -0.0369921, -0.0463902, -0.0425736, -0.0109496, -0.00301921, 
	0.0110612, -0.0225055, -0.0547711, -0.0378286, 0.0617515, -0.0213275, -0.0475373, -0.0276847, 0.027925, 0.0198518, 
	-0.0250988, -0.0179536, -0.109197, -0.035272, 0.10303, -0.0171971, 0.00449703, -0.016395, -0.0163152, 0.0207599, 
	-0.0200657, -0.0259796, -0.0443657, -0.0163374, 0.0639119, -0.00359085, -7.70648e-06, -0.0192974, 0.041425, 0.0119716, 
	0.0177052, -0.0289999, -0.0231559, 0.0250526, 0.0250635, 0.00546429, 0.0086451, 0.00575556, 0.0191047, -0.0187167, 
	-0.00164765, -0.0160947, -0.018271, 0.00668064, 0.00236015, 0.0349367, 0.059047, -0.0100631, -0.0181567, -0.00334132, 
	0.0147744, -0.0112507, -0.00200489, -0.0268834, -0.0134841, 0.0384906, -0.00252251, -0.015549, -0.0155078, -0.00534862, 
	-0.005482, -0.00310994, -0.0139877, -0.000605919, -0.0156484, 0.00691339, -0.011618, -0.01253, -0.00387236, 0.0105912, 
	0.0233339, -0.017599, -0.0342212, -0.0122713, -0.0424358, -0.0349734, -0.0108984, -0.00957419, 0.0192116, -0.0484787, 
	0.0301424, -0.0354615, 0.0272714, -0.063876, 0.00312885, -0.0430461, -0.0262092, -0.0296082, -0.0189417, -0.0420278, 
	-0.0392742, 0.00293091, 0.00807669, 0.0113098, 0.00349149, -0.0740967, 0.00498178, -0.0101657, -0.0127347, -0.0515297, 
	0.0178732, 0.0234054, 0.0178812, -0.0146244, 0.0625473, -0.0689142, -0.0395519, -0.0237823, -0.00187349, -0.0314778, 
	-0.0246247, 0.0149138, -0.0142041, 0.0247038, -0.0113854, -0.0201707, -0.0203159, -0.0405587, 0.00706673, 0.00973232, 
	0.00879139, -0.0102618, -0.023544, -0.00253815, 0.00776853, 0.00368341, -0.010937, -0.0134388, 0.0224524, 0.0249019, 
	-0.011892, -0.00960666, -0.0640449, -0.0363658, 0.092531, -0.0128221, -0.00553955, 0.0137601, -0.0334152, 0.0212054, 
	-0.0026922, -0.0297084, -0.0239657, -0.00520667, 0.04563, -0.0203704, -0.00454983, 0.0146429, 0.00409337, 0.00611779, 
	0.00781487, -0.029887, 0.00553174, 0.0601024, -0.0274164, -0.00519195, -0.0201478, 0.0467515, 0.0243226, -0.0295485, 
	0.00672883, -0.0243571, 0.00129359, 0.00905985, -0.0350656, 0.0216843, 0.0522005, -0.00374913, 0.000803623, -0.00561182, 
	0.0250461, -0.0126793, -0.00433859, -0.0268943, -0.00578794, 0.022291, -0.0172885, -0.00013943, -0.0139268, -0.00868411, 
	-0.00618269, -0.00520233, -0.0253681, -0.00901993, -0.0205968, 0.0176393, -0.0116637, -0.0110792, -0.00637613, 0.0170905, 
	0.00816686, -0.0264197, -0.0234791, -0.0152849, -0.0506858, -0.0499814, -0.0171851, -0.0163587, 0.0434066, -0.0602361, 
	0.0379469, -0.0336051, -0.00058012, -0.0647082, 0.0183905, -0.0575263, -0.000822556, -0.0309856, 0.0068353, -0.0476374, 
	0.00133188, 0.00108841, -0.00485936, 0.00147567, 0.0052432, -0.0849388, 0.00212049, -0.00946028, -0.0118703, -0.0445335, 
	0.0221949, 0.0212242, -0.018787, -0.0257931, 0.0350101, -0.0620333, 0.0212716, -0.0341406, 0.010497, -0.0241861, 
	-0.0549198, 0.00159574, 0.00900828, 0.0673192, -0.0895802, -0.0024381, -0.0384301, -0.0323278, 0.00924646, 0.0170874, 
	-0.0201207, -0.0217488, 0.0195066, 0.0692578, -0.043771, 0.0248608, 0.00874732, -0.0077902, -0.00160332, 0.04136, 
	-0.0146762, 0.00534896, -0.0228835, -0.0467113, 0.0573719, 0.0109826, -0.0141735, 0.00618613, -0.0502874, 0.0246494, 
	0.00905199, -0.0209653, -0.00879441, -0.0287387, -0.023906, -0.0385548, 0.0180186, 0.0371197, -0.0263303, 0.0090841, 
	-0.00167055, -0.0250239, 0.0226628, 0.0692694, -0.0402506, -0.018766, -0.0281418, 0.0668641, 0.0110383, -0.023485, 
	0.00424633, -0.0350877, -0.0186838, 0.0400113, -0.067366, 0.00534979, 0.0383542, -0.00994366, -0.00866371, -0.00836662, 
	0.0299457, -0.0163423, -0.0112647, -0.0238415, 0.00824527, 0.0169384, -0.0332592, 0.0268868, -0.0094115, -0.00763114, 
	-0.0118939, -0.0112791, -0.0373878, -0.0172843, -0.0253347, 0.000575173, -0.000705864, 0.0230157, -0.0152501, 0.0148508, 
	-0.0154402, -0.02759, 0.00208801, -0.0184956, -0.0401674, -0.0530919, -0.00912645, -0.0187868, 0.0516443, -0.065601, 
	0.0341913, -0.0302504, -0.0222794, -0.0464126, 0.0146926, -0.0485388, 0.00554506, -0.0304958, 0.0327676, -0.0495101, 
	-0.0214919, -0.00220482, 0.00581496, 0.0278324, -0.0142966, -0.0543879, 0.0205851, -0.0152325, -0.00432468, -0.0435288, 
	0.033357, 0.0178376, -0.00977743, -0.0417884, -0.00219097, -0.0429424, 0.00902448, -0.013068, -0.000709926, -0.0315416, 
	-0.0407445, -0.00959081, 0.0308685, 0.0823865, -0.131529, 0.00105438, -0.0449023, -0.00120325, -0.0238029, 0.00961261, 
	-0.019629, -0.0225329, 0.00580863, 0.0605126, -0.0263797, -0.000368509, 0.0067377, -0.00887823, -0.0269248, 0.0410615, 
	-0.0147641, 0.00485069, -0.0373298, -0.0526527, 0.0386379, -0.0132392, -0.00362562, -0.00760658, -0.067737, 0.0264409, 
	-0.00511675, -0.00508033, 0.00808261, -0.0532651, -0.0592667, -0.0337435, 0.022996, 0.0436782, -0.0263259, -0.00591005, 
	-0.00623393, -0.0196506, 0.00429661, 0.041097, -0.00142476, -0.00862957, -0.00972925, 0.0442082, 0.0141387, 0.0038396, 
	-0.0293461, -0.0413601, -0.00689432, 0.0791569, -0.0502161, -0.0130364, 0.00484009, 0.00753329, -0.0256787, -0.0121953, 
	0.0258398, -0.0202025, 0.0037594, -0.0137921, -0.0132125, 0.0127011, -0.0170475, 0.0505967, -0.0156518, -0.0172885, 
	-0.0146183, -0.0156231, -0.0413893, -0.0298345, -0.0202387, -0.00904768, 0.00518856, 0.0539564, -0.0207627, -0.0176817, 
	-0.0344137, -0.0260795, 0.0295951, -0.0185304, -0.0242626, -0.0472079, -0.011018, -0.00250357, 0.0428232, -0.0654755, 
	0.00874885, -0.0292982, -0.0326748, -0.0281167, 0.024842, 0.0200491, 0.011639, -0.0489116, 0.0369656, -0.0542577, 
	-0.0331678, -0.00216043, 0.0147548, 0.0149547, 0.00895031, -0.00183995, 0.0003532, -0.0168663, -0.00504768, -0.0503552, 
	0.0499297, -0.00522925, -0.00365704, -0.00123219, -0.01831, -0.047272, -0.0369083, 0.0409805, -0.0280404, -0.0503545, 
	-0.0172448, -0.0173552, 0.0343409, 0.079128, -0.0953107, -0.0428939, -0.066275, 0.00622318, -0.0369515, 0.0149114, 
	-0.0156224, -0.00949078, -0.0279428, 0.0194374, -0.00673394, -0.0165098, 0.016578, -0.0341142, -0.0277971, 0.0331005, 
	-0.0175264, 0.00556125, -0.0735417, -0.0271876, 0.0282422, -0.00776931, 0.0109778, -0.00772816, -0.057498, 0.0269227, 
	-0.00815495, 0.0119123, -0.0269685, -0.0449111, -0.0133665, 0.0111954, 0.0151697, 0.0187394, -0.0163333, -0.000456837, 
	6.70271e-05, -0.018119, -0.0011066, -0.00542681, 0.0221112, 0.0160961, -0.000791765, 0.0108679, 0.00467204, -0.00603912, 
	-0.0531658, -0.0357396, 0.0314748, 0.0594711, -0.0055023, 0.00844236, -0.012675, 0.000956646, -0.0388668, -0.0272898, 
	0.0156933, -0.0197534, 0.0307784, -0.00495603, -0.0232651, 0.019841, -0.00211138, 0.0371311, -0.0190033, -0.0391339, 
	-0.0168307, -0.0132177, -0.0309263, -0.031044, -0.00949819, -0.039148, -0.00664804, 0.067487, -0.00787129, -0.0224216, 
	-0.028088, -0.0298092, 0.0298428, -0.0295943, -0.0102943, -0.0417773, -0.00552107, 0.000968724, 0.0398578, -0.0378341, 
	-0.0211349, -0.0330349, -0.0274804, -0.0164999, 0.0130046, 0.0845754, -0.00328403, -0.0875071, 0.0378683, -0.0628951, 
	-0.0418744, -0.000332896, 0.0129082, 0.00208505, 0.0136913, 0.00942994, -0.0180964, -0.0148414, 0.0083414, -0.0661429, 
	0.022794, -0.0208788, -0.0106413, 0.0149781, -0.0013247, -0.0431644, -0.0198756, 0.0294042, -0.0244702, -0.0448098, 
	-0.00205103, -0.0163694, 0.00859032, 0.0327251, -0.0362856, -0.0111076, -0.0466679, -0.0489669, -0.0416951, 0.0167144, 
	-0.00936774, -0.00441578, -0.0569463, 0.0172336, 0.0126809, 0.00697753, 0.0167962, -0.0303126, -0.0298416, 0.0252249, 
	-0.0187987, 0.0119929, -0.0797249, -0.0187663, 0.0309454, -0.000206763, 0.0207583, 0.0137523, -0.0471689, 0.0157791, 
	-0.0102946, 0.0313364, -0.0132232, -0.0293151, -0.00230958, 0.050172, -0.00552667, -0.0218172, -0.0223353, -0.000791106, 
	-0.0147545, -0.0179372, -0.0113373, 0.00477316, 0.0321801, 0.0606412, 0.00926657, -0.0363983, -0.00743745, -0.0132023, 
	-0.0478813, -0.0261889, 0.0362449, 0.0196971, 0.0291745, 0.0292715, -0.00683783, -0.0117034, -0.0345724, -0.0257223, 
	0.00749269, -0.0165033, 0.047864, -0.00918917, 0.00878571, 0.0381984, -0.00154266, 0.00816715, -0.0151452, -0.0295172, 
	-0.0220496, -0.0105661, -0.0191675, -0.023371, 0.00200173, -0.0145878, -0.0148829, 0.0377918, 0.0114131, -0.00110457, 
	-0.039041, -0.0341519, 0.0166541, -0.0343906, -0.00986909, -0.0400859, -0.00162826, -0.03632, 0.0438675, 0.0200016, 
	-0.0340383, -0.0320802, -0.0155194, -0.00222269, -0.0104403, 0.0854642, -0.00569449, -0.0630863, 0.0499317, -0.0858512, 
	-0.0515345, 0.00147106, -0.00280494, 0.0108708, 0.0295866, 0.0227912, -0.0130619, -0.0153438, 0.0352128, -0.074972, 
	-0.00248825, -0.0364757, -0.0337864, 0.0342377, 0.0338985, 0.00951378, -0.00906239, -0.0164947, -0.027665, -0.0549492, 
	0.00318208, -0.0159769, -0.0228575, 0.00527861, -0.0298636, -0.0278233, 0.000246096, -0.0315667, -0.0407396, 0.00702079, 
	0.00228599, -0.00500129, -0.0612434, 0.0320237, 0.00125158, 0.00661635, 0.0211796, -0.00757282, -0.0308729, 0.0209497, 
	-0.0191379, 0.02956, -0.080233, -0.0204423, 0.0424562, 0.0076774, 0.0126919, 0.00904442, -0.0446583, -0.00145818, 
	-0.0246466, 0.0612763, -0.038015, -0.0302813, -0.00740928, 0.0531812, -0.0162278, -0.0128978, -0.0229002, -0.0284206, 
	-0.0201516, -0.00854836, -0.033654, 0.0110677, 0.0278347, 0.0721102, 0.00544813, -0.0410248, -0.00542307, -0.0258483, 
	-0.0320777, -0.0267306, 0.0217301, -0.0133725, 0.0192312, 0.0147361, 0.00392725, -0.000990498, -0.02441, -0.0273442, 
	-0.00678596, -0.0200743, 0.0191882, -0.0130734, 0.0297649, 0.0289618, 0.0216022, -0.0149841, -0.0231569, -0.0143272, 
	-0.0222407, -0.00816986, -0.00528205, -0.0275216, -0.010297, 0.0263069, -0.0290453, -0.010596, 0.00905787, 0.00744723, 
	-0.0447659, -0.0380218, -0.00708926, -0.0240468, -0.00969146, -0.0426195, 0.0160106, -0.0621815, 0.0530175, 0.0472076, 
	-0.0188617, -0.0313871, 0.00450374, -0.00232952, 0.00581296, 0.0551785, -0.0267435, -0.0109416, 0.054489, -0.0994679, 
	-0.0558731, -0.0051164, -0.000792644, 0.0205134, 0.0374374, -0.00760309, -0.0145709, 0.00551929, 0.0337946, -0.0651973, 
	-0.0130788, -0.0416746, -0.0372739, 0.0456934, 0.0130612, -0.0100873, 0.00048949, -0.0138131, -0.00920851, -0.0455272, 
	-0.00910008, -0.015494, 0.00844209, 0.0238384, -0.0690136, -0.0266319, 0.0409623, -0.00817738, -0.0177728, -0.0159056, 
	-0.00526505, -0.0112114, -0.0476756, 0.0228838, 0.0109892, 0.0162363, 0.0266894, 0.0064935, -0.00528449, -0.00309739, 
	-0.0307215, 0.0346875, -0.0757191, -0.0106845, 0.0402567, 0.0125715, 0.00201457, 0.0148646, -0.0237013, -0.0191899, 
	-0.0280246, 0.0822927, -0.0496069, -0.0342027, -0.00262792, 0.015501, -0.0261721, 0.0271892, -0.00979785, -0.0428117, 
	-0.0137604, 0.000341738, -0.0445831, 0.0332073, 0.0196009, 0.0507264, 0.0285712, -0.0053727, 0.00182096, -0.0248329, 
	-0.0262163, -0.0255565, 0.0480378, -0.00475642, -0.00827898, 0.00196338, -0.00183448, -0.016801, -0.0238484, 0.00664333, 
	-0.0222549, -0.0219586, 0.0289868, -0.0182941, 0.0232144, 0.0249516, 0.027301, -0.028806, -0.0226546, -0.00526662, 
	-0.0111229, -0.00550424, 0.0204704, -0.0305626, -0.0186414, 0.0289348, -0.0431488, -0.0104332, -0.00114382, 0.00858103, 
	-0.0445029, -0.0395597, -0.0121273, -0.0179866, -0.00539832, -0.0509507, 0.00826413, -0.0364443, 0.0455889, 0.037606, 
	-0.0270912, -0.0294567, 0.0162368, -0.0111141, 0.0123526, 0.00847834, -0.0413473, 0.0034352, 0.0517239, -0.071777, 
	-0.0209938, -0.012671, 0.00890387, -0.00245262, 0.00557547, -0.0267667, -0.0137931, 0.00709734, 0.0214099, -0.0436357, 
	0.00210031, -0.040001, -0.0131307, 0.04757, -0.0418921, -0.0245794, 0.00068395, -0.00718518, 0.0038593, -0.034893, 
	-0.0370649, -0.0204564, 0.0498458, 0.0537101, -0.068433, -0.0369016, 0.0192512, -0.00667762, -0.000591827, -0.0175334, 
	-0.0305958, -0.00800803, -0.0447274, 0.0318468, 0.0112415, 0.00602371, 0.0414975, 0.00442312, 0.00492904, -0.0188602, 
	-0.0381802, 0.0281918, -0.0794444, -0.00134137, 0.0398313, 0.00683729, 0.00645518, 0.0212009, -0.00942937, -0.0312087, 
	-0.0379596, 0.0982279, -0.0465875, -0.0328621, -0.00818602, 0.0128457, 0.00102615, 0.0113558, -0.00880843, -0.0318346, 
	-0.0167073, 0.0119025, -0.0410866, 0.0426251, -0.0025224, 0.0136306, 0.0544565, -0.0146153, 0.00395031, 0.0050122, 
	-0.0300646, -0.0297135, 0.070453, -0.00749356, -0.0117254, 0.00972105, -0.00113573, -0.0668349, -0.0288891, 0.0591717, 
	-0.0371257, -0.0218139, 0.0573454, -0.0284707, -0.00897892, 0.00179463, 0.0251396, -0.0169324, -0.0362661, 0.0020081, 
	-0.00717489, -0.00491762, 0.0356777, -0.0287034, -0.020541, 0.012001, -0.0345887, -0.00530613, -0.0110396, 0.016606, 
	-0.032418, -0.0338832, 0.00798715, -0.0150809, -0.0166463, -0.0253112, -0.018977, -0.0181233, 0.0461676, 0.0126686, 
	-0.0447298, -0.0272973, 0.0261589, -0.0277958, 0.0244983, -0.0163775, -0.049882, 0.00737316, 0.0458285, -0.0497562, 
	0.0105991, -0.0144904, 0.0170911, -0.00870991, -0.0396261, -0.0182573, 0.0160454, -0.00204513, 0.00328892, -0.0311356, 
	9.35403e-05, -0.0390384, 0.00843287, 0.0251049, -0.0665825, -0.0167001, -0.0022841, -0.0233646, 0.00302508, -0.03144, 
	-0.0457304, -0.0264463, 0.0425799, 0.0543876, -0.0340173, -0.0438685, -0.004656, -0.0177461, -0.00389656, -0.0294289, 
	-0.0528183, -0.00421292, -0.0360982, 0.0254734, -0.0127631, 0.00717537, 0.0680052, -0.0185338, -0.00175757, -0.0265702, 
	-0.0486683, 0.0264211, -0.0719583, 0.000243069, 0.0228362, 0.0124082, 0.0252749, 0.00383319, -0.00442591, -0.0301025, 
	-0.043685, 0.106713, -0.0513382, -0.0357126, -0.00622225, -0.0122826, 0.00533291, -0.00389208, -0.0115756, -0.0206304, 
	-0.0246901, 0.0164639, -0.0464211, 0.048018, -0.000414481, -0.000343318, 0.0582966, -0.0662189, -0.00303826, 0.0497307, 
	-0.0355532, -0.0277308, 0.0608028, -0.0111258, 0.0253018, 0.00347704, -0.00554509, -0.0975443, -0.0378161, 0.0906997, 
	-0.0519067, -0.0211182, 0.0469482, -0.039457, 0.00599867, -0.00694227, 0.0262472, -0.0129971, -0.0539767, 0.00942627, 
	-0.0135382, -0.00345237, 0.0637661, -0.0281863, -0.0193348, 0.0185856, -0.0187928, -0.0178032, -0.0330168, 0.0174716, 
	-0.0453328, -0.024242, 0.0124068, -0.020141, 0.00124337, -0.00219151, -0.0355989, -0.0163684, 0.0357284, 0.0175304, 
	-0.0535268, -0.0239225, 0.0226189, -0.0275457, 0.0202116, -0.0406254, -0.0448123, 0.0150903, 0.0142483, -0.0254052, 
	0.0332912, -0.0111686, 0.0825866, 0.00410404, -0.144319, -0.0343283, 0.0434097, -0.0136188, -0.0168495, -0.0165742, 
	0.0120421, -0.0403331, 0.0489599, -0.000795149, -0.0469414, -0.0285281, -0.0445764, -0.0313045, -0.00551117, -0.0360202, 
	-0.0463212, -0.0274172, -0.007181, 0.0600148, -0.0292996, -0.0406534, 0.0110701, -0.0223232, -0.016334, -0.0525948, 
	-0.0587786, -0.00138639, -0.0424189, 0.023626, -0.0445405, 0.0113712, 0.0861363, -0.0282318, -0.0160444, -0.0337264, 
	-0.0368126, 0.0233641, -0.0731338, 0.000527283, 0.00522185, 0.000485024, 0.0403958, -0.00848846, -0.00514694, -0.0201182, 
	-0.0492756, 0.115501, -0.0639424, -0.0460446, -0.0204425, -0.042286, 0.0238027, -0.0130479, -0.0171213, -0.0175258, 
	-0.0254213, 0.0212003, -0.0481472, 0.0493412, -0.0136785, -0.0113494, 0.0570067, -0.0460398, -0.0134847, 0.0327896, 
	-0.0421662, -0.0253263, 0.0467936, -0.00925999, 0.0368343, -0.0062178, -0.0297652, -0.0273086, -0.0492581, 0.0381499, 
	-0.0471502, -0.0226688, 0.0539539, -0.0511901, -0.034343, -0.0175553, 0.0526269, -0.0101712, -0.0857849, 0.0113147, 
	-0.02301, -0.00245993, 0.0967436, -0.0219922, -0.0136151, 0.0280649, -0.0115261, -0.0160306, -0.0459704, 0.0114071, 
	-0.00192303, -0.0153649, -0.0232641, -0.0255345, -0.0540597, -0.0339393, -0.00148352, -0.0127001, -0.0432981, -0.0368997, 
	-0.00421748, -0.0190198, 0.0655014, -0.0493537, -0.165368, -0.0814733, 0.0169907, -0.031981, -0.0846185, -0.0592362, 
	-0.0230101, -0.00548669, 0.0589155, 0.0780385, -0.0473218, -0.128619, -0.0589814, -0.0169326, -0.125118, -0.0895035, 
	0.00163351, 0.0190385, 0.0861734, 0.00466485, 0.134627, -0.118962, -0.194205, -0.0352525, -0.106879, -0.081898, 
	-0.0527248, -0.020969, -0.328238, -0.109601, 0.185385, -0.0731655, 0.168, -0.0445353, 0.0373296, -0.0266289, 
	-0.0801957, -0.0587425, -0.161959, -0.0489762, -0.0468626, -0.0550666, 0.118813, -0.00422811, 0.0607035, 0.0368816, 
	-0.00676531, -0.0341451, -0.0505562, -0.001416, -0.119956, 0.00834354, 0.00988075, -0.0182783, 0.007155, 0.028898, 
	0.00198951, -0.0474503, -0.0329071, -0.0140713, -0.124547, 0.0202889, 0.0383817, -0.0142382, -0.0223704, 0.0191328, 
	-0.00669425, -0.0153922, -0.117369, -0.0584497, -0.0919706, 0.038853, 0.122282, -0.0162409, -0.0217206, 0.0127506, 
	-0.00636103, -0.0157263, -0.136798, -0.0333499, 0.0106797, 0.0474523, 0.0465249, -0.0161774, 0.0206399, -0.00471034, 
	0.00515938, -0.00771742, -0.0405642, -0.0198163, -0.0278121, 0.0130979, -0.0604023, -0.0160754, 0.0320364, 0.0122702, 
	-0.0104976, -0.00528219, -0.0161136, 0.000735493, -0.0231282, -0.0151085, -0.0326826, -0.00876609, 0.0270787, 0.0246495, 
	0.0274439, -0.0345211, 0.0260571, -0.0526932, -0.0629394, -0.059764, -0.0468143, -0.0210684, -0.0349181, -0.0706285, 
	-0.0211266, -0.03468, 0.0380116, -0.0394096, -0.107485, -0.108528, 0.0430878, -0.0322072, -0.0627017, -0.0940497, 
	-0.0345938, -0.0011019, -0.0573065, 0.0405706, 0.0940349, -0.127844, 0.0352433, -0.0169118, -0.034332, -0.102095, 
	0.00884867, 0.0283617, 0.0144504, -0.00905841, 0.0469125, -0.08398, -0.153185, -0.0496054, -0.0039291, -0.0510539, 
	-0.029768, 0.00100944, 0.0617589, 0.0421232, -0.0143659, -0.0137266, -0.203555, -0.0399145, 0.0887025, 0.0100323, 
	0.0299069, -0.021854, -0.050089, -0.0536724, -0.00349237, -0.0118036, -0.102893, -0.000172917, 0.0443468, 0.0396057, 
	-0.028587, -0.0368088, -0.0656377, -0.0412831, -0.0516058, -0.00405616, -0.034142, -0.000941094, 0.0227319, 0.0127513, 
	-0.0107046, -0.0396295, -0.0390097, -0.0271518, -0.0806783, -0.0113597, -0.00741861, 0.0370457, 0.0342352, -0.045479, 
	0.0173752, -0.0210287, -0.0563817, -0.0236477, -0.0327544, 0.0110178, 0.00196487, 0.0198553, 0.0312502, -0.0350263, 
	-0.0146264, -0.0216421, -0.0428702, -0.0348617, -0.0350364, 0.0398551, -0.0291066, -0.036854, 0.0149059, 0.00543888, 
	-0.0268222, -0.014444, -0.0365058, -0.0201282, -0.0582419, 0.0048415, -0.0453749, -0.0535721, 0.0157518, 0.0383483, 
	-0.02307, -0.00703457, -0.0234962, 0.00242962, -0.0457386, -0.0138678, -0.0284383, -0.0711315, 0.0200887, 0.0762476, 
	0.0409326, -0.0467561, 0.0207032, -0.0723022, -0.0365391, -0.0754014, -0.0564563, -0.0303687, -0.00593021, -0.088292, 
	-0.0363265, -0.0283245, 0.0609702, -0.0296076, -0.0196477, -0.12379, -0.036993, -0.0318628, -0.0153277, -0.0946445, 
	-0.0143773, 0.0132809, 0.0394601, 0.0143016, 0.0369859, -0.144591, 0.00281725, -0.0205195, -0.021635, -0.0753209, 
	0.0374395, 0.0310799, -0.00769875, -0.0162635, 0.0117638, -0.0582297, -0.107698, -0.0526167, 0.0112248, -0.0316552, 
	-0.0502301, -0.00817251, -0.00654611, 0.050681, -0.0695357, 0.0141574, -0.0976972, -0.0263978, 0.07573, 0.0296409, 
	0.0166114, -0.0113143, -0.0373045, -0.0435912, -0.0205788, 0.022271, -0.0943332, 0.0125289, 0.00569444, 0.0476876, 
	-0.00468584, -0.0339881, -0.0568184, -0.0768501, -0.0636255, -0.00476497, -0.0493471, 0.034223, 0.00533281, 0.0110361, 
	0.0169919, -0.0401261, -0.0474215, -0.057172, -0.080073, -0.0587183, -0.0456086, 0.0938885, 0.0421325, -0.0568133, 
	0.000986853, -0.021777, -0.0200184, -0.000616068, -0.0445283, 0.00810925, -0.0501009, 0.0171478, 0.0640259, -0.0305148, 
	-0.0113172, -0.0173878, -0.0217002, -0.0227305, -0.0370899, 0.0266914, -0.0429503, -0.0717162, 0.0110868, 0.0242533, 
	-0.0342341, -0.0121201, -0.0239199, -0.0221482, -0.0677847, 0.0015478, -0.0499499, -0.039924, -0.0139672, 0.0298369, 
	-0.0259683, -0.0105021, -0.0224035, -0.000865917, -0.0496079, -0.0230615, -0.0174788, -0.0657154, -0.00709934, 0.0744788, 
	0.0264754, -0.0418345, 0.0137141, -0.0795802, -0.0105183, -0.0779893, -0.019432, -0.039223, 0.00636596, -0.0763376, 
	-0.0160637, -0.0163719, 0.0605664, -0.0302412, 0.00354661, -0.0996385, -0.0497318, -0.0357575, 0.00864833, -0.0730554, 
	-0.00980746, 0.0217994, 0.0614165, 0.0349445, 0.0267856, -0.0986955, -0.0299054, -0.0204592, 0.000301486, -0.0411649, 
	-0.0196536, 0.0301934, -0.0408742, 0.00294634, -0.0563081, -0.0196544, -0.0571921, -0.0123649, 0.018487, -0.00345176, 
	-0.0730034, -0.0341995, -0.0134854, 0.0703457, -0.0978196, 0.0133892, -0.0936301, 0.0356924, 0.0111139, 0.0497764, 
	-0.0147656, -0.0100006, -0.0364784, -0.0286786, -0.047003, 0.0118235, -0.108753, 0.0334128, -0.0516713, 0.0585877, 
	-0.000603641, -0.0219976, -0.0741499, -0.0839974, -0.0724949, -0.0523356, -0.0724675, 0.0496509, -0.023137, 0.0237827, 
	0.0152826, -0.0225816, -0.063616, -0.0569763, -0.0783688, -0.105666, -0.0561953, 0.109734, 0.0401168, -0.0360202, 
	-0.00132688, -0.0173385, -0.0231119, -0.00501583, -0.0557772, 0.0336626, -0.0228673, -0.00827131, 0.0829702, -0.0147005, 
	-0.00568641, -0.0188527, -0.0622527, -0.0214326, -0.0131836, 0.0765164, -0.0353361, -0.108417, 0.0157681, 0.0455807, 
	-0.0250228, -0.01779, -0.0712436, -0.0206225, -0.0383084, 0.0355461, -0.0435462, 0.0322585, -0.048348, -0.0230167, 
	-0.0252735, -0.0182389, -0.0453146, -0.0145325, -0.0360905, -0.0530219, -0.0237495, 0.0267158, -0.0469681, -0.00680875, 
	0.0227083, -0.0400723, 0.00220638, -0.0580869, 0.0303663, -0.0461557, 0.00843646, -0.0238862, -0.0191747, -0.0776226, 
	0.0038421, -0.0174607, 0.0198632, -0.0162794, 0.026119, -0.0169785, -0.0425389, -0.033942, -0.00287555, -0.0798341, 
	-0.032111, 0.0135758, 0.060485, 0.0187346, 0.0462721, -0.0301783, -0.0504459, 0.0150426, -0.0246854, -0.0554774, 
	-0.0371044, 0.00812776, -0.0715071, -0.0521122, -0.104471, -0.0078996, -0.0634523, 0.0428969, -0.0525727, 0.00450451, 
	-0.106656, -0.0441039, -0.0501816, 0.0617043, -0.126101, -0.0221095, -0.106846, 0.0633944, -0.0642543, 0.0556278, 
	-0.0149367, -0.0281408, -0.0802805, -0.0547939, -0.0576293, -0.0229403, -0.0944065, 0.0112338, -0.0924692, 0.0469249, 
	-0.0016816, -0.0225321, -0.0841668, -0.0860697, -0.0900056, -0.0638701, -0.0704822, 0.0207848, -0.021589, 0.0168175, 
	-0.00488066, -0.0143855, -0.0415941, -0.0374824, -0.081221, -0.0534813, -0.0319369, 0.0776208, 0.0778283, -0.0345713, 
	-0.021176, -0.0177712, -0.0303622, -0.0168255, -0.0364647, 0.0357839, -0.0044453, -0.0412299, 0.0807402, -0.0354833, 
	-0.0101956, -0.0236516, -0.0398658, -0.0324603, -0.0286547, -0.000896629, -0.0309218, 0.00131621, 0.00362172, -0.0387421, 
	-0.0202457, -0.0229049, -0.0802533, -0.0611193, -0.038208, -0.0122436, -0.0183373, 0.0835321, -0.0789654, -0.0610269, 
	-0.0306347, -0.016798, -0.0487788, -0.0493718, -0.029954, -0.090819, -0.0151355, 0.100519, -0.0794321, -0.0735557, 
	0.0125342, -0.0439113, -0.000675703, -0.0576055, 0.0572557, -0.0141125, 0.0356253, 0.00532216, -0.076165, -0.0710756, 
	0.0182285, -0.0265745, -0.030296, -0.0209472, 0.00375925, 0.0567929, -0.0548138, -0.0474477, -0.0274199, -0.0851227, 
	-0.000421071, -0.00316388, 0.0107683, 0.00416989, 0.0417892, -0.0300599, -0.11839, 0.0513773, -0.0436161, -0.0620442, 
	-0.00462971, -0.0207472, -0.0996738, -0.067701, -0.151942, -0.0946515, -0.0914592, 0.0979634, -0.0888354, 0.00196397, 
	-0.119089, -0.0288362, -0.0650745, 0.0256671, -0.153086, -0.0634521, -0.0959066, 0.0121006, -0.0814882, 0.0705382, 
	-0.0198618, -0.0221518, -0.0949954, -0.0347881, -0.055655, 0.00691209, -0.0529277, -0.0590842, -0.0693862, 0.0788316, 
	-0.0129824, -0.00859123, -0.0582237, -0.0612088, -0.106799, 0.0279205, -0.0387656, 0.00813178, -0.00205838, -0.0131434, 
	-0.00691323, -0.0129909, -0.0146562, -0.043775, -0.0623642, 0.0557144, 0.000876572, 0.00789344, 0.0635669, -0.0366189, 
	-0.0367426, -0.0197908, 0.00703616, -0.0127486, -0.0270229, 0.0669579, -0.0118606, -0.0704459, 0.035419, -0.0455364, 
	-0.0189034, -0.0252706, 0.0247628, -0.00964402, -0.0542414, 0.0219724, -0.0468038, -0.0182292, 0.00115918, -0.0600998, 
	-0.0018777, -0.0180973, -0.0298847, -0.0397024, -0.0361515, -0.0087503, -0.0279211, 0.044156, -0.0570116, -0.0767998, 
	-0.0324683, -0.0127047, -0.0336527, -0.0303842, -0.0171067, -0.0344582, -0.0165718, 0.0620087, -0.0577377, -0.0635542, 
	-0.0246068, -0.0490462, -0.0189244, -0.0705495, 0.0412383, 0.00944919, 0.0492292, -0.0323858, -0.102185, -0.0226402, 
	-0.0211101, -0.026996, -0.057408, -0.033659, -0.0409221, 0.0950098, -0.0449712, -0.0866762, -0.0251519, -0.0874795, 
	-0.0101399, -0.00837942, -0.0736525, -0.00536827, 0.0239854, -0.0814688, -0.070756, 0.0647528, -0.0328373, -0.0602717, 
	0.00266617, -0.0249249, -0.106387, -0.0369304, -0.163463, -0.0633901, -0.101557, 0.00867466, -0.102459, 0.0254199, 
	-0.0762145, 0.0026086, -0.0727548, -0.0450303, -0.115642, -0.0268401, -0.0762147, -0.0833365, -0.090667, 0.103261, 
	-0.0141086, -0.0224542, -0.0738204, -0.00733537, -0.0298329, 0.0220273, -0.0276503, -0.0250635, -0.0632592, 0.0399456, 
	-0.0128927, 0.0167825, -0.0149806, -0.0654881, -0.102778, 0.0616543, -0.0187521, -0.0437156, -0.0258276, 0.00654847, 
	-0.00843384, 0.00593303, 0.00350149, -0.0407264, -0.0541247, 0.132156, -0.0248673, -0.104025, 0.0201479, -0.0580097, 
	-0.0314992, -0.012314, -0.0162061, -0.0146909, -0.0104463, 0.115539, -0.0308384, -0.112694, 0.00588771, -0.05343, 
	-0.0235816, -0.0135999, 0.02764, -0.0145505, -0.0111426, 0.0974014, -0.0445341, -0.0805338, -0.0189735, -0.0435194, 
	0.0140095, -0.0114306, 0.00873083, -0.0133553, -0.0154475, 0.0994877, -0.0593487, -0.0505096, -0.0327968, -0.0570352, 
	-0.0243863, -0.00927409, -0.0278688, -0.0204823, -0.0109844, 0.10303, -0.0268384, -0.0601044, -0.0251932, -0.048619, 
	-0.0358792, -0.0471094, -0.0151887, -0.0403743, 0.0125678, 0.000179092, 0.0489132, -0.0772562, -0.0692671, 0.0115977, 
	-0.0236944, -0.0180152, -0.0672812, 0.00354594, -0.0323729, 0.0760551, -0.0620365, -0.0395912, -0.00388096, -0.126591, 
	-0.00279552, -0.018981, -0.12247, 0.01986, 0.0210818, -0.0393732, -0.052087, 0.0421396, -0.00627032, -0.0769895, 
	0.0250611, -0.0330462, -0.0866456, 0.0154926, -0.170445, -0.0688201, -0.126512, 0.0026972, -0.0922469, 0.00264497, 
	-0.0190215, 0.0238677, -0.063695, -0.0837938, -0.105762, -0.0482014, -0.0628744, -0.060958, -0.0834565, 0.0847677, 
	0.0093234, -0.0225663, -0.0401212, -0.0113017, -0.0385867, 0.013729, -0.0213568, -0.0425014, -0.0414624, 0.0523776, 
	-0.0294999, 0.048498, -0.00884706, -0.0732491, -0.110877, 0.0652176, -0.0421502, -0.0585939, -0.0329313, -0.0406303, 
	-0.0229071, 0.0287356, -0.00949278, -0.0471872, -0.0742568, 0.128236, -0.0472134, -0.100832, 0.00250611, -0.0631844, 
	-0.0146963, -0.0153288, -0.0109132, -0.0148652, -0.0204216, 0.0974, -0.0333067, -0.0909248, 0.0141332, -0.0519699, 
	-0.0119732, -0.0164795, 0.0152358, -0.0277052, -0.00661701, 0.0612772, -0.00157866, -0.0410556, -0.0201679, -0.0465057, 
	0.000594116, -0.00953711, 0.0402112, -0.012785, -0.0209532, 0.069024, -0.0493671, -0.0597881, -0.0193248, -0.0342646, 
	-0.0320665, -0.00894296, -0.0108083, -0.0172399, -0.0140468, 0.0886142, -0.0232093, -0.0683873, -0.0153089, -0.0229146, 
	-0.0332522, -0.0453218, -0.0128885, -0.0261399, 0.0204912, -0.029648, 0.0506667, -0.0807226, -0.0447047, 0.00856265, 
	-0.0189785, -0.0216639, -0.0494461, 0.0102738, -0.0239312, 0.0219745, -0.0489191, -0.0137119, -0.0025622, -0.0979951, 
	0.0228955, -0.0277071, -0.157154, -0.0160753, -0.0135456, -0.0281054, -0.0201719, -0.0328043, 0.0202718, -0.0255913, 
	0.0469413, -0.0342642, -0.0910579, -0.0217037, -0.127442, -0.0365635, -0.109612, -0.060912, -0.0391832, 0.0417797, 
	-0.00483305, 0.0332448, -0.057747, -0.117826, -0.0660582, -0.00347988, -0.0356396, -0.0336763, -0.0400704, 0.0418266, 
	-0.00470697, -0.0159365, -0.0199602, -0.0174135, -0.00618354, 0.0408966, -0.0409089, -0.0158467, -0.00913628, 0.0049045, 
	-0.0444892, 0.0668619, -0.022194, -0.0701401, -0.109655, 0.0602338, -0.0490177, -0.0191514, -0.0241398, -0.049217, 
	-0.00691579, 0.0521021, -0.0151319, -0.0466663, -0.0739526, 0.076054, -0.0320952, -0.0145511, 0.00773953, -0.0399727, 
	0.000181349, -0.00845478, 0.00593418, -0.0154594, 0.00424106, 0.057356, -0.0258051, -0.00473304, 0.0126768, -0.0321195, 
	-0.0201997, -0.0160062, 0.0022293, -0.017305, -0.0262487, 0.0746849, 0.0182954, -0.0215723, -0.0228407, -0.0289593, 
	0.00334693, -0.00959603, 0.0303974, -0.0114278, -0.010537, 0.053948, -0.0306159, -0.0283027, -0.0197023, -0.0104766, 
	-0.0186118, -0.00537442, -0.012886, -0.0210003, -0.00257265, 0.0498098, -0.0251739, -0.0140096, -0.00741303, 0.00151834, 
	-0.0332982, -0.0418917, -0.000488309, -0.0227364, 0.0208445, -0.0481941, 0.0230997, -0.0356024, -0.00411965, -0.00974758, 
	-0.012986, -0.0192333, -0.0238755, -0.0238268, -0.0483139, -0.00870526, -0.0252503, -0.0128726, 0.0147371, -0.0728495, 
	0.0570616, -0.0227649, -0.162485, -0.030104, -0.0566166, -0.0199042, 0.0194835, -0.0348799, 0.0380424, -0.0087045, 
	0.0305053, -0.0320688, -0.0641824, -0.0222593, -0.0759652, -0.0213348, -0.0973418, -0.0446602, 0.00806377, 0.0153788, 
	-0.0289702, 0.0410034, -0.0317894, -0.118028, -0.0288834, 0.00027654, -0.01635, -0.0366747, -0.0156433, 0.00439362, 
	-0.0135813, -0.00361305, -0.00726774, -0.00564573, 0.00643913, 0.0406469, -0.0108013, -0.02354, -0.00023561, -0.00927829, 
	-0.0409881, 0.0826795, -0.0106597, -0.0701989, -0.0979044, 0.0416347, -0.0421754, -0.0137615, -0.0124059, -0.0321218, 
	-0.00635048, 0.0722053, -0.0140709, -0.0448712, -0.0650276, 0.013034, -0.03054, -0.00555563, 0.0112386, -0.0101527, 
	0.00209811, -0.00344558, 0.0229012, -0.00599717, 0.00651465, 0.0259464, -0.0140897, -0.00952709, 0.00857611, -0.0127648, 
	-0.0254478, -0.0193507, 0.00168756, -0.0236434, -0.0240556, 0.0603957, 0.00212598, -0.0242233, -0.0155757, -0.0277608, 
	-0.00994966, -0.00907696, 0.028287, -0.0189032, 0.00284324, 0.0278591, -0.0247467, -0.0286911, -0.0195439, 0.0149489, 
	-0.0136311, -0.00437325, -0.0099085, -0.0179349, 0.00222188, 0.0342746, -0.0229235, -0.0127426, -0.00546278, 0.0135361, 
	-0.0478998, -0.0391402, -0.00386462, -0.0232276, 0.041263, -0.0298132, -0.0105592, -0.00177985, 0.0332167, -0.0135162, 
	-0.0286424, -0.0160479, -0.0203344, -0.00727331, -0.105882, -0.00916225, 0.0298963, -0.0035868, 0.010433, -0.0461674, 
	0.0324491, -0.0172419, -0.189771, 0.0591642, -0.106439, 0.000251865, 0.0438102, -0.0509941, 0.0438638, -0.00138727, 
	-0.0539063, -0.0270689, -0.0460616, 0.0718887, -0.0431952, -0.0336872, -0.119528, -0.0471955, 0.0257998, -0.0225093, 
	-0.0238039, 0.044524, -0.0267056, -0.0736551, -0.0320716, -0.00237091, -0.0282196, -0.0346537, -0.0157141, -0.0276888, 
	-0.0136501, -0.00209347, -0.00595693, 0.0132344, 0.00653185, 0.0428222, -0.00915364, -0.0253304, 0.00488217, -0.0152267, 
	-0.0292878, 0.0956459, -0.00392483, -0.0555125, -0.0923602, 0.0201442, -0.0557563, -0.00547844, -0.00869295, -0.0233488, 
	-0.00254061, 0.0828535, -0.0217062, -0.026963, -0.0617164, -0.0155063, -0.0293368, -0.0250566, -0.00465279, 0.0106968, 
	0.00966144, 0.00167676, 0.0173439, -0.00303226, 0.0337787, 0.0176691, -0.0351627, -0.0385672, -0.0107631, 0.0103416, 
	-0.0144428, -0.0181684, -0.0162502, -0.0250008, 0.0593933, 0.0510468, -0.0605837, -0.0253689, -0.0229201, -0.00249702, 
	-0.021205, -0.00698052, 0.0202133, -0.0247529, 0.0252721, 0.0265291, -0.00274362, -0.0284352, -0.0290143, 0.0237408, 
	-0.0125728, -0.00308075, -0.00203575, -0.0138721, -8.91769e-05, 0.0407929, -0.0168965, -0.00768414, -0.0112191, 0.00443746, 
	-0.0642938, -0.0313161, -0.0422469, -0.0352471, 0.075174, -0.0213189, -0.0368199, 0.0102287, 0.0144475, -0.0134757, 
	0.00833436, -0.0125533, 0.00725492, 0.0110613, -0.185931, -0.0515122, 0.0632145, 0.00448186, -0.0235224, -0.0269409, 
	0.0632988, -0.0192657, -0.181177, 0.0693285, -0.0717473, -0.0297604, -0.0163637, -0.0514594, 0.0408745, -0.0181553, 
	-0.071798, -0.0376396, -0.102987, 0.112499, 0.0279712, -0.0473152, -0.11315, -0.0434382, 0.0119406, -0.0568949, 
	-0.0296404, 0.0387386, -0.0445624, -0.0495443, -0.05319, -0.0130884, -0.0132624, -0.0342067, -0.0214145, -0.0532965, 
	-0.0042169, -0.0031392, -0.0113195, 0.000909585, -0.00859992, 0.0238777, 0.00936003, -0.0216222, 0.0108167, -0.0206102, 
	-0.0220616, 0.0988729, -0.015558, -0.0545174, -0.0831333, -0.0150428, -0.0305708, -0.00485524, -0.00559227, -0.0195394, 
	-0.000375892, 0.0937296, -0.0234631, -0.0372896, -0.0603103, -0.027103, -0.0215933, -0.0308052, -0.00714556, 0.0123828, 
	-0.00359789, 0.00662721, 0.0305882, -0.0143364, 0.0553928, 0.00527472, -0.044837, -0.0150432, -0.0189106, 0.0106958, 
	-0.0251255, -0.0165128, -0.00905837, -0.0344415, 0.159283, 0.0188313, -0.131076, -0.00370986, -0.038143, 0.022026, 
	-0.0258504, -0.00848093, 0.0286185, -0.0212028, 0.0506674, 0.032948, -0.0234535, -0.0219337, -0.0384768, 0.0219215, 
	-0.0122531, -0.00280695, 0.00352303, -0.010119, 0.00307996, 0.0443688, -0.0114726, -0.00680099, -0.0146357, 0.00265787, 
	0.00180272, -0.00342123, -0.0229821, -0.00703659, -0.0135237, -0.0108091, 0.00746235, -0.00346871, -0.0029203, -0.0148565, 
	0.0180175, -0.0135328, 0.0457055, -0.0328405, -0.0677742, -0.031331, -0.0175952, -0.016997, -0.0405579, -0.0241629, 
	0.00375127, -0.0131865, 0.0343513, 0.0304008, -0.0482655, -0.0580332, -0.00698118, -0.0164556, -0.0587591, -0.0434243, 
	-0.00808059, -0.00504073, 0.0718754, 0.0119866, 0.0421817, -0.0707687, -0.0639138, -0.017569, -0.0502082, -0.0546589, 
	-0.0141984, -0.00790341, -0.117759, -0.047997, 0.10551, -0.0597652, 0.0346539, -0.0311512, 0.0244853, -0.0303926, 
	-0.0361853, -0.0288489, -0.0967439, -0.031231, 0.0191993, -0.0419428, 0.0976892, -0.0138088, 0.0358, -0.00026366, 
	0.00853096, -0.0192182, 0.0111629, 0.017853, -0.0884111, -0.0130878, 0.00306915, -0.0204728, 0.00704335, 0.00443192, 
	0.00950061, -0.0152994, 0.0087614, 0.015041, -0.0964725, 0.00495527, 0.0253554, -0.017747, -0.0217302, 0.00295988, 
	-0.00743543, -0.0117132, -0.0935427, -0.0463964, -0.0499346, 0.0153129, 0.117466, -0.00701255, -0.015633, 0.00317644, 
	0.0186032, -0.0173871, -0.0628743, -0.0465963, 0.0170474, 0.0247182, 0.0392583, -0.0102728, 0.00342588, -0.00315681, 
	0.0279737, -0.0133732, -0.0045957, -0.0279839, -0.00947808, 0.0184889, -0.0178289, -0.0119543, 0.00584643, -0.00141023, 
	0.00845322, -0.00571667, -0.00581917, -0.00906068, -0.0178626, -0.00657882, -0.032725, -0.00807487, 0.0132813, 0.0142536, 
	0.0187732, -0.012899, -0.00289909, -0.0170566, -0.0296491, -0.0238611, -0.0188746, -0.00819751, 0.00338973, -0.0312144, 
	0.0198864, -0.0238385, 0.0106982, -0.0343383, -0.0373737, -0.0457719, 0.00893417, -0.0210899, -0.016817, -0.0408724, 
	-0.00831707, -0.013488, -0.0107989, 0.0176317, 0.0384303, -0.0638571, 0.0146622, -0.0129066, 3.76844e-05, -0.0540996, 
	-0.0250654, 0.0118615, -0.0340245, 0.0160007, 0.0545439, -0.0520872, -0.0112049, -0.0289101, 0.0133768, -0.0378776, 
	0.0119986, 0.0144397, 0.0522424, -0.0138696, 0.00286864, -0.0236999, -0.101716, -0.0345309, 0.0497391, -0.00998211, 
	0.0182672, -0.00205947, -0.0120812, -0.0254208, 0.00071549, -0.00844805, -0.0391795, -0.0214841, 0.0352207, 0.0107594, 
	-0.000520562, -0.00948995, -0.0271903, -0.0195582, -0.0216808, -0.00440759, -0.0164566, -0.0167503, 0.0122365, 0.00525653, 
	0.00246172, -0.0175043, -0.0126201, -0.0111656, -0.0323305, -0.00182857, -0.00612328, 0.00237081, -0.00358302, -0.0179222, 
	0.0267899, -0.0113353, -0.019054, -0.010979, -0.00972295, 0.00292453, -0.0018975, 0.0111702, -0.00568208, -0.0209065, 
	0.00350269, -0.0171821, -0.00127458, -0.0221142, -0.0141812, 0.0225342, -0.0264647, -0.00900179, -0.00140782, -0.00629944, 
	0.00124966, -0.0145982, -0.0220913, -0.0213128, -0.0158945, 0.0121043, -0.0390068, -0.027726, 0.0100139, 0.0150887, 
	-0.0120726, -0.0064051, -0.0263911, -0.00550206, -0.0284321, -0.00876634, -0.0183939, -0.0349442, 0.0166739, 0.0375553, 
	0.0199963, -0.0211239, 0.00206382, -0.0247012, -0.0261689, -0.0330014, -0.02807, -0.0149197, 0.0268421, -0.0416285, 
	-0.00455527, -0.0239056, 0.013363, -0.0205779, -0.00915344, -0.0546226, 0.00388426, -0.0239504, 0.00903266, -0.044166, 
	-0.00662585, -0.00706518, -0.00329124, -0.00289861, 0.0296685, -0.0646523, 0.00815239, -0.0245106, 0.0085138, -0.0447027, 
	0.017741, 0.011769, 0.0256497, 0.00674505, 0.016643, -0.0444374, -0.0753801, -0.0342425, 0.0193556, -0.0293893, 
	-0.00622862, 0.00785694, 0.00321885, 0.00260716, -0.0221632, -0.00924066, -0.0400156, -0.0316661, 0.0484432, -0.00145454, 
	0.0160223, 0.00223977, -0.00940567, -0.0254113, -0.0122135, 0.0113302, -0.0340599, -0.00913044, 0.0215349, 0.00946746, 
	0.004284, -0.0114191, -0.00734605, -0.0349891, -0.0374181, 0.00728948, -0.0193376, 0.00352083, 0.0051284, 0.00320896, 
	0.0167456, -0.0145569, -0.00951623, -0.036265, -0.0414835, -0.0132951, -0.0268461, 0.0249304, 0.00215621, -0.0270772, 
	0.0165219, -0.0131258, -0.0094168, -0.00985649, -0.0203657, -0.0056963, -0.0283252, 0.0288406, 0.00219105, -0.0293691, 
	0.00163931, -0.0178995, -0.0105846, -0.0152905, -0.0170183, 0.0229547, -0.00716902, -0.0278324, -3.43403e-05, -0.00713066, 
	-0.00556441, -0.0142717, -0.0175005, -0.0231202, -0.0350015, 0.00532758, -0.0301393, -0.0265419, 0.000199159, 0.00820202, 
	-0.0196786, -0.0110182, -0.0174014, -0.00506057, -0.0447428, -0.0102124, -0.0121475, -0.0369538, 3.61356e-05, 0.0405148, 
	0.00367598, -0.0212713, 0.00517675, -0.0323191, -0.0162606, -0.0406437, -0.0200544, -0.0205208, 0.0448857, -0.0358078, 
	-0.006112, -0.0175449, 0.0271031, -0.0267863, -0.00771941, -0.0543996, -0.00754063, -0.0254286, 0.0223782, -0.0322401, 
	0.0065835, -0.00347164, -0.000928839, 0.0193158, -0.00495587, -0.0595379, 0.00683009, -0.0225053, 0.0191435, -0.0271799, 
	-0.00333755, 0.0116754, -0.0138481, 0.0183721, 0.00742414, -0.016773, -0.0245667, -0.0288974, 0.03007, -0.0144136, 
	-0.024106, -0.0041288, 0.00139615, 0.0313339, -0.0426751, 0.0115067, -0.0426492, 0.000731632, 0.028792, 0.0043788, 
	0.000266724, -0.00526642, -0.0045742, 0.00488384, -0.025178, 0.00858917, -0.047868, 0.026415, -0.00344916, 0.0192593, 
	0.00723912, -0.00830396, -0.0190258, -0.0434061, -0.0347984, -0.0199568, -0.0338052, 0.0212057, -0.00826862, 0.00928941, 
	0.0084286, -0.00270675, -0.0234831, -0.0407174, -0.0416628, -0.0530877, -0.0262362, 0.0487973, 0.0038607, -0.014385, 
	0.013565, -0.00913894, -0.00416538, -0.020915, -0.0283426, 0.00383754, -0.018442, 0.0101469, 0.0220111, -0.0111284, 
	0.00214403, -0.0183776, -0.0242581, -0.0209268, -0.00298199, 0.0478495, -0.0118238, -0.0725423, 0.0100116, 0.0217413, 
	-0.00481624, -0.0168087, -0.035097, -0.021814, -0.0268974, 0.0363127, -0.0343921, 0.00207012, -0.00876495, -0.00932398, 
	-0.0139533, -0.0159328, -0.035473, -0.0115808, -0.0310049, -0.0137757, -0.0163667, 0.0189819, -0.0229532, -0.0045375, 
	-0.00347334, -0.0199988, 0.00428116, -0.027545, -0.00287197, -0.0320297, -0.00822099, -0.0183308, 0.0286426, -0.0311282, 
	0.000636433, -0.0169836, 0.0237635, -0.0170613, 0.00570245, -0.0250488, -0.0134724, -0.0214643, 0.0144967, -0.0284777, 
	-0.0110209, -0.00537632, 0.00113745, 0.0197409, -0.00186073, -0.00597332, -1.15041e-05, -0.0147824, 0.00103564, -0.0304791, 
	-0.0254366, 0.0015166, -0.0323063, 0.00350969, -0.0126819, 0.0101479, -0.0167188, 0.0111431, -0.00013985, -0.0147583, 
	-0.0537811, -0.0220771, -0.0175068, 0.0640375, -0.0569323, -0.00756237, -0.0506562, 0.0491485, -0.0167792, 0.00373172, 
	-0.00127278, -0.018566, -0.0267999, -0.00683356, -0.0324493, -0.0252554, -0.0544755, 0.0270112, -0.0313664, 0.0110622, 
	-0.00131394, -0.0147916, -0.0313854, -0.0364736, -0.0461336, -0.0491571, -0.0386425, 0.0125141, -0.00883252, 0.0112227, 
	-0.00483918, -0.00118271, -0.02192, -0.0342935, -0.0458622, -0.0401893, -0.0164243, 0.0510992, 0.0287037, -0.027613, 
	-0.00183938, -0.00917194, -0.0169341, -0.0228682, -0.0121007, 0.0193311, -0.00430342, -0.00831316, 0.0381205, -0.0166381, 
	-0.0051973, -0.0211676, -0.0259142, -0.0283792, -0.00361586, 0.0110985, -0.0120952, -0.0177919, 0.0133943, -0.0103061, 
	-0.0079575, -0.0212416, -0.0414322, -0.0442839, -0.0239951, 0.0214945, -0.0206384, 0.0279179, -0.0215884, -0.0287941, 
	-0.0192368, -0.0166455, -0.0458182, -0.0348569, -0.0248627, -0.00887241, -0.0137927, 0.0406381, -0.0382087, -0.0464572, 
	-0.00283782, -0.0222734, 0.00290206, -0.0266822, 0.0113916, -0.0246043, 0.00437004, 0.0111597, -0.0126926, -0.0264532, 
	1.41357e-05, -0.0217243, 0.0018148, -0.0237056, 0.015605, 0.0315918, -0.0132437, -0.0272406, -0.0166051, -0.0296655, 
	-0.0158891, -0.0111206, -0.00860068, -0.00136898, -0.00240269, 0.0120482, -0.0144538, 0.00882365, -0.0244462, -0.0365648, 
	-0.0224975, -0.016803, -0.0486562, -0.0017598, -0.0415126, -0.0342051, -0.0191294, 0.0654734, -0.0269341, -0.0160802, 
	-0.0675608, -0.0278513, -0.0174985, 0.0681622, -0.0735779, -0.0441258, -0.0531934, 0.035481, -0.0314041, 0.0145287, 
	-0.0129915, -0.018422, -0.0459292, -0.00781149, -0.0300488, -0.0184671, -0.0275382, -0.0178767, -0.0229147, 0.0249175, 
	-0.00856201, -0.0137199, -0.0291989, -0.0189219, -0.0500203, -0.00595903, -0.0232009, 0.0160957, 0.00677439, -0.00896557, 
	-0.0043193, -0.00154513, -0.00995479, -0.0319189, -0.0379063, 0.0191607, 0.000513748, 0.0147754, 0.0352958, -0.0169054, 
	-0.00998672, -0.0138944, 0.00522495, -0.0238405, -0.0102512, 0.0298119, 0.000206059, -0.0280965, 0.0234851, -0.0237154, 
	-0.0211782, -0.0214468, 0.00207004, -0.0141476, -0.0222157, 0.00874163, -0.0181701, 0.00103263, 0.0130454, -0.0329526, 
	-0.0124635, -0.0196416, -0.0137436, -0.0347145, -0.0316701, 0.0026964, -0.0164409, 0.0335172, -0.0229263, -0.0493804, 
	-0.0242583, -0.0134368, -0.0269393, -0.0275306, -0.0129848, -0.020564, -0.0125663, 0.053521, -0.0320218, -0.0428861, 
	-0.0198143, -0.0268468, -0.0157697, -0.0394086, 0.00816454, -0.0215911, 0.0193716, 0.0143976, -0.0370059, 0.00374239, 
	-0.0175478, -0.0235352, -0.00920365, -0.0274805, -0.00931155, 0.0553811, -0.0121442, -0.0476776, -0.0257252, -0.019296, 
	-0.0175349, -0.011496, -0.023807, -0.0077249, -0.0198319, -0.0138101, -0.00937481, 0.0207376, -0.0227696, -0.0293481, 
	-0.0139027, -0.0211958, -0.0542853, -0.00430869, -0.049464, -0.0292088, -0.0260703, 0.0249961, -0.0364139, -9.61564e-05, 
	-0.0470317, -0.0149583, -0.0297663, 0.0289191, -0.0450607, -0.0108744, -0.054231, -0.0314022, -0.0332732, 0.0370943, 
	-0.0124082, -0.0204375, -0.0393328, 0.00394714, -0.0141605, -0.00283061, -0.0151419, -0.00367555, -0.0170486, 0.00872365, 
	-0.00308315, -0.00826519, -0.00951895, -0.0168014, -0.0439502, 0.00731116, -0.0102108, 0.00314079, 0.000696272, 0.00583399, 
	-0.0014774, 0.00527131, 0.00388392, -0.027304, -0.0332266, 0.0479891, -0.0148862, -0.0271875, 0.0195275, -0.0266179, 
	-0.0109518, -0.00967097, -0.00938375, -0.0149512, -0.00063224, 0.0575404, -0.0181464, -0.0494496, 0.00894935, -0.0283296, 
	-0.0263972, -0.0142671, 0.00987758, -0.01035, -0.00719899, 0.0453655, -0.0178817, -0.0331606, 0.00311982, -0.0192775, 
	-0.00404609, -0.0141941, -0.00101112, -0.0203418, -0.00583201, 0.039231, -0.0276251, -0.00505568, -0.0106005, -0.0327155, 
	-0.0215888, -0.0110662, -0.0211204, -0.0177866, -0.00351722, 0.0424004, -0.0213503, -0.00610594, -0.0135862, -0.0291492, 
	-0.0295187, -0.0273403, -0.0245618, -0.0324044, -0.00431279, -0.0201911, 0.0179102, -0.0149362, -0.028831, 0.0322884, 
	-0.0191049, -0.0192669, -0.0131504, -0.0134897, -0.0136136, 0.0463955, -0.015104, -0.0230599, -0.0187274, -0.0375239, 
	-0.0136832, -0.0143738, -0.0209443, 0.010022, -0.0113411, -0.00291852, -0.025329, 0.0233104, -0.00955512, -0.037184, 
	-0.00915154, -0.0281053, -0.0475732, 0.0199637, -0.0490032, -0.0251506, -0.0399533, -0.00378774, -0.0377784, 0.00368538, 
	-0.0183488, -0.0123659, -0.0292954, -0.00210411, -0.0379727, -0.0360964, -0.0364418, -0.0144333, -0.0394581, 0.0318256, 
	0.000514241, -0.0253005, -0.0245673, 0.00495149, -0.0202353, -0.0107743, -0.00838276, -0.00808859, -0.0126473, 0.030171, 
	-0.00550383, -0.000368811, -0.000969358, -0.0270495, -0.0435947, 0.0213868, -0.0176378, -0.0139174, -0.00572956, -0.014873, 
	-0.0199959, 0.011731, -0.00307762, -0.0263297, -0.0361028, 0.0611334, -0.0235696, -0.0431794, 0.0091639, -0.0392466, 
	-0.0122257, -0.0123695, -0.00928826, -0.0138045, -0.0101971, 0.0538915, -0.0231615, -0.0445848, 0.018541, -0.0340653, 
	-0.0146788, -0.0164738, 0.0019569, -0.0177971, -0.00576355, 0.0199003, -0.0114596, -0.00272514, 0.00392822, -0.0255571, 
	-0.0173216, -0.0146924, 0.00391319, -0.0171568, -0.00760168, 0.0328848, -0.00709279, -0.0182381, -0.00396909, -0.0204031, 
	-0.0269042, -0.0103958, -0.0107972, -0.0160781, -0.0100225, 0.062695, -0.0140909, -0.0401142, -0.012971, -0.0153988, 
	-0.0326315, -0.0270313, -0.0250392, -0.0232967, -0.00707471, -0.0277458, 0.0273786, -0.0332838, -0.0172351, 0.0315402, 
	-0.0161058, -0.02016, -0.00618788, -0.00938668, -0.00415859, 0.0261505, -0.0197048, -0.0133592, -0.0124758, -0.0375901, 
	0.00307365, -0.0200893, -0.0170784, -0.00554784, -0.0100898, -0.00120194, -0.0275736, -0.0117801, -0.00290423, -0.0110805, 
	0.0137521, -0.0285294, -0.0515505, 0.0127879, -0.0448737, -0.0179342, -0.0335649, -0.0342328, -0.0250063, 0.0243775, 
	-0.00722911, -0.00484539, -0.0234658, -0.0198773, -0.03492, -0.00813933, -0.0100453, -0.0228389, -0.0174736, 0.0254111, 
	0.00247162, -0.0270234, -0.0128006, -0.00203415, -0.00494832, 0.0143997, -0.0215546, -0.0107851, 0.00187046, 0.00823854, 
	-0.014557, 0.00530944, -0.00924503, -0.019719, -0.0383987, 0.0301792, -0.0226944, -0.00597357, -0.00293809, -0.0262228, 
	-0.0122477, 0.0221783, -0.0111095, -0.0246345, -0.0333675, 0.0416456, -0.0224122, -0.00905888, 0.00819679, -0.0325453, 
	-9.14653e-05, -0.00762787, -0.00120754, -0.0106832, 0.00431962, 0.031844, -0.01727, -0.00196512, 0.0163571, -0.0201131, 
	-0.01474, -0.0155454, 0.00251612, -0.0128785, -0.010877, 0.0239895, 0.00396115, -0.00165188, 0.00203976, -0.0123948, 
	-0.0119874, -0.0141807, 0.00728877, -0.0119268, -0.000667001, 0.0266874, 0.00288011, -0.0111027, -0.00443301, -0.0058719, 
	-0.0168068, -0.00785409, -0.00564357, -0.0172958, -0.00646237, 0.031336, -0.0131304, -0.00434816, -0.00680318, -0.00160016, 
	-0.0273687, -0.0253139, -0.0234906, -0.013379, -0.00796781, -0.0299881, 0.018575, -0.0267628, -0.00624845, 0.0263777, 
	-0.02247, -0.0180472, 0.00381147, -0.0191624, -0.0114935, 0.00497354, -0.012932, -0.01636, 0.000303502, -0.0215561, 
	0.0233974, -0.0185865, -0.0184098, -0.0263379, -0.0307473, 0.00288088, -0.00774961, -0.0216792, 0.00692147, 0.00140373, 
	0.0247359, -0.0248978, -0.0419984, 0.00016126, -0.0416701, -0.00211364, -0.0258136, -0.0275932, -0.00488122, 0.0138909, 
	-0.0127003, -0.00122876, -0.00679307, -0.0230021, -0.0152604, -0.00396806, -0.00147734, -0.0221451, -0.00675953, 0.0116003, 
	-0.0064529, -0.0184288, -0.00558606, 0.00507396, -0.00048396, 0.0162512, -0.00127526, -0.015399, 0.00133704, -0.00677526, 
	-0.0144507, 0.00952712, 0.000289271, -0.0169373, -0.0344044, 0.0234071, -0.0115067, -0.00989817, 0.000472568, -0.0210422, 
	-0.00977347, 0.0342077, -0.00417249, -0.0296198, -0.0321914, 0.0100514, -0.00718833, -0.000527253, 0.0114536, -0.0166604, 
	0.00375582, -0.00297866, 0.00690346, -0.000756001, 0.00379558, 0.00144191, -0.00275993, -0.00475975, 0.0143526, -0.00317743, 
	-0.0101368, -0.0142817, 0.00138425, -0.0124833, -0.00406748, 0.0127645, 0.00302986, -0.00991864, 0.00274654, -0.0094333, 
	-0.0139486, -0.0120439, 0.0157345, -0.013045, 0.00415529, 0.00794978, -0.00444725, -0.0101984, -0.0042733, 0.00205078, 
	-0.0124675, -0.00528383, -0.0002691, -0.0143551, -0.00120795, 0.0170611, -0.0139419, -0.00443583, -0.00144175, 0.00922538, 
	-0.0262879, -0.020532, -0.0147688, -0.0143618, 0.00070334, -0.00702316, -0.000863183, -0.00721464, 0.0143361, 0.00555115, 
	-0.028538, -0.013818, 0.011189, -0.014847, -0.031522, 0.00999406, 0.000739582, -0.00826143, 0.00197307, -0.0154613, 
	0.0133723, -0.0157278, -0.0295587, 0.0103163, -0.0529005, 0.0168812, 0.0160913, -0.0243918, 0.00929289, 0.00431397, 
	-0.00841299, -0.0239539, -0.0305092, 0.037956, -0.0327805, -0.00262942, -0.0313233, -0.0325232, 0.00995721, 0.00375841, 
	-0.0140223, 0.00108972, -0.0046293, -0.00377119, -0.0040135, -0.00393819, -0.0109957, -0.0229266, -0.00653645, -0.00638928, 
	-0.00708312, -0.0136481, 0.00172929, 0.0210202, 0.00191544, 0.0203303, 0.000802101, -0.0215356, -0.00234113, -0.00956886, 
	-0.00922825, 0.0139434, 0.00195801, -0.000845399, -0.0284098, 0.0196754, -0.018676, -0.00973636, -0.00368447, -0.0160395, 
	-0.00325432, 0.0376217, -0.00757491, -0.0130355, -0.0285017, -0.0106661, -0.00833542, -0.0149686, 0.00103103, -0.00233361, 
	0.014097, 0.00120747, 0.00458017, 0.00597712, 0.0072187, -0.00777539, -0.00205529, -0.0258954, -0.0010227, 0.0100648, 
	-0.00167174, -0.0133549, -0.00235945, -0.0121872, 0.0209515, 0.0103302, -0.0164678, -0.0133891, -0.00421923, -0.00381748, 
	-0.0128348, -0.00902972, 0.0114078, -0.014393, 0.0163351, 0.00781971, -0.00575425, -0.013014, -0.00745281, 0.00657162, 
	-0.0109769, -0.00313074, 0.00291603, -0.0107203, -0.000588257, 0.0195225, -0.0105722, -0.00493419, -0.00397288, 0.00388394, 
	-0.0322361, -0.0149954, -0.0218556, -0.0175269, 0.0289013, 0.0077959, -0.0101994, -0.00391061, 0.0105468, -0.000827009, 
	-0.0223126, -0.00936531, 0.0170024, -0.00845005, -0.0525904, -0.00494464, 0.016095, 0.000571944, -0.0117634, -0.0115866, 
	0.0214761, -0.0147725, -0.0223344, 0.0266476, -0.0526639, 0.00196438, 0.0101521, -0.0256906, 0.00795321, -0.0019427, 
	-0.00736964, -0.0258857, -0.0347752, 0.0546644, -0.004019, -0.0109834, -0.0501339, -0.0287965, 0.00558882, -0.013927, 
	-0.0125881, 0.000389766, -0.0254101, 0.00592135, -0.0101399, -0.00459193, -0.00022772, -0.0241585, -0.008709, -0.0209376, 
	-0.00314272, -0.0151055, -0.00699536, 0.0178771, -0.00610873, 0.0186958, 0.00898243, -0.0224128, 5.03079e-05, -0.0145795, 
	-0.00376448, 0.0114776, -0.00876043, -0.000835504, -0.0236409, 0.00250346, -0.00292212, -0.0124842, 0.000664013, -0.0129576, 
	-0.00259566, 0.0422712, -0.0116966, -0.0167096, -0.0283999, -0.0220875, 0.00848076, -0.0210729, -0.00357078, -0.000757826, 
	0.00882699, 0.00431153, 0.00335465, 0.00121788, 0.00326406, -0.00796581, 0.00728081, -0.0207805, -0.00602115, 0.00585739, 
	-0.000878816, -0.0117944, 0.00991184, -0.0169829, 0.0468235, 0.00140168, -0.0384495, -0.00765219, -0.00981514, 0.00522721, 
	-0.0132388, -0.00863399, 0.0133053, -0.0141348, 0.0346013, 0.00766702, -0.0152593, -0.0128489, -0.0149295, 0.00859534, 
	-0.00986113, -0.0023915, 0.00680219, -0.00832797, 0.00319597, 0.0226646, -0.00669583, -0.00569126, -0.00737327, 0.00160291, 
	0.00471283, -0.00128388, -0.00287494, -0.00238513, -0.00224827, -0.00201873, 0.00246956, -0.000730431, -0.00120441, -0.00253871, 
	0.00665424, -0.00501616, -0.00379348, -0.00826052, -0.00373665, -0.00547765, 0.0139391, -0.00168715, -0.00526474, -0.00508248, 
	0.00664189, -0.0064705, -0.00642965, -0.0132213, -0.00572122, -0.0111439, 0.0265644, -0.00539117, -0.0157808, -0.00930605, 
	0.00476883, -0.00126308, 0.00598178, 0.00777191, -0.0161472, -0.0154513, 0.00727531, -0.0085029, -0.0324683, -0.012716, 
	0.0129284, 0.00441407, 0.0319433, -0.00558605, -0.0250697, -0.0234265, -0.0132158, -0.0136566, -0.0361221, -0.0188222, 
	-0.012393, 0.000360565, -0.0154106, -0.00542427, -0.0230163, -0.0316475, 0.024154, -0.0126159, -0.0286782, -0.018223, 
	-0.0271002, -0.00530533, -0.0693899, -0.0297854, 0.0238973, -0.0361788, 0.0394017, -0.0145324, -0.00145047, -0.0148803, 
	-0.00481185, 0.00294369, 0.0123767, -0.0251528, 0.0196675, -0.0324702, -0.0283715, -0.0163217, -0.022941, -0.0152416, 
	0.0137495, 0.00652099, 0.035288, 0.0120319, -0.0120228, -0.013769, -0.0337927, -0.0116839, -0.0368908, -0.00759039, 
	0.027288, -0.0010655, 0.0383397, -0.00910566, -0.0562189, 0.00707835, -0.00950342, -0.0122299, -0.0289659, 0.00181129, 
	0.0142348, -0.0078103, -0.0106972, -0.00889764, -0.0154768, 0.014459, -0.00202752, -0.00871147, -0.0141481, 0.00450827, 
	0.00261411, -0.00239422, -0.0125984, -0.00312056, -0.00407393, 0.00650447, -0.00448081, -0.000587171, 0.00555425, 0.00461369, 
	0.00796162, -0.00234059, -0.00796217, -0.00376364, -0.00433825, -0.00404529, 0.00341263, -0.000763921, 0.00937518, -0.00486168, 
	0.011406, -0.00727586, -0.00504351, -0.0114041, -0.000894774, -0.0094292, 0.00917057, -0.00330536, -0.00211183, -0.00744262, 
	0.000609134, -0.00899516, 0.0127216, -0.00574777, -0.0115392, -0.0168449, 0.026097, -0.00675597, -0.0130379, -0.0130155, 
	0.00421065, -0.00812481, 0.000382921, 0.014694, 0.0220925, -0.0190595, 0.0107277, -0.0108653, -0.0174215, -0.0138417, 
	0.00852687, 0.00484028, 0.00110408, -0.0113201, 0.0260426, -0.0184202, -0.00838679, -0.0125109, -0.00956659, -0.0159801, 
	-0.00572869, 0.00739568, -0.0248149, -0.0291221, 0.0330282, -0.019573, 0.0157396, -0.0100554, -0.0176821, -0.0116934, 
	-0.00822968, 0.000102946, -0.0274643, -0.0236152, 0.0303497, -0.0231211, 0.00678402, -0.00877207, -0.0205889, -0.010716, 
	-0.0228264, 0.011235, -0.000346714, -0.0119643, 0.0209886, -0.0224669, -0.00844011, -0.0100832, -0.00758673, -0.00643799, 
	-0.00622171, 0.00632413, -0.021291, -0.00384366, 0.0324229, -0.0171863, 0.000211305, -0.00512227, -0.00939535, -0.0034363, 
	0.00284825, -0.0060065, 0.0102775, 0.00808402, -0.0237175, 0.00441126, 0.0271767, -0.0077295, -0.026193, -0.000247328, 
	0.0346424, -0.0165368, 0.0351499, -0.0205756, -0.0324234, 0.0160662, -0.0247634, -0.016324, -0.023615, 0.00490091, 
	0.0129271, -0.00577383, -0.023875, -0.00682356, -0.0102973, 0.00504493, -0.0146637, -0.00763887, 0.00720407, 0.0112573, 
	0.00958096, -0.00424404, -0.00877359, -0.00448736, -0.0102323, -0.00782152, 0.00151517, -0.00270555, 0.0162238, -0.00882275, 
	0.0220216, -0.00954825, 0.00689602, -0.0154828, -0.00591091, -0.016092, -0.00293762, -0.00571601, 0.00245571, -0.0110638, 
	-0.00105441, -0.00937227, 0.0144569, -0.00831895, -0.0137122, -0.0249477, 0.0272787, -0.00599645, -8.18709e-05, -0.016379, 
	-0.00192054, -0.0042969, 0.0110826, 0.0264779, 0.00381833, -0.0233312, 0.00349997, -0.0115828, 0.000490628, -0.0196663, 
	0.00686237, -0.00346733, 0.00423931, 0.0111902, 0.0246773, -0.0171958, -0.00285099, -0.0140671, -0.00882006, -0.0168463, 
	-0.00345368, 0.00783215, -0.0144863, -0.0108165, 0.0456532, -0.00696458, -0.000720471, -0.0110994, -0.0174361, -0.0122996, 
	0.004966, 0.0029989, -0.00903859, -0.0110963, 0.0203459, -0.0109677, -0.00111236, -0.00309958, -0.0176354, -0.00528064, 
	-0.0201778, 0.00773281, -0.00718645, 0.00947832, 0.0166455, -0.0225042, -0.0181483, 0.0123741, -0.0157603, -0.0130331, 
	0.0135247, 0.00132764, -0.000515132, -0.018878, 0.0140619, -0.0259421, -0.0111918, 0.0150659, -0.0121348, -0.00933912, 
	-0.0186465, -0.00698475, -0.012669, 0.0084755, 0.00433841, -0.00289309, 0.00921195, -0.00217643, -0.0228865, 0.00294482, 
	0.0203798, -0.0205282, 0.0167187, -0.0245691, -0.0120433, 0.0135189, -0.00601378, -0.0207675, -0.01542, 0.0107463, 
	0.0173013, -0.0114718, -0.0242987, -0.0128814, -0.0234488, -0.00121749, -0.0259857, -0.0216722, 0.00370205, 0.0240237, 
	0.0102753, -0.00587849, -0.00415026, -0.0048098, -0.0138074, -0.0119781, -0.00369579, -0.00458983, 0.0233542, -0.0108935, 
	0.0268859, -0.0120772, 0.00872011, -0.0175822, 0.00191964, -0.020259, -0.0121155, -0.00966227, 0.0106366, -0.0129702, 
	0.0164306, -0.0091063, 0.0140722, -0.0259983, -0.0220773, -0.0324744, 0.0200647, -0.010349, 0.000674695, -0.0177391, 
	0.00936586, -0.000675923, 0.0331811, 0.00406181, -0.0135097, -0.0254466, 0.00404066, -0.0107621, 0.0055704, -0.0200623, 
	0.0109328, -0.00160703, 0.0211752, 0.00875553, 0.00349404, -0.0159088, -0.00656987, -0.00919165, 0.00120801, -0.0173788, 
	-0.00143948, 0.00382141, -0.00418286, 0.00134847, 0.0286005, -0.000100831, 0.00532206, -0.00557871, -0.0173668, -0.0129216, 
	0.00503785, 0.00120065, 0.0105303, -0.00188376, -0.00488411, 0.0015572, -0.0100434, 0.00134617, -0.0214296, -0.00718894, 
	-0.00706351, 0.00182866, 0.0124219, 0.00985321, -0.017864, -0.0253406, -0.0221274, 0.0183801, -0.0183554, -0.00354308, 
	0.0109533, 0.000826683, -0.0154261, -0.0191822, -0.00269042, -0.0268276, 0.00733123, 0.0349071, -0.0191223, -0.0180015, 
	-0.00344363, -0.00937226, -0.00451928, 0.00609039, -0.00945712, -0.0126665, -0.0115524, 0.0156284, -0.0253604, -0.00966967, 
	0.00883663, -0.0212278, -3.03161e-05, -0.0282165, 0.00193103, 0.00584709, 0.00279332, -0.00775771, -0.0137241, 0.00105959, 
	0.00477963, -0.016013, -0.0256139, -0.0195291, -0.0329788, -0.0122242, -0.0242144, -0.0102786, 0.0022864, 0.0273405, 
	0.000252135, -0.00565371, -0.00257347, -0.004822, -0.0110965, -0.0126342, -0.0028491, -0.00600163, 0.02961, -0.0117006, 
	0.0146632, -0.0117271, 0.0151737, -0.0174561, 0.000483586, -0.013835, -0.00786304, -0.0145202, 0.0179071, -0.013927, 
	0.00873262, -0.0116988, 0.00645048, -0.0180418, -0.0105963, -0.0228712, 0.0114539, -0.0119237, 0.00184675, -0.0203163, 
	0.0169763, -0.000756259, 0.0255443, -0.0193563, -0.00724383, -0.0180144, 0.0167856, -0.00984886, 0.00921147, -0.0214037, 
	0.0168135, -0.00199316, 0.029353, -0.0085729, -0.00654143, -0.0112028, -0.0122936, 0.000679075, 0.00638906, -0.0207524, 
	-0.00113242, -0.0012555, -0.00252808, 0.00149151, 0.00982825, 0.000460243, 0.00924047, 0.00694116, -0.0143848, -0.0142128, 
	-0.00142915, -0.00189465, 0.00672434, 0.00380137, -0.00785438, 0.00190128, 0.000283919, -0.000559597, -0.0198217, -0.0114324, 
	-0.0142504, -0.00221152, 0.0170826, 0.0114446, -0.0430766, -0.0236349, -0.013728, 0.0242165, -0.0221047, -0.0119599, 
	0.00527578, 0.00166192, -0.00736965, -0.0373116, -0.00346778, -0.0181414, 0.00940781, 0.0237044, -0.0187787, -0.00524251, 
	-0.00270782, -0.0129789, 0.000156476, 0.00248353, -0.0119605, -0.00368248, -0.0143949, 0.010769, -0.0257852, -0.00627639, 
	0.0043259, -0.0207916, -0.0163153, -0.0195914, 0.0046169, -0.00655188, 0.00326586, 0.0129685, -0.0170727, -0.0108615, 
	-0.0143906, -0.0189971, -0.030386, -0.028357, -0.0320913, -0.0443049, -0.0153314, 0.0217439, 0.000751919, 0.0161632, 
	-0.0102142, -0.0058193, 0.00328224, -0.00547428, -0.00773922, -0.0126104, -0.00110345, -0.00130584, 0.030339, -0.0118284, 
	-0.00150506, -0.0117454, 0.0152505, -0.00885951, -0.00489417, -0.00771463, 0.00678109, -0.0110198, 0.0185362, -0.0168219, 
	-0.0135846, -0.0119643, 0.0109201, -0.00290525, -0.0058174, -0.00716621, 0.0102325, -0.0104757, 0.0051121, -0.0245308, 
	0.0141183, -0.00288847, 0.0162707, -0.0264168, -0.000447267, -0.00218957, 0.00993754, -0.00662984, 0.00656131, -0.0242267, 
	0.0117297, -0.00714524, 0.0120616, -0.00496529, -0.00610389, -0.00353676, -0.00896182, 0.0105854, 0.00609038, -0.0276371, 
	-0.0117204, -0.00918972, -0.0157949, -0.000471617, 0.0094264, -0.00396468, 0.0107553, 0.00651828, -0.00564385, -0.0147576, 
	-0.00181147, -0.0080871, 0.000349975, -0.00102004, -0.0110918, -0.00482314, 0.00436606, 0.000249743, -0.0133322, -0.0121033, 
	-0.0191319, -0.0067256, 0.0083511, 0.0254229, -0.0361707, -0.0103287, -0.0137429, 0.0176814, -0.0134203, -0.0216477, 
	0.000481447, -0.00597142, -0.0198466, -0.0249752, -0.00392242, -0.0218057, 0.00455065, 0.0241052, -0.0173206, -0.0113346, 
	-0.0138624, -0.0152984, -0.000431081, -0.00200138, 0.00394568, -0.0155244, -0.00806802, 0.0119407, -0.0225427, 0.00326475, 
	0.0039644, -0.021437, -0.0124974, -0.00890818, 0.00397655, -0.0213966, 0.00171122, 0.0238833, -0.0121281, 0.00146006, 
	-0.0242868, -0.0185731, -0.031319, -0.028577, -0.0303599, -0.0631322, -0.0150852, 0.04439, -0.000970442, 0.00881495, 
	-0.0154835, -0.00760801, 0.00162704, -0.0101755, -0.0098565, -0.00755233, -0.00390808, -0.000908344, 0.0259662, -0.00877371, 
	-0.00870046, -0.0114565, 0.0100546, -0.0133563, -0.00146323, 0.0147909, 0.00311706, -0.0204427, 0.00990487, -0.0162595, 
	-0.0244255, -0.0114061, 0.00818858, -0.00624081, 0.00835763, 0.0170785, 0.00924802, -0.0194513, 0.00428632, -0.0272896, 
	0.00365206, -0.00858316, 0.00906743, -0.0180543, -0.00246265, 0.00983287, 0.0173834, -0.00447218, 0.00400445, -0.0271959, 
	0.00355095, -0.00874857, 0.00817546, -0.00329712, -0.00383704, 0.000857303, -0.0103292, 0.00063167, 0.00184405, -0.025931, 
	-0.0118841, -0.0114214, -0.0201391, 0.00426417, 0.0187135, -0.000915277, -0.00265287, 0.0058958, -0.00234231, -0.0195352, 
	-0.00556249, -0.0101832, -0.0112943, 0.000867485, -0.00620032, 0.00475936, 0.00533281, 0.0051295, -0.00972715, -0.0157549, 
	-0.0135306, -0.00867067, 0.00809907, 0.0179021, -0.0161582, 0.0156127, -0.0155678, -0.00339981, -0.012831, -0.0193048, 
	-0.00931163, -0.0112252, -0.0236403, 0.000952901, -0.00636889, 0.00500765, 0.00885952, -0.000893301, -0.0113289, -0.013543, 
	-0.0238707, -0.0161022, -0.00582654, -0.00206979, 0.00842022, -0.0100137, 1.03841e-05, 0.00789448, -0.01889, 0.000728118, 
	-0.0179737, -0.0202587, -0.0116929, -0.010609, 0.00209232, -0.0182401, 0.0116058, 0.0202093, -0.00752229, 0.00117135, 
	-0.0217545, -0.0202723, -0.0256782, -0.0260232, -0.0315325, -0.0508482, -0.0171433, 0.0448883, -0.00409641, 0.00837453, 
	-0.0199958, -0.00957465, 0.000306955, -0.0138062, -0.0156302, -0.00148069, -0.00598792, -0.00252842, 0.021675, -0.00265695, 
	-0.0173012, -0.0136773, 0.00300756, -0.0149959, -0.000540565, 0.0281179, 0.00846575, -0.024958, -0.000622339, -0.0163966, 
	-0.0213852, -0.0136561, 0.00487648, -0.0173398, 0.0105338, 0.0249543, 0.000677746, -0.018919, -7.91021e-05, -0.029095, 
	-0.00546584, -0.0104235, 0.00117922, -0.00474211, -0.00573191, 0.0191397, 0.0094658, -0.00844587, 0.00143606, -0.02724, 
	0.00503867, -0.0036321, -0.00541042, -0.00964787, -0.00635254, 0.00271491, -0.0103199, 0.00390143, -0.00426739, -0.0273845, 
	-0.0138344, -0.0134141, -0.0233545, 0.00547418, 0.0187972, 0.00337088, 0.000988183, 0.00743742, -0.00103552, -0.0204212, 
	-0.00392879, -0.0110574, -0.019156, -0.00095176, -0.00941674, -0.00941525, 0.00631344, 0.0114653, -0.00065078, -0.0150928, 
	-0.00448361, -0.00943293, -7.18013e-05, 0.00288385, -0.0144599, 0.00625338, -0.0143665, 0.00168368, -0.00715072, -0.0222226, 
	-0.015492, -0.0164715, -0.0286107, 0.00909922, 0.0015267, 0.00429436, -0.000576768, -0.00923733, -0.0136657, -0.014474, 
	-0.0200153, -0.0155523, -0.0107961, -0.00877093, 0.0127986, 0.00482112, 0.00234719, -0.0126536, -0.015114, 0.000249951, 
	-0.0249026, -0.0196348, -0.00986657, -0.0124514, 0.00355136, 0.00787712, 0.00261394, -0.00919597, 0.0023992, -0.00110488, 
	-0.0274603, -0.0197527, -0.023545, -0.0244496, -0.0298373, -0.0132553, -0.0134563, 0.020682, -0.00213279, -0.00314683, 
	-0.0219634, -0.0103381, -0.00421944, -0.0100974, -0.0115653, -0.00642796, -0.00605921, -0.00730179, 0.0181225, 0.0102918, 
	-0.015744, -0.0157278, -0.00155974, -0.0136802, 0.00334498, 0.0155438, 0.00933196, -0.0166616, 0.00141896, -0.00606895, 
	-0.0163393, -0.0150439, 0.00930559, -0.0121317, -0.000599484, 0.0177496, 0.000421838, -0.0131429, 0.00541712, -0.0202492, 
	-0.0120397, -0.0147058, -0.000918549, 0.00246285, 0.000737357, 0.0221118, 0.00363124, -0.0112309, 0.00574872, -0.0192188, 
	-0.0039163, 0.00051754, -0.0108889, -0.00329998, -0.00555939, 0.00264998, -0.00819212, 0.00680421, 0.0013973, -0.0218283, 
	-0.018583, -0.0128438, -0.0309487, 0.00660621, 0.0256831, -0.00583069, 0.00459663, 0.0160532, 0.00572294, -0.0153013, 
	-0.0071076, -0.0176165, -0.0190679, 0.0087394, -6.31657e-05, -0.00713253, 0.00369998, 0.00829187, 0.0049866, -0.00842511, 
	-0.00196218, -0.0101891, 0.0014576, 0.00262835, -0.0163777, -0.0176414, -0.00805262, 0.0101999, 0.00439539, -0.0110227, 
	-0.00938694, -0.0164756, -0.0212168, 0.013309, 0.0102844, -0.0140985, -0.0042032, 0.000164585, 0.00268219, -0.00672302, 
	-0.0247784, -0.0148315, -0.00967215, -0.00594988, 0.0147456, -0.00570778, 0.00761912, 0.00177813, -0.00639216, 0.000574215, 
	-0.0259928, -0.0179975, -0.00359768, -0.00739543, -0.00133721, -0.00380708, 0.00586203, -0.00365205, 0.00776875, 0.0042914, 
	-0.0265456, -0.0178542, -0.0248427, -0.0189354, -0.0264933, 0.00309751, -0.00783473, -0.00452245, 0.00648116, 0.00442192, 
	-0.0192885, -0.0102834, -5.10808e-05, -0.00678819, -0.00868432, -0.00748035, -0.0118637, -0.00488099, 0.0214404, 0.0129852, 
	-0.0164233, -0.0154843, -0.000265386, -0.0163775, -0.000768633, 0.00500942, 0.0112762, -0.00745782, 0.00520804, -0.000137582, 
	-0.0118703, -0.0162169, 0.0179471, -0.00072151, -0.00748497, 0.00467503, 0.00494692, -0.00692593, 0.00517935, -0.00728784, 
	-0.00716431, -0.0141501, -0.00602887, 0.0101554, -0.00162915, 0.00769103, -8.37362e-05, -0.0105693, 0.0104147, -0.00835934, 
	-0.00642812, 0.000167463, -0.006577, -0.000115448, -0.0112268, 0.00120437, -0.00523901, -0.00695478, 0.00830287, -0.0103831, 
	-0.0233192, -0.0139584, -0.0249688, 0.0112861, 0.0222314, -0.00665556, 0.00999776, -0.00350736, 0.0122213, -0.00566015, 
	-0.014328, -0.0174223, -0.0178593, 0.0159929, 0.00289604, -0.0140174, 0.00632934, 0.007415, 0.0100986, -0.00619693, 
	-0.0110563, -0.0126991, 0.00500628, 0.0122498, -0.0134769, -0.0274032, -0.00444914, 0.00748248, 0.00958599, -0.00821258, 
	-0.00368892, -0.013462, -0.00422962, 0.0084801, -0.00707861, -0.0333278, 0.00306107, -0.00436723, 0.00899749, 0.0053811, 
	-0.0161059, -0.014355, -0.0084687, -0.00291885, 0.00844828, -0.0236009, 0.017634, 0.000493364, -5.23744e-05, 0.00932088, 
	-0.025527, -0.0157545, 0.0030227, -0.00282542, 0.00107571, -0.0176997, 0.00448346, -0.00188302, 0.0138771, 0.0126132, 
	-0.021089, -0.0169585, -0.0120021, -0.0110695, -0.0263955, 0.00556127, -0.00130472, -0.0304041, 0.00573399, 0.0292572, 
	-0.0157555, -0.00919337, 0.00209881, -0.00707951, -0.00755313, -0.00439213, -0.0118301, 0.00138655, 0.0218823, 0.00593164, 
	-0.0189644, -0.0129761, 0.0109916, -0.0205187, -0.00934376, -0.00522998, 0.0111247, 0.00567483, 0.00819193, -0.00568724, 
	-0.0013856, -0.0156551, 0.0246849, -0.00664743, 0.00443569, -0.000639155, -0.00802515, 0.00162314, 0.00399959, -0.00765482, 
	-0.00565782, -0.0122155, -0.00563561, 0.0149317, -0.00183422, 0.00260456, -0.0026269, -0.00801157, 0.00932464, -0.00981999, 
	-0.00396472, 0.00178556, -0.00918554, 0.00363381, -0.0106019, -0.00639978, -0.0118217, -0.0103851, 0.0103068, -0.00859535, 
	-0.0161627, -0.0150859, -0.0221382, 0.0156964, 0.0153404, -0.00775722, 0.010779, -0.0181452, 0.0103965, 0.00223241, 
	-0.0128714, -0.0190787, -0.0145907, 0.0210597, 0.000713788, -0.0119062, 0.00375591, -0.0127079, 0.0122327, -0.00269555, 
	-0.00956225, -0.00976453, 0.00654469, 0.0250878, -0.0108722, -0.0234995, -0.00446802, -0.00674438, 0.00852101, -0.00599009, 
	-0.00916242, -0.0107888, 0.0128399, 0.00991115, -0.0149107, -0.0396821, 0.00289969, -0.0061542, 0.00944037, 0.000692564, 
	-0.00301829, -0.0135531, -0.0133702, -0.00199759, -0.00152057, -0.0274425, 0.0252761, -0.00613802, -0.000509079, 0.00806943, 
	-0.0238531, -0.0127491, 0.0115773, -0.0135849, 0.0109046, -0.0155737, 0.00096412, -0.00348293, 0.00949616, 0.00635082, 
	-0.0168675, -0.0135625, -0.00374677, -0.00947161, -0.0225778, 0.00796194, -0.00328531, -0.0232063, 0.00152794, 0.0244081, 
	-0.0138576, -0.00717937, 0.00891603, -0.00552781, 0.00106129, 0.00337155, -0.0127908, -0.005714, 0.011763, 0.00779892, 
	-0.020653, -0.0113957, 0.00853237, -0.0165296, -0.0191541, -0.00791663, 0.0217281, 0.00154906, 0.00134923, -0.00020489, 
	-0.0052831, -0.0148505, 0.0297791, -0.00500481, 0.00430322, -0.000238022, -0.00640293, -0.00524057, 0.00547837, -0.0022058, 
	-0.00488462, -0.0121945, 0.00277536, 0.0207309, -0.0171399, 0.00378979, 0.00733875, -0.0149521, 0.00694118, -0.00417534, 
	-0.00345955, 3.56993e-05, -0.0141633, 0.0100434, -0.00994294, -0.00653208, -0.00498485, -0.0154441, 0.00915975, -0.00879741, 
	-0.0170583, -0.015328, -0.0234746, 0.0186066, -0.00620627, -0.0153907, 0.0250245, -0.0253862, 0.00721802, 0.00252772, 
	-0.00806739, -0.0235486, -0.0165269, 0.0340629, -0.0083619, -0.0134749, 0.0107425, -0.0164002, 0.0110994, -0.00365269, 
	-0.00551399, -0.0117262, 0.000941164, 0.031259, -0.0252326, -0.0253175, 0.00844509, -0.0155232, 0.0120011, -0.00649925, 
	-0.0031429, -0.0110692, 0.0244364, 0.0157395, -0.00147908, -0.0419924, -0.0156959, -0.0117755, 0.0145244, -0.00651051, 
	0.0022927, -0.0138303, -0.00113994, 0.00521387, -0.0245339, -0.0263538, 0.0346987, -0.0080462, -0.00172816, -0.000163425, 
	-0.0224457, -0.0119489, 0.00149239, -0.0103249, 0.0176704, -0.017221, 0.00959036, -0.00371931, 0.00385483, 0.00148202, 
	-0.0187036, -0.00984911, 0.00396543, -0.00664628, -0.0118337, 0.00585907, -0.00563472, -0.0133195, 0.0034142, 0.0101111, 
	-0.00101403, -0.00120448, -0.00850366, -0.00316369, -0.00587728, -0.00288049, 0.00779405, -0.00143293, -0.00583795, -0.00240431, 
	0.001484, -0.00376467, 0.012737, -0.00897996, -0.0215299, -0.00953927, 0.00777104, -0.00364778, -0.0134842, -0.0061429, 
	0.00238686, -0.000256423, 0.00990051, 0.00561217, -0.00930993, -0.0187384, 0.000558747, -0.00467251, -0.0254295, -0.0118281, 
	0.00298258, 0.0122482, 0.00967614, -0.00812412, -0.004838, -0.0259448, 0.00617652, -0.0120145, -0.0378197, -0.0156076, 
	0.00354699, 0.00762048, 0.00383587, -0.0226817, -0.01307, -0.0370204, -0.0051852, -0.0145833, -0.043856, -0.0184388, 
	-0.00572387, -0.00169556, -0.00766338, -0.0137057, -0.00680765, -0.0401898, -0.000491138, -0.0153358, -0.0429568, -0.0135607, 
	-0.00118642, 0.00175225, 0.00341411, -0.0199111, -0.00392018, -0.033481, -0.00104768, -0.0174981, -0.0232364, -0.00859665, 
	0.00685396, 0.0108806, 0.0235244, -0.00985702, -0.00543711, -0.0164422, -0.00888903, -0.01596, -0.0203253, -0.00424992, 
	0.0138853, 0.00514885, 0.0377448, 0.00842859, -0.0335556, 0.000720468, -0.0103478, -0.0108236, -0.0232439, -0.000889711, 
	0.0145446, -0.00386253, 0.00721213, -0.0063678, -0.0197627, 0.0135427, 0.00102563, -0.01101, -0.0159939, 0.00166698, 
	0.0111033, -0.00485692, -0.0086698, -0.0056531, -0.00494438, 0.013121, -0.00171358, -0.00417519, -0.00160383, 0.00224752, 
	0.0022537, -0.00156709, -0.00428649, -0.00213267, -0.00173664, 0.0055392, -0.00198407, -0.00116014, 0.00241883, 0.00229512, 
	0.00870475, -0.00402782, 0.00260907, -0.00925832, -0.00755622, -0.0069552, -0.00262876, -0.00261457, -0.00425878, -0.00575646, 
	-0.00119981, -0.00803922, 0.00392237, -0.00297908, -0.0129393, -0.0162332, 0.0222556, -0.00431616, -0.0105025, -0.0106018, 
	-0.00597817, -0.00262829, -0.00198984, 0.012078, 0.00438254, -0.0242447, 0.0205344, -0.00693821, -0.0145232, -0.0146802, 
	0.000244249, 0.00810828, 0.00115735, 0.00978853, 0.0197383, -0.0246805, -0.000666372, -0.0113163, -0.025111, -0.0143131, 
	-0.00266612, 0.0128657, -0.00105228, -0.0143374, 0.0184117, -0.0226617, 0.000886154, -0.0117392, -0.0316573, -0.011674, 
	-0.00202766, 0.0101484, -0.00701028, -0.0172592, 0.0248426, -0.0201034, 0.00152175, -0.0109956, -0.0444892, -0.00609014, 
	-0.00253207, 0.00804075, -0.00266027, -0.010223, 0.0165123, -0.0174484, -0.00233266, -0.0123996, -0.030705, -0.00164816, 
	0.000370559, 0.00992401, 0.00936863, -0.00203709, 0.00865664, -0.0110564, -0.0115719, -0.0108463, -0.0117204, 0.000848896, 
	-0.000336272, 0.00233355, 0.00391687, 0.00658647, 0.00230846, -0.00123366, 0.00398137, -0.00862499, -0.0127369, 0.000949548, 
	0.0125509, -0.00956979, 0.00485768, -0.00461466, -0.0147354, 0.0140665, 0.0148626, -0.0122303, -0.0156639, 0.00186087, 
	0.0191336, -0.0100023, -0.00338867, -0.00924706, -0.0117125, 0.0164597, -0.010516, -0.00885013, -0.00533732, 0.00429031, 
	0.00523324, -0.00355223, -0.00900262, -0.00251037, -0.00468729, 0.00711661, -0.00611495, -0.00339752, 0.00684957, 0.00425722, 
