// Would include training parameters generated from cnn_training

// #include <>

// CONV constants
#define CONV_STRIDE 1
#define CONV_FILTERSIZE 8
#define CONV_EXTFILTSIZE 5
#define CONV_IN_DIM 28
#define CONV_OUT_XY (CONV_IN_DIM - CONV_EXTFILTSIZE) / CONV_STRIDE + 1
#define CONV_OUT_Z (CONV_FILTERSIZE)

// POOL constants
#define POOL_STRIDE 2
#define POOL_EXTFILTSIZE 2
#define POOL_IN_DIM 24
#define POOL_IN_CHANNEL (CONV_OUT_Z)
#define POOL_OUT_XY (POOL_IN_DIM - POOL_EXTFILTSIZE) / POOL_STRIDE + 1
#define POOL_OUT_Z (POOL_IN_CHANNEL)

// RELU constants
#define RELU_IN_X 24
#define RELU_IN_Y 24
#define RELU_IN_Z 8

// FC constants
#define FC_IN_DIM 1152
#define FC_OUT 10
#define FC_IN_X 12
#define FC_IN_Y 12
#define FC_IN_Z 8

// CONV weights
float conv_filter[CONV_FILTERSIZE][CONV_EXTFILTSIZE][CONV_EXTFILTSIZE] = {
	{
		{-0.0651607, -0.187761, -0.168994, -0.0792416, 0.0350098, },
		{0.120715, 0.0430451, 0.0876214, 0.326325, 0.430748, },
		{0.410017, 0.436187, 0.340008, 0.378137, 0.150779, },
		{0.232152, 0.502517, 0.253192, -0.0435327, -0.336528, },
		{-0.825778, -0.78269, -0.440053, -0.460719, -0.446509, },
	},
	{
		{-0.680156, -1.13154, -0.954064, -0.72794, -0.520108, },
		{0.521929, 0.753337, 0.668225, 0.442269, 0.206855, },
		{0.397551, 0.580052, 0.289373, 0.275287, 0.118615, },
		{-0.0613177, -0.111334, -0.0300456, -0.00647595, 0.0338495, },
		{-0.08113, -0.0349414, 0.0638116, 0.0398189, -0.103586, },
	},
	{
		{-1.01046, -1.03319, -0.18355, -0.0539681, 0.0212636, },
		{-0.978434, -1.06992, -0.302125, -0.0619635, 0.00900569, },
		{-0.289509, -0.12514, -0.021952, 0.0936907, -0.0625454, },
		{-0.00395386, 0.540575, 0.344754, 0.525118, 0.426174, },
		{0.354658, 0.0636082, -0.0832566, -0.0515255, 0.128821, },
	},
	{
		{-0.802957, -0.723572, 0.0476134, 0.0810143, 0.144661, },
		{-0.683064, -0.310784, 0.408746, 0.390882, 0.329649, },
		{-0.278123, 0.300488, 0.252249, 0.221091, 0.0145377, },
		{0.0738991, 0.268655, 0.0479113, 0.146966, 0.0562231, },
		{-0.0613499, -0.0583519, -0.0990203, -0.0843657, -0.0141166, },
	},
	{
		{-0.0521759, 0.00849477, -0.0794237, -0.0400374, -0.0450119, },
		{0.175728, 0.0649629, -0.00359739, 0.111316, 0.00463132, },
		{0.316301, -0.031308, -0.138813, -0.0329485, -0.123976, },
		{0.122512, 0.365727, 0.240281, 0.104532, -0.0327821, },
		{-0.497938, -0.124166, 0.0252302, 0.0298142, -0.0778723, },
	},
	{
		{-0.0763564, 0.176343, 0.148733, 0.0194343, -0.269876, },
		{0.165226, 0.37184, 0.148994, -0.294476, -0.532258, },
		{0.437695, 0.542109, 0.110726, -0.576083, -0.759047, },
		{0.550112, 0.556046, 0.218163, -0.54588, -0.762688, },
		{0.307945, 0.368904, 0.118141, -0.366132, -0.629443, },
	},
	{
		{-0.432067, -0.412061, -0.0308568, -0.0538547, 0.0183858, },
		{-0.350101, -0.0986556, 0.10927, 0.087059, 0.112446, },
		{0.0135255, 0.304602, 0.0928221, 0.167788, 0.0992701, },
		{0.107117, 0.087609, -0.0264337, 0.127642, 0.0816887, },
		{-0.0449136, -0.130563, -0.139116, -0.0694218, -0.0179857, },
	},
	{
		{-1.15756, -1.0939, -0.0513631, -0.0101237, 0.094421, },
		{-0.911957, -0.672267, 0.252015, 0.377372, 0.340803, },
		{-0.402027, 0.194363, 0.3815, 0.536163, 0.236415, },
		{-0.0442785, 0.374363, 0.221984, 0.32016, 0.187348, },
		{-0.12262, -0.197068, -0.206583, -0.213894, -0.105995, },
	},
};

// FC weights
float fc_inputs[FC_OUT];
float fc_weights[FC_IN_DIM][FC_OUT] = {
	{0.00754746, -0.00052154, -0.00577894, -0.00436082, -0.00369238, -0.00364801, 0.00128011, -0.000871922, 0.0189633, -0.00776304, },
	{0.00899583, -0.00770061, -0.00588687, -0.013647, -0.0135793, -0.0108235, 0.0144195, -0.00697223, -0.00618111, -0.0128284, },
	{-0.00652115, -0.0139155, 0.00295735, -0.0200204, -0.0403012, -0.0356681, 0.0721882, -0.0163428, -0.0340149, -0.0211909, },
	{-0.00632232, -0.00448751, 0.0424541, 0.0525212, -0.0586367, -0.0541218, 0.036452, -0.0181253, -0.043643, -0.0398544, },
	{0.00100992, -0.00379602, 0.0790795, 0.0703723, -0.130423, -0.0725169, 0.0206606, -0.0411434, 0.0180181, -0.0574634, },
	{-0.0351211, -0.0294776, -0.0596675, 0.000544476, -0.0461113, -0.0911138, 0.0929014, -0.0484137, -0.00837031, -0.0535237, },
	{-0.0963482, -0.0690903, -0.373154, -0.0624107, 0.242487, -0.113233, 0.144596, -0.0322819, -0.169431, -0.0698288, },
	{-0.0399425, 0.0408769, -0.0427591, -0.1109, 0.19999, -0.120802, -0.134887, -0.0447963, -0.220674, -0.089282, },
	{0.0139466, 0.0608385, 0.0904984, -0.00468399, 0.026216, -0.0780977, -0.143878, -0.0183234, -0.237103, -0.0509437, },
	{0.0229896, 0.00490687, -0.00733081, 0.0333401, -0.142466, 0.00880261, 0.0263672, -0.0360876, -0.184467, 0.0221791, },
	{0.0565177, -0.0349043, 0.0130047, -0.0910141, -0.139848, 0.0851468, 0.0497542, -0.055596, -0.149887, 0.0422436, },
	{0.0611674, -0.0275973, -0.0399962, -0.0427322, -0.0653246, 0.0263552, -0.0745198, -0.0182437, -0.0201166, 0.0411654, },
	{0.00877432, -0.00447454, -0.0162438, -0.00822503, -0.00974222, -0.010804, 0.00759803, -0.00353845, 0.0508303, -0.0186851, },
	{0.0457548, -0.0212496, 0.0383819, -0.0236427, -0.0361489, -0.0276971, -0.0281411, -0.0128202, 0.00371482, -0.0232751, },
	{0.0135919, -0.0263535, 0.021232, -0.0302085, -0.0529224, -0.0585907, 0.119825, -0.0195655, -0.00615281, -0.0388643, },
	{0.00396058, -0.0253369, 0.0416724, 0.0586175, -0.054689, -0.06768, 0.0713366, -0.0315935, 0.0852833, -0.0529091, },
	{-0.003826, -0.0330152, 0.0351198, 0.101876, 0.0142593, -0.0917078, -0.0437468, -0.0435335, 0.137925, -0.0566062, },
	{-0.0141326, -0.0206186, -0.0745066, -0.0637385, 0.147566, -0.0634689, 0.0379548, -0.0427524, 0.0332077, -0.0435055, },
	{0.00187994, -0.0213464, -0.177311, -0.0573979, 0.247988, -0.0580071, 0.00484429, -0.0329692, -0.134773, -0.057657, },
	{-0.0924693, 0.0407722, -0.0475994, -0.0304799, 0.163756, -0.0609043, -0.0868079, 0.00019663, -0.124454, -0.0849273, },
	{-0.0421985, 0.0500109, -0.150593, -0.00592622, 0.204171, -0.0946817, -0.0766539, 0.0564355, -0.168008, -0.0979874, },
	{-0.0319221, -0.0106944, -0.068032, 0.0697779, -0.113904, -0.0102144, 0.107128, 0.0498323, -0.216928, -0.0472051, },
	{0.104133, -0.0616767, 0.131302, -0.123231, -0.167756, 0.0870115, -0.00592181, -0.0599241, -0.21194, 0.0201625, },
	{0.0877446, -0.0473884, -0.0334782, -0.0672442, -0.0983673, 0.0210771, -0.12569, -0.0577846, -0.0427288, 0.0766533, },
	{0.0129341, -0.00840877, -0.0263155, -0.0113461, -0.0162697, -0.0170659, -0.00364403, -0.0101436, 0.0907372, -0.0298352, },
	{0.0515756, -0.0266692, 0.0569937, -0.0274187, -0.00371153, -0.0448037, -0.0589092, -0.015577, 0.0368464, -0.0337619, },
	{0.0194794, -0.0285238, 0.0548507, -0.0343058, -0.0658205, -0.0863299, 0.0937437, -0.017411, 0.0543083, -0.0578244, },
	{-0.00176066, -0.0283408, 0.083752, 0.0698793, -0.148333, -0.0978618, 0.096125, -0.0387261, 0.13415, -0.0608746, },
	{0.0410597, -0.0494206, 0.0718372, 0.0723271, 0.0356228, -0.0930418, -0.0434306, -0.0436527, 0.124273, -0.0711428, },
	{-0.00120349, -0.0149339, -0.0241425, -0.0165021, 0.176827, -0.0210017, 0.000922922, -0.0440704, 0.0124428, -0.0511047, },
	{0.00521535, 0.0117544, -0.0720039, 0.0377517, 0.138554, 0.00717351, 0.00598673, -0.0156696, -0.10413, -0.0512266, },
	{-0.106825, 0.0146268, -0.0407117, 0.0777422, 0.0562676, -0.0855053, -0.0915212, 0.088961, -0.0917658, -0.102365, },
	{0.0684169, 0.0617072, -0.0787939, -0.125861, 0.11243, -0.135545, -0.0827102, 0.149913, -0.133021, -0.0901222, },
	{-0.0396513, -0.00556192, -0.101018, 0.0392449, -0.0528217, -0.0117049, 0.0569617, 0.0644527, -0.212965, -0.0422468, },
	{0.063904, -0.072352, 0.0576813, -0.110782, -0.0956033, 0.0511347, 0.00303401, -0.0261355, -0.21557, -0.0125789, },
	{0.0851734, -0.0698833, -0.0289333, -0.107442, -0.134383, -0.0398835, -0.116699, -0.108556, -0.0942482, 0.145682, },
	{0.00924343, -0.0122371, -0.0272965, -0.0102209, -0.0255002, -0.0300671, -0.0131041, -0.0151062, 0.125212, -0.0370978, },
	{0.0581821, -0.0299116, 0.0736494, -0.0350119, 0.0147402, -0.0569911, -0.0871694, -0.0194952, 0.0717266, -0.0368208, },
	{0.016378, -0.0282805, 0.0625416, -0.00594967, -0.0987909, -0.102323, 0.0767224, -0.029834, 0.0557745, -0.0653535, },
	{-0.0182067, -0.0313373, 0.107909, 0.0497533, -0.154347, -0.103296, 0.0933433, -0.0496788, 0.10421, -0.0578301, },
	{0.0559457, -0.0362961, 0.132266, -0.00867658, -0.0080618, -0.0544621, -0.0445029, -0.0563219, 0.130406, -0.0683482, },
	{0.00223662, -0.0150275, 0.0224109, 0.00292698, 0.0694355, 0.0161141, 0.0268431, -0.0406382, 0.00550291, -0.0526798, },
	{-0.0209048, 0.00715562, 0.00348888, 0.103836, 0.0736931, 0.0300566, -0.0134048, -0.0131402, -0.108054, -0.0430723, },
	{-0.0803859, -0.00509967, 0.031385, 0.122509, -0.149606, -0.121587, -0.0906373, 0.100514, -0.0886366, -0.0800902, },
	{0.0938915, 0.0768066, -0.0826098, -0.196559, 0.0202761, -0.129871, 0.00918877, 0.192198, -0.110909, -0.119601, },
	{0.0026319, -0.0125605, -0.0915373, 0.0279153, -0.0362592, -0.0205692, -0.00878262, 0.073445, -0.210008, -0.0500552, },
	{0.0648258, -0.070767, 0.014287, -0.0872501, -0.00855093, -0.00919567, -0.0272582, 0.0405292, -0.19865, -0.041977, },
	{0.0438631, -0.0893636, -0.0625504, -0.127408, -0.127167, -0.07801, -0.074178, -0.101664, -0.132895, 0.157572, },
	{-0.00913497, -0.0139526, -0.0216163, -0.00962995, -0.036904, -0.0307645, -0.00938848, -0.021147, 0.148447, -0.0388938, },
	{0.0715933, -0.0303138, 0.0936052, -0.0244114, -0.0077475, -0.0473438, -0.0844454, -0.0299613, 0.0988669, -0.0440179, },
	{-0.0224423, -0.0297736, 0.0452272, 0.0301521, -0.0383361, -0.0486536, 0.044116, -0.0505129, 0.026935, -0.0706204, },
	{-0.0270916, -0.0319027, 0.0863807, -0.0105571, -0.0826714, -0.0348404, 0.0713573, -0.0852217, 0.078653, -0.0576754, },
	{0.0466584, -0.0297844, 0.153071, -0.0422383, -0.0301889, -0.0204009, -0.0629475, -0.0480854, 0.10549, -0.0742652, },
	{0.00945961, 0.00166104, 0.024151, 0.005965, 0.017662, 0.0290674, 0.0136734, -0.0312743, -0.00801832, -0.055188, },
	{-0.0206249, -0.00962401, -0.0224189, 0.0962832, 0.0515764, 0.0210744, 0.0186975, -0.00777814, -0.0906438, -0.0323989, },
	{-0.0746264, 0.00233177, 0.0843019, 0.129496, -0.220614, -0.057826, -0.0889136, 0.0691315, -0.0898514, -0.0852186, },
	{0.0875519, 0.0592808, -0.109758, -0.200945, -0.0264953, -0.0456966, 0.0614966, 0.0739466, -0.0806437, -0.0710714, },
	{-0.0432461, -0.0210923, -0.038837, 0.0032482, -0.00493356, -0.0165061, -0.0339849, 0.0422375, -0.166516, -0.0229161, },
	{0.0454776, -0.0621909, -0.00373626, -0.0466573, 0.00736503, -0.0400921, -0.0366925, 0.0566892, -0.172375, -0.0361908, },
	{0.00356072, -0.101084, -0.0924883, -0.133505, -0.103005, -0.126492, -0.0432584, -0.0359769, -0.106004, 0.0844086, },
	{-0.0308964, -0.0130923, -0.0100856, -0.0205164, -0.044665, -0.0267425, -0.0140523, -0.0027008, 0.147088, -0.0425107, },
	{0.0574867, -0.0335303, 0.117187, -0.00272319, -0.0352181, -0.0125771, -0.037276, -0.042115, 0.0787776, -0.0528806, },
	{-0.0346874, -0.033165, 0.0604354, 0.0415425, 0.0227394, 0.0364179, -0.00183085, -0.0858212, -0.000100533, -0.094297, },
	{-0.0158662, -0.0388529, 0.0750571, -0.047231, -0.0351999, 0.0196089, 0.0247977, -0.0771422, 0.0430424, -0.0841576, },
	{0.0395827, -0.00829308, 0.0733384, -0.0523792, -0.032469, -0.00712602, -0.0452038, -0.0165073, 0.0789026, -0.0891392, },
	{-0.02004, 0.0226354, -0.0413205, -0.0175058, 0.0420788, 0.0303019, -0.00206444, -0.0264122, 0.0141926, -0.0564521, },
	{-0.00619192, -0.0207937, -0.0594546, 0.0440618, 0.034034, -0.00618185, 0.034734, 0.0152685, -0.0472705, -0.0369717, },
	{-0.0418496, -0.00171105, 0.050677, 0.121088, -0.139192, -0.0119302, -0.0810325, 0.0546516, -0.0620911, -0.114391, },
	{0.074793, 0.00782894, -0.135463, -0.123153, -0.0638393, -0.0415004, 0.0226687, 0.0279938, -0.0764948, -0.0878555, },
	{-0.0792747, -0.0217794, -0.0202178, -0.0209383, 0.0351755, -0.0492686, -0.044077, -0.00892011, -0.122054, 0.0137105, },
	{0.0482607, -0.0636561, 0.0385781, -0.00990281, 0.0197479, 0.00924778, -0.0798047, -0.0188146, -0.110847, 0.0271249, },
	{-0.0496117, -0.100476, -0.085602, -0.126697, -0.0650032, -0.162685, -0.0445687, 0.101676, -0.0600047, 0.0139715, },
	{-0.0434431, -0.0166231, -0.010454, -0.0352792, -0.0446014, -0.0294619, -0.0302679, 7.4935e-05, 0.119132, -0.0169282, },
	{0.0363441, -0.040718, 0.116459, -0.0100378, -0.00851179, 0.0592688, -0.0222421, -0.0973281, 0.0192776, -0.0392495, },
	{-0.0428998, -0.0390806, 0.00941083, -0.0174723, 0.0896358, 0.0781841, 0.020531, -0.103078, -0.0169112, -0.103573, },
	{-0.0250985, -0.0411462, 0.0560465, -0.0311278, -0.0248803, 0.0783309, 0.0304892, -0.0965576, 0.0134222, -0.0946823, },
	{0.0260712, 0.0256812, 0.0446233, -0.0780653, -0.0434177, 0.0294302, -0.0330259, -0.0352471, 0.0481488, -0.0879943, },
	{-0.0268541, 0.045314, -0.0787499, -0.0162209, 0.0818768, 0.0527738, -0.0243962, -0.00237627, 0.0263089, -0.0899507, },
	{-0.000592673, -0.0333578, -0.087743, 0.018558, 0.0162462, 0.0251091, 0.0616774, 0.0241793, -0.0367659, -0.0600004, },
	{-0.000228275, -0.0129707, 0.0513018, 0.0694523, -0.100755, 0.0379089, -0.0641078, 0.00264051, -0.0490596, -0.114086, },
	{0.0361856, -0.0253995, -0.132161, -0.0519345, -0.0541293, 0.017472, 0.0246643, -0.0584897, -0.047527, -0.0965687, },
	{-0.0850437, -0.014535, -5.79435e-05, -0.0332505, 0.029192, -0.0248582, -0.021482, -0.0206084, -0.0797055, 0.00449224, },
	{-0.0237104, -0.0584112, 0.0412859, -0.023004, 0.0276306, -0.00283636, -0.0747915, -0.00974375, -0.0501999, 0.0204503, },
	{-0.0814978, -0.102166, -0.102625, -0.129311, -0.031762, -0.194779, -0.0374902, 0.178853, -0.0267847, -0.0159216, },
	{-0.051922, -0.0195715, -0.00474303, -0.0384706, -0.0503758, -0.0215499, -0.0460284, -0.0344073, 0.0978898, 0.0268427, },
	{0.00606474, -0.047025, 0.0579232, -0.0163516, 0.0312847, 0.076372, 0.0323023, -0.114204, -0.0306744, -0.0288426, },
	{-0.05319, -0.0386402, -0.0176336, -0.056105, 0.0527624, 0.0847098, 0.0936088, -0.0918024, -0.0347774, -0.0970558, },
	{-0.0154819, -0.0447354, 0.0179647, -0.0147559, 0.00417179, 0.102687, 0.00553447, -0.0715907, -0.00344864, -0.0970854, },
	{0.0276823, 0.0744855, -0.00846642, -0.100581, -0.0700962, 0.0329613, -0.0391413, 0.00296104, 0.00835255, -0.0884591, },
	{-0.0329101, 0.0584724, -0.098724, -0.0276402, 0.0803601, 0.0538573, -0.0196462, 0.00523075, 0.0158232, -0.0799438, },
	{0.00599657, -0.0275301, -0.113251, -0.00570521, 0.00689532, 0.0244306, 0.0631493, 0.0233808, -0.0156256, -0.0518971, },
	{0.0154878, -0.0184257, 0.00661067, -0.0106774, -0.100584, 0.0113418, -0.0573375, -0.0208849, -0.0254814, -0.0965675, },
	{0.00286656, -0.0470381, -0.152924, 0.009247, -0.0278033, 0.00326947, -0.0161158, -0.0762284, -0.0241021, -0.0859459, },
	{-0.0331801, -0.0121526, -0.000811895, -0.059899, 0.00404028, -0.00334875, -0.0271403, -0.034246, -0.0313816, 0.00222904, },
	{-0.0696516, -0.0544299, 0.0467357, -0.0205068, 0.0534957, 0.00744342, -0.10308, -0.0262984, 0.0177312, -0.00171141, },
	{-0.115412, -0.104552, -0.120039, -0.101243, -0.0429532, -0.0521434, -0.0178319, 0.0451917, 0.00563348, -0.0404329, },
	{-0.0521346, -0.0197156, 0.00487737, -0.0314258, -0.0347602, -0.0329872, -0.0467381, -0.0197114, 0.0680094, 0.0389158, },
	{-0.0124258, -0.0460295, 0.0437929, -0.021756, 0.0412277, 0.0457452, 0.076474, -0.0576627, -0.0354731, -0.0259496, },
	{-0.0572211, -0.0407179, 0.0308005, -0.0595364, -0.0265582, 0.0574664, 0.124682, -0.0358272, -0.0262962, -0.0819376, },
	{-0.0134607, -0.0466993, -0.0176724, 0.00907179, 0.0424797, 0.101082, -0.0209265, -0.0303455, 0.00388571, -0.0828138, },
	{0.0112709, 0.10596, -0.0374815, -0.0766822, -0.074825, 0.038057, -0.0369512, 0.00921741, 0.0109837, -0.0653715, },
	{-0.0321014, 0.0683696, -0.114089, -0.0231858, 0.0870857, 0.0419041, -0.0315599, -0.0164102, 0.0107511, -0.0273995, },
	{-0.0170212, -0.0322116, -0.12583, -0.00364051, 0.0154527, 0.0432385, 0.0409842, -0.0434171, 0.00170542, 0.00598273, },
	{-0.00879039, -0.0169018, -0.00411651, -0.0413739, -0.091701, -0.0190348, -0.04637, -0.0341506, -0.00344712, -0.0272013, },
	{0.000114162, -0.0514456, -0.13066, 0.0713443, -0.0115191, -0.064716, -0.059228, 0.00464692, 0.0252367, -0.0775397, },
	{-0.00653281, -0.0170081, -0.020103, -0.0698926, -0.00193783, -0.0733878, -0.0271548, 0.0293326, 0.0248228, -0.00147828, },
	{-0.105097, -0.0543039, 0.039361, -0.0196253, 0.0564781, -0.0676385, -0.080235, 0.0234518, 0.0723444, 0.00368381, },
	{-0.116256, -0.102154, -0.117748, -0.0832268, -0.0580677, 0.0259884, -0.000437638, -0.0961458, 0.05427, 0.0317803, },
	{-0.0386234, -0.0226287, 0.025998, -0.0181131, -0.0199427, -0.0369714, -0.0536386, -0.00526497, 0.0459862, 0.0275923, },
	{-0.025282, -0.0455563, 0.0443667, -0.0332759, 0.0416045, -0.000355029, 0.089679, -0.0212989, -0.036067, -0.00602482, },
	{-0.0469047, -0.045216, 0.0805449, -0.0531405, -0.0538915, 0.00369576, 0.08567, 0.0205344, -0.0180161, -0.0614925, },
	{-0.010946, -0.0357684, -0.00426886, 0.0275427, 0.0122945, 0.0629875, 0.0121026, -0.0153546, 0.00754136, -0.0540207, },
	{-0.0113073, 0.110457, -0.0312237, -0.049459, -0.0923673, 0.0228916, -0.0257748, -0.0236018, 0.0230851, -0.0331902, },
	{-0.0530447, 0.0770087, -0.101026, -0.0457913, 0.052578, 0.00982197, -0.0116032, -0.0716027, 0.010292, 0.00733447, },
	{-0.0479504, -0.0318151, -0.128037, -0.013204, -0.0014266, 0.027531, 0.0503942, -0.0608409, -0.00215622, 0.0336223, },
	{-0.0437333, -0.0297224, -0.0178746, 0.0055712, -0.108889, -0.00925004, -0.0379883, -0.0232475, -0.0015809, -0.00517559, },
	{0.0186836, -0.0570444, -0.0458087, 0.0584773, -0.0359217, -0.139601, -0.107606, 0.0151713, 0.0499604, -0.0636671, },
	{0.0509221, -0.019962, -0.00666201, -0.0864647, -0.0248929, -0.127307, 0.00587224, -0.00275052, 0.0523558, 0.0204753, },
	{-0.107483, -0.0506516, 0.0329036, -0.0365725, 0.0355341, -0.124649, -0.0257079, 0.0267122, 0.105155, 0.0238893, },
	{-0.0989993, -0.0928539, -0.0695088, -0.0670834, -0.0404743, 0.0359861, -0.00724004, -0.178393, 0.0601676, 0.11459, },
	{-0.0275498, -0.0191464, 0.0493455, -0.0139798, -0.01413, -0.0181088, -0.0365508, 0.00333217, 0.0205315, 0.0120421, },
	{-0.0567896, -0.0461203, 0.0592402, -0.0592626, 0.0170645, -0.0321591, 0.114664, 0.017454, -0.0666538, -0.0232067, },
	{-0.0380317, -0.0432834, 0.0461966, -0.0545316, 0.00568642, -0.029919, 0.0709086, 0.0455125, -0.0259883, -0.065548, },
	{-0.0350275, -0.0252529, 0.0139975, 0.0483419, -0.0375411, 0.0386835, 0.0353754, -0.0196172, 0.0090387, -0.0380024, },
	{0.00558044, 0.12528, -0.0334798, -0.0530552, -0.0852535, -0.0163087, -0.0547242, -0.0254355, 0.0212707, -0.0268392, },
	{-0.0535802, 0.0829115, -0.0982787, -0.035001, 0.0195551, -0.0133607, -0.00481398, -0.100571, -0.010614, 0.0220461, },
	{-0.0512653, -0.0390907, -0.136012, -0.0142504, -0.0218617, 0.0778377, 0.0375986, -0.0886498, -0.00367337, 0.0435989, },
	{-0.0322075, -0.0398724, -0.0354968, 0.0603858, -0.0932825, -0.0199556, -0.0378731, -0.0415387, -0.00127262, -0.0122222, },
	{0.0137845, -0.0557582, 0.000650819, 0.0473304, -0.0136497, -0.191348, -0.131746, -0.0254712, 0.040984, -0.0603436, },
	{0.0875435, -0.0206863, 0.0227735, -0.0707663, -0.0572397, -0.150881, 0.0434311, -0.034522, 0.0566058, 0.00612878, },
	{-0.0963535, -0.0506564, 0.0470335, -0.0519037, -0.0215114, -0.131018, 0.0143305, -0.00284208, 0.0919911, 0.00583839, },
	{-0.0872348, -0.0782879, -0.0335786, -0.0631697, 0.0469787, 0.0270371, -0.0590111, -0.127939, 0.0492153, 0.0875264, },
	{-0.0217762, -0.0132476, 0.0629597, -0.0108794, 0.00754378, 0.0102212, -0.0245193, -0.0106042, -0.00552988, 0.013481, },
	{-0.0701706, -0.0492398, 0.036682, -0.0651339, 0.0114742, -0.0336996, 0.144038, 0.0168376, -0.142077, -0.0284206, },
	{-0.0270175, -0.0445664, 0.030007, -0.0531257, 0.0642809, -0.052123, -0.00170357, 0.0356974, -0.0701007, -0.058771, },
	{-0.00587383, -0.0139028, 0.10701, 0.0597597, -0.0552687, 0.0242903, -0.119493, -0.0299471, 0.0197459, -0.0184219, },
	{-0.0201372, 0.138098, -0.0315348, -0.0326053, -0.123586, -0.0138246, -0.0952934, -0.0316584, 0.0414659, -0.0339788, },
	{-0.0752728, 0.101475, -0.119727, -0.0454141, -0.085591, -0.009871, 0.0455093, -0.0871257, 0.0167507, 0.0131501, },
	{-0.0292696, -0.0663751, -0.152262, 0.0292999, -0.0744158, 0.0519362, 0.120006, -0.0607303, 0.0214179, 0.0329473, },
	{-0.067545, -0.0578286, -0.117071, 0.0876939, -0.170916, -0.0905773, 0.173499, -0.0606804, 0.00577177, -0.0435771, },
	{-0.0297186, -0.0698035, -0.0288567, 0.0750695, -0.0977306, -0.188338, 0.0717852, -0.0718622, 0.0477444, -0.0760511, },
	{0.087605, -0.0282364, 0.05875, -0.0167805, -0.166487, -0.15128, 0.0596759, -0.0394645, 0.0907281, -0.0243964, },
	{-0.0621915, -0.0443793, 0.0848238, -0.0372915, -0.107837, -0.141314, 0.0116991, -0.000734225, 0.0462623, -0.0185978, },
	{-0.0941688, -0.0550711, -0.0129767, -0.0597714, 0.149655, 0.0120039, -0.0699731, -0.0615179, 0.0189908, 0.0341998, },
	{0.0246319, -0.00293434, -0.0375213, -0.00952559, -0.0138279, -0.010982, 0.0173836, 0.00203415, 0.00155532, -0.0273587, },
	{-0.0259676, -0.0334941, 0.0202843, -0.0375602, -0.0676739, -0.0339749, -0.0111016, -0.0230393, -0.112363, -0.0364086, },
	{-0.0397339, -0.00920959, 0.0373121, -0.0147202, -0.225697, -0.085141, 0.0831137, -0.0364742, -0.0804529, -0.0606659, },
	{-0.0305674, 0.051681, -0.00920527, 0.0985425, 0.0685875, -0.11708, -0.113139, -0.00785203, -0.156649, -0.0847144, },
	{0.0468401, 0.0789574, 0.0484116, -0.152506, 0.0994875, -0.118193, -0.215444, -0.0913997, -0.167161, -0.0566012, },
	{-0.02232, -0.0852313, -0.393136, -0.0570462, 0.176644, -0.109336, 0.10191, -0.0707363, -0.0104938, -0.0148413, },
	{-0.0924461, -0.0813429, -0.254715, -0.0527198, 0.035174, -0.0813377, 0.0704168, -0.0588082, 0.00916078, 0.0317655, },
	{-0.108521, -0.0527644, -0.0865967, 0.0169683, -0.0475513, -0.0106661, 0.111605, -0.0685608, 0.11823, 0.00870785, },
	{0.0500062, -0.0570864, -0.0219253, 0.0324864, -0.0162048, 0.0288564, 0.0328848, -0.0436969, -0.0429151, 0.0126062, },
	{0.0280439, -0.0172524, -0.0470884, -0.013287, -0.00967731, 0.0503774, 0.114317, -0.0290878, -0.0715436, 0.00903304, },
	{-0.000758879, -0.0128642, -0.0282371, -0.0243373, -0.0110583, 0.0882676, 0.0387746, -0.0225676, -0.0263346, -0.0113674, },
	{0.00707415, -0.00420059, -0.0209823, -0.0106443, -0.0129345, 0.0163848, -0.0193913, -0.00712292, -0.0100423, 0.00596917, },
	{0.0448662, -0.012137, -0.0688376, -0.0218984, -0.0402741, -0.0330897, -0.0143853, -0.00480816, 0.0344951, -0.062867, },
	{0.0374288, -0.0697863, 0.12282, -0.0898931, -0.0716362, -0.0706468, -0.0987139, -0.0434073, -0.119166, -0.0552775, },
	{-0.0749817, -0.0164543, 0.0347199, 0.0365082, -0.161354, -0.13464, 0.102434, -0.0250412, -0.0547547, -0.0942478, },
	{-0.067624, 0.040436, -0.0895352, 0.066185, 0.171827, -0.122246, -0.0146525, -0.0323948, -0.0329949, -0.0758286, },
	{-0.0335113, 0.053612, -0.0171955, -0.0471904, 0.0825375, -0.0810569, -0.099804, -0.0833463, -0.0170133, -0.00627679, },
	{0.0431706, -0.0448152, -0.0993701, -0.0619269, 0.0949453, -0.0394041, -0.106913, -0.0654357, 0.0841382, 0.0437218, },
	{-0.0762369, -0.0476938, -0.265682, -0.0852687, 0.212218, -0.0583547, 0.0227587, -0.029466, -0.0418078, 0.0402389, },
	{-0.0704542, -0.0659414, -0.105225, -0.0107306, 0.115586, -0.0311532, 0.0133325, -0.0465698, 0.167598, 0.0359924, },
	{0.0252168, -0.078738, -0.0352561, 0.0801567, 0.0168668, -0.011274, -0.0269948, 0.00597557, 0.110287, -0.0357085, },
	{-0.0273284, -0.0387524, -0.0443452, 0.0437068, -0.00863151, 0.0556911, 0.155647, -0.0142449, 0.00516991, -0.00666199, },
	{0.0395984, -0.0247479, 0.0157493, -0.0647107, -0.0292848, 0.0852959, 0.0115541, -0.0276022, -0.0414491, -0.0154441, },
	{-0.000863907, -0.00872379, -0.0340432, -0.0146367, -0.0346356, 0.0317189, -0.0187887, -0.0228317, -0.018619, 0.00894486, },
	{0.0517103, -0.0296647, -0.083282, -0.0211726, -0.0869274, -0.061336, -0.0351805, -0.0195095, 0.0725978, -0.107195, },
	{0.0423064, -0.090616, 0.108083, -0.13139, 0.0203661, -0.085732, -0.107324, -0.0641834, -0.0533657, -0.0734945, },
	{-0.0581336, -0.00203399, 0.03233, 0.0164306, -0.0486053, -0.150197, -0.000656346, -0.0295532, -0.0322993, -0.108785, },
	{0.0363765, 0.0471608, 0.0339479, -0.0297072, 0.0883522, -0.125662, -0.0237819, -0.0542667, 0.0135342, -0.066959, },
	{-0.0854303, 0.0204704, -0.0257537, 0.0960896, -0.063231, -0.0514835, -0.0548991, -0.0887984, 0.0391542, 0.0205058, },
	{0.0107736, -0.0423251, 0.00363805, 0.0396064, -0.0501202, 0.0152845, -0.0139968, -0.0497811, 0.0779707, 0.0541896, },
	{-0.0382986, -0.0144762, -0.127251, -0.0721977, 0.197747, -0.0370728, -0.0182657, 0.0280054, -0.0794382, 0.0433959, },
	{-0.0312479, -0.0697659, -0.0492885, 0.00291527, 0.073078, -0.0699869, 0.000590884, 0.0223748, 0.0573897, 0.030805, },
	{0.0080019, -0.074941, 0.0498689, 0.137881, -0.101193, -0.0477242, -0.0515577, 0.0947266, 0.0876961, -0.0585379, },
	{-0.0104716, -0.0662492, -0.0082703, 0.0858831, -0.101046, 0.0253746, 0.0824643, -0.00390434, 0.0594656, -0.0136687, },
	{0.0559441, -0.0310637, -0.00919548, -0.0621359, 0.0122192, 0.0451826, -0.010245, 0.00807512, -0.0310431, -0.021551, },
	{-0.0100503, -0.0120181, -0.0555994, -0.0330114, -0.0450932, 0.0418437, -0.00976049, 0.000979601, -0.0225916, 0.018636, },
	{0.0246088, -0.0495162, -0.0707311, -0.0192059, -0.120042, -0.0909757, -0.0485904, -0.0376855, 0.121629, -0.1354, },
	{0.0817676, -0.0977169, 0.0435815, -0.140667, 0.0800008, -0.103071, -0.0911994, -0.0768065, 0.0195317, -0.0864768, },
	{0.0410753, 0.00312511, -0.0118302, -0.0248471, 0.0115562, -0.162278, -0.0312055, -0.0293531, -0.0312061, -0.108432, },
	{0.0500505, 0.0367277, -0.0368793, -0.121064, 0.0335865, -0.136544, 0.0936408, -0.0724568, 0.0176325, -0.0572272, },
	{-0.127747, 0.00394484, 0.0292663, 0.154763, -0.208711, -0.013044, -0.0940403, -0.0859781, 0.0339999, 0.0306877, },
	{-0.0444807, -0.064189, 0.0503907, 0.167556, -0.132261, 0.0447411, 0.0425275, -0.0433387, 0.0138762, 0.0839247, },
	{-0.0623641, 0.0201272, -0.0426813, -0.0803867, 0.138321, 0.043831, -0.00872599, 0.00405412, -0.119909, 0.0396146, },
	{0.00281674, -0.050174, -0.0113293, -0.0588887, -0.0861617, -0.0736585, 0.0386789, 0.0397883, -0.0359057, 0.0339276, },
	{-0.0118862, -0.0594225, 0.0849054, 0.131326, -0.0977602, -0.0743705, -0.061981, 0.123858, 0.0454336, -0.0409379, },
	{-0.0205072, -0.0950782, -0.0462849, 0.176497, -0.193408, -0.0204265, 0.0647471, -0.00402616, 0.00393521, -0.0273235, },
	{0.0846748, -0.0396345, -0.0115708, -0.0516919, 0.0435347, 0.0155895, -0.0716527, 0.0652243, -0.0190348, -0.0224555, },
	{-0.0301927, -0.0249123, -0.0706829, -0.0531925, -0.0426686, -0.00647994, 0.032947, 0.0708876, -0.028056, 0.0195617, },
	{-0.0375074, -0.0562506, -0.0216996, -0.0253477, -0.109613, -0.0950235, -0.0336182, -0.0482429, 0.151699, -0.151595, },
	{0.0806033, -0.0971584, -0.037152, -0.107262, 0.0856461, -0.0819378, -0.0728811, -0.089359, 0.102398, -0.0978646, },
	{-0.0186273, -0.00229935, -0.00790962, -0.00479875, 0.00217052, -0.090261, 0.00190291, -0.0504615, -0.0211067, -0.106174, },
	{0.0747381, 0.0278489, -0.0205782, -0.1658, -0.0143177, -0.115167, 0.0523735, -0.0374413, -0.023006, -0.0813631, },
	{-0.0354298, -0.00824909, 0.0968138, 0.0757734, -0.277245, 0.00544657, -0.0990757, -0.0551683, -0.0323332, 0.0275991, },
	{-0.035507, -0.0624679, 0.0162409, 0.141108, -0.0839287, 0.0137801, 0.0206169, -0.0472847, -0.0151123, 0.0660517, },
	{-0.0606212, 0.0263591, -0.0827472, -0.092428, 0.116018, 0.0312512, 0.0217867, -0.0315448, -0.141758, 0.0461782, },
	{-0.0181553, -0.00258111, -0.00321677, -0.115913, -0.128832, -0.0441506, 0.0646246, 0.0363393, -0.0721385, -0.00324144, },
	{0.000880686, -0.0472928, 0.0715876, 0.054996, -0.0198826, -0.0411142, -0.0326846, 0.0744258, 0.0414111, 0.00655864, },
	{-0.098534, -0.105642, -0.00576529, 0.236477, -0.124888, -0.044418, 0.00733968, 0.00468504, -0.0584078, -0.0353863, },
	{0.077355, -0.0463792, 0.034191, -0.0130025, -0.0211323, 0.0163158, -0.0510031, 0.0849788, -0.0333422, -0.044415, },
	{-0.0367921, -0.0333276, -0.073778, -0.0704634, -0.0270198, -0.0320683, 0.0445749, 0.104022, -0.0217282, -0.0161675, },
	{-0.0813324, -0.0567153, 0.0367782, -0.0284799, -0.0925576, -0.0931962, -0.0443591, -0.0111707, 0.142181, -0.157445, },
	{0.0113546, -0.0968165, -0.0733919, -0.0640497, 0.0974313, 0.0477363, -0.0161537, -0.139366, 0.139648, -0.113572, },
	{-0.0324421, 0.00121939, -0.00284485, -0.021828, 0.0013965, 0.0169468, 0.00791706, -0.0702289, -0.00599965, -0.126331, },
	{0.0976884, 0.00062131, -0.0242095, -0.0589571, -0.0279848, -0.0950243, -0.0549093, 0.0242906, -0.0639307, -0.125503, },
	{0.0382034, -0.0169835, 0.0721975, 0.048055, -0.167072, -0.0392711, -0.110137, -0.0445249, -0.056137, 0.0130483, },
	{-0.0184355, -0.024095, -0.037953, 0.0493914, -0.0351353, -0.00293322, 0.0229595, -0.0821276, -0.0257829, 0.038619, },
	{-0.0480844, 0.0203901, -0.154122, -0.041601, 0.101594, 0.0307977, 0.0458861, -0.0394062, -0.130455, 0.0572033, },
	{-0.0203091, 0.0472694, -0.04128, -0.109895, -0.0344455, 0.0291146, 0.0230632, -0.00740193, -0.0617544, 0.00443376, },
	{0.016865, -0.0484438, 0.00726999, -0.00520388, 0.0033171, 0.024193, -0.0106503, -0.00175544, 0.0185943, -0.0300445, },
	{-0.121577, -0.0917752, 0.044145, 0.163266, 0.0304185, -0.00176942, -0.0443822, -0.00472953, -0.0938975, -0.0582911, },
	{0.0560135, -0.0431056, 0.102969, 0.00528509, -0.0313567, 0.0370019, -0.0197973, 0.055016, -0.0444657, -0.0773672, },
	{-0.0331956, -0.0292412, -0.0620544, -0.0641525, 0.00126364, -0.0696629, 0.0232524, 0.105588, -0.0101154, -0.0280042, },
	{-0.07457, -0.0648343, 0.0433877, -0.0549042, -0.0749684, -0.0772664, -0.0475128, -0.011162, 0.132738, -0.0952086, },
	{-0.0364229, -0.103814, -0.0830612, -0.0468575, 0.063649, 0.161886, -0.027811, -0.19605, 0.152431, -0.136952, },
	{-0.0480019, 0.0098329, 0.00118173, -0.0300777, 0.0472284, 0.072015, -0.0350506, -0.106857, 0.0165544, -0.150292, },
	{0.0357337, -0.0229742, -0.0101495, -0.0230031, -0.000553816, -0.0657745, -0.0181664, 0.0312192, -0.0328308, -0.147559, },
	{0.051307, -0.0322182, 0.00259574, 0.00357517, -0.0515596, 0.0105434, -0.0547675, -0.109752, -0.0689123, 0.00621775, },
	{0.00189305, 0.00273688, -0.0805327, 0.0120259, -0.00212998, 0.0383071, 0.0287246, -0.0660802, -0.0559302, 0.0100251, },
	{-0.044747, 0.0269968, -0.173149, -0.0158995, 0.0924771, 0.0408185, 0.0618748, 0.00422144, -0.120559, 0.0244361, },
	{-0.0291042, 0.0986183, -0.0335239, -0.101353, -0.00540359, 0.106741, -0.00619679, -0.0687971, -0.0669687, -0.0111946, },
	{-0.00978506, -0.0390386, -0.0312029, 0.0264829, 0.0181971, 0.127019, 0.0194181, -0.108965, -0.0111089, -0.0365861, },
	{-0.0906537, -0.0710516, 0.0384375, 0.0554231, 0.0962385, 0.0486522, -0.0243946, -0.0274575, -0.0820558, -0.0581015, },
	{0.0241368, -0.0402187, 0.13097, -0.0140023, 0.0386036, 0.0601145, 0.00602655, 0.00833298, -0.0633611, -0.0639317, },
	{-0.0382025, -0.0237855, -0.0338021, -0.0525326, 0.00457893, -0.0159432, 0.0145426, 0.0507846, 0.01723, 0.00555943, },
	{-0.077226, -0.0738814, 0.015444, -0.0726605, -0.0671045, -0.0653095, -0.051244, -0.0688312, 0.130646, 0.0186281, },
	{-0.0616336, -0.103043, -0.073405, -0.0170904, -0.0154359, 0.166548, 0.000824255, -0.153528, 0.153476, -0.173775, },
	{-0.069388, 0.0151368, -0.0145566, -0.00213057, 0.0928348, 0.0719994, -0.0286955, -0.112748, 0.0674477, -0.16119, },
	{0.0145922, -0.0490715, -0.0334533, -0.0135248, 0.073137, 0.0390633, -0.0137457, -0.0376064, -0.0411493, -0.166284, },
	{0.045082, -0.0358462, -0.0347494, -0.0303815, -0.0763282, -0.00477128, 0.0369519, -0.0904546, -0.0724152, -0.0240965, },
	{0.0137995, 0.00254816, -0.0830116, 0.0352363, -0.0256631, 0.0383907, 0.0368929, -0.0193796, -0.061375, -0.0101894, },
	{-0.0496393, 0.0545628, -0.171276, -0.0204207, 0.106153, 0.0404378, 0.0430408, -0.0096235, -0.105775, -0.00668741, },
	{-0.0437281, 0.17096, -0.0852376, -0.118307, -0.0253321, 0.0911946, -0.023982, -0.0291801, -0.059434, -0.0688985, },
	{-0.0184807, -0.0121443, -0.0746994, 0.0588596, 0.0111741, 0.150734, 0.0171653, -0.0976255, -0.0198052, -0.0529275, },
	{-0.0421925, -0.0668834, 0.0124916, -0.00993085, 0.0652264, 0.0271464, -0.00425886, -0.0214499, -0.0688739, -0.0499453, },
	{-0.0147318, -0.0436845, 0.0864543, -0.0333778, 0.0703756, 0.0348052, 0.0453315, -0.0523876, -0.0903183, -0.0327118, },
	{-0.0300343, -0.0198556, 0.0126778, -0.0603148, -0.0172369, 0.0591325, -0.0326339, -0.0273413, 0.00373829, 0.0152543, },
	{-0.0877565, -0.0821507, -0.0165537, -0.0575065, -0.0537745, -0.0707597, -0.00918488, -0.102657, 0.134423, 0.0848579, },
	{-0.0569413, -0.099096, -0.0502476, -0.0140612, -0.0371335, 0.0842991, 0.0194943, -0.0558116, 0.151595, -0.181229, },
	{-0.0736909, 0.0041383, 0.00117644, 0.0322522, 0.107331, -0.0287335, -0.0621896, -0.0162782, 0.0715694, -0.140593, },
	{-0.0197238, -0.0583958, -0.0356284, 0.0146456, 0.0223072, -0.0152304, 0.0144564, -0.0137391, -0.0179575, -0.137733, },
	{-0.0231177, -0.0305733, 0.0537071, 0.0394911, -0.184588, -0.0311907, 0.120173, -0.0323812, -0.0376011, -0.0679237, },
	{-0.00906125, -0.000936764, -0.0761137, 0.0290731, -0.00733363, 0.0410708, 0.0580326, 0.0263905, -0.00641192, -0.0520057, },
	{-0.06944, 0.0569842, -0.157833, -0.00885869, 0.105042, 0.0409574, 0.0377253, 0.0255749, -0.0590449, -0.0478472, },
	{-0.0644115, 0.21526, -0.0812428, -0.125318, -0.0251217, 0.0206562, -0.0417957, 0.0507222, -0.0373557, -0.0944454, },
	{-0.0178658, 0.00484166, -0.104596, 0.0931216, -0.00870663, 0.0877594, 0.0587746, -0.0230682, -0.00536997, -0.0519716, },
	{-0.040892, -0.0631797, 0.0872994, 0.0163216, -0.015141, -0.000608237, -0.0118847, -0.0632591, -0.0746014, 0.0388452, },
	{-0.0721397, -0.0484537, 0.0897667, -0.0534822, 0.00912305, 0.0233579, 0.0775404, -0.0738909, -0.0991223, -0.00399789, },
	{-0.00850233, -0.015406, 0.075831, -0.0604073, -0.0293343, 0.0545716, -0.0863955, -0.0252467, -0.0189535, 0.0197456, },
	{-0.0815663, -0.0835134, -0.00645202, -0.0406901, -0.0397113, -0.0780763, -0.014724, -0.0583591, 0.0994359, 0.0781083, },
	{-0.0658498, -0.0902221, -0.0303179, -0.0325736, -0.0122241, -0.00319105, -0.0102427, -0.00853017, 0.138125, -0.132573, },
	{-0.0488472, -0.012281, 0.028348, -0.00401919, 0.0696654, -0.063725, -0.0461359, 0.00324168, 0.0440615, -0.105574, },
	{-0.017305, -0.0584812, 0.00637474, 0.0531124, -0.0607569, -0.0493221, -0.0141637, -0.014828, -0.00574079, -0.0976001, },
	{-0.0830244, -0.0469188, 0.145596, 0.1161, -0.18338, -0.0739823, 0.0765924, -0.0161063, -0.0121389, -0.0657215, },
	{-0.0695606, 0.0123637, -0.0632726, 0.0315039, -0.0182108, 0.0175863, 0.0875603, 0.0134434, 0.0150446, -0.0638511, },
	{-0.0931885, 0.0368131, -0.175662, 0.0234749, 0.108209, 0.0103371, 0.0458613, 0.0591499, -0.0218053, -0.0645425, },
	{-0.0895544, 0.251183, -0.0848552, -0.127455, -0.0221623, 0.00314461, -0.0107468, 0.0411189, -0.050627, -0.0793001, },
	{-0.0407317, 0.0195163, -0.0981947, 0.101063, -0.0371211, 0.0145683, 0.115938, -0.0239164, -0.000666336, -0.00606632, },
	{-0.059123, -0.0694247, 0.160904, 0.00872878, -0.0501029, 0.0133781, -0.00555563, -0.184046, -0.0866184, 0.164588, },
	{-0.124457, -0.052032, 0.132722, -0.0881102, -0.020879, -0.0102184, 0.0580725, -0.0543253, -0.120178, 0.0211753, },
	{-0.00610115, -0.0148859, 0.117407, -0.0565161, -0.0231179, 0.0263472, -0.0808702, -0.0215998, -0.0581464, 0.0402554, },
	{-0.0634641, -0.0701232, 0.0320747, -0.040323, -0.0350311, -0.0428944, -0.0467722, -0.0244111, 0.0749914, 0.0355325, },
	{-0.0944172, -0.0834085, -0.00705872, -0.0562884, 0.0411304, -0.0572817, -0.0502181, -0.00328907, 0.107861, -0.0886317, },
	{-0.0139793, -0.0140483, 0.053884, -0.00724713, -0.0641706, -0.0723221, 0.0657095, -0.00878633, -0.00453179, -0.0789312, },
	{-0.00998032, -0.0628458, 0.059451, 0.0418876, -0.116433, -0.0321608, -0.0179695, -0.0523406, -0.029967, -0.0862028, },
	{-0.100059, -0.0636767, 0.110995, 0.122749, -0.0952317, -0.0985219, 0.00108389, -0.0441359, -0.0271888, -0.0837964, },
	{-0.0955537, 0.0207962, -0.0666016, 0.0129209, -0.0576807, 0.0139238, 0.131131, -0.0285415, -0.00666009, -0.074561, },
	{-0.105397, 0.0258221, -0.168599, 0.0265047, 0.0722681, 0.0212427, 0.0737804, 0.011249, -0.0122175, -0.0567609, },
	{-0.101137, 0.267849, -0.0858966, -0.142005, -0.017641, -0.0482686, -0.00752581, 0.010441, -0.0544951, -0.0708125, },
	{-0.0660289, 0.0263783, -0.0989956, 0.131007, -0.0406182, -0.013515, 0.117918, -0.091993, -0.0237804, 0.0527481, },
	{-0.0762588, -0.0681545, 0.154353, 0.0036394, 0.00582598, 0.00263438, 0.0111333, -0.232225, -0.10815, 0.218346, },
	{-0.136222, -0.0560452, 0.0822546, -0.112001, -0.00323104, -0.0197458, 0.0707428, -0.0424963, -0.167038, 0.0341501, },
	{-0.0281406, -0.0106886, 0.188395, -0.056249, -0.0138605, 0.0463879, -0.0442635, -0.045348, -0.1119, 0.041525, },
	{-0.0806385, -0.0486273, 0.0408715, -0.0401181, -0.00503881, 0.0131148, -0.0562415, -0.0343611, 0.0596511, 0.0484782, },
	{-0.10978, -0.0722563, -0.0382515, -0.0571569, 0.0952023, -0.0968129, -0.0743442, 0.00419994, 0.0222289, -0.0431192, },
	{0.0424883, -0.00842134, 0.222535, 0.0349881, -0.322629, -0.117316, 0.076791, -0.0246877, -0.0472901, -0.0456289, },
	{0.0270871, -0.0732131, 0.156977, -0.0108515, -0.139196, -0.046474, -0.0904789, -0.0911066, -0.040606, -0.0776703, },
	{-0.110658, -0.0769266, -0.003122, 0.150904, -0.0913799, -0.0983085, 0.0628699, -0.0601174, -0.0596928, -0.119701, },
	{-0.11229, 0.0282661, -0.0873757, 0.0031698, -0.114585, 0.0168827, 0.177062, -0.0580905, -0.0360951, -0.0883902, },
	{-0.085273, 0.0206848, -0.178531, 0.0164383, 0.0222312, -0.00407849, 0.124949, -0.0213353, -0.0272829, -0.0376345, },
	{-0.128365, 0.284624, -0.135627, -0.166418, -0.034826, -0.0990484, 0.0291427, -0.0223094, -0.0673077, -0.0635042, },
	{-0.0732611, 0.0386868, -0.103756, 0.130746, -0.0344942, -0.0286873, 0.100931, -0.0695411, -0.0424146, 0.0325718, },
	{-0.0722988, -0.0617532, 0.134225, 0.00330059, 0.0194745, -0.0107598, -0.0662593, -0.0687863, -0.130976, 0.091214, },
	{-0.115956, -0.0624849, 0.161852, -0.133444, -0.127332, -0.0390735, 0.104305, -0.0242027, -0.264322, 0.0223799, },
	{-0.0483387, -0.00843681, 0.271235, -0.0459363, 0.00653351, 0.0707958, -0.0244783, -0.039357, -0.143377, 0.025031, },
	{0.00342083, -0.0186107, -0.0432107, -0.0239041, -0.0537239, -0.0365518, 0.0148358, -0.0098002, -0.054239, -0.0489244, },
	{0.00456819, -0.0447268, 0.0639548, -0.0839704, -0.216458, -0.0935036, 0.0267896, -0.0503554, -0.114946, -0.0771681, },
	{-0.037289, -0.0123547, 0.0615929, 0.118881, -0.0993918, -0.154848, -0.0575503, -0.0370423, -0.175031, -0.123014, },
	{-0.00457781, 0.0333364, 0.163599, -0.00469947, 0.133169, -0.148598, -0.27312, -0.0607003, -0.182577, -0.124344, },
	{-0.0888413, -0.0113324, -0.436597, -0.146796, 0.263863, -0.102144, 0.169697, -0.0913084, 0.0301174, -0.0528514, },
	{-0.127292, -0.0897132, -0.292907, -0.0829447, -0.0236369, -0.088136, 0.231, -0.0236719, 0.0787412, 0.0355421, },
	{-0.0113923, -0.0427944, -0.0710573, -0.0108778, -0.15682, 0.00250842, -0.00981889, -0.0343686, 0.0370315, 0.0366223, },
	{-0.00232833, -0.0611289, -0.0319226, 0.013266, -0.183634, 0.0207665, 0.033548, -0.0291605, -0.0300055, 0.0245823, },
	{-0.000573244, -0.0207385, -0.150439, -0.0834254, -0.136021, 0.0532806, 0.189759, -0.0298872, -0.0495069, 0.0231887, },
	{-0.00892024, -0.0226694, -0.197676, -0.0520998, 0.02038, 0.0792781, 0.11148, -0.0309206, 0.00906722, -0.00352383, },
	{0.0192336, -0.0130829, -0.0474798, -0.0311601, -0.0417612, 0.0413033, -0.0827249, -0.0286469, 0.042759, 0.0128988, },
	{-0.0140527, -0.00770718, -0.0223805, -0.00174397, -0.027732, -0.01586, -0.0530044, -0.0125265, 0.0435477, 0.0365675, },
	{0.0386226, -0.0478682, 0.0260388, -0.0522175, -0.0822306, -0.0717266, -0.0619457, -0.0197347, -0.0452267, -0.0925315, },
	{-0.00215847, -0.0708243, 0.014647, -0.086843, -0.156051, -0.135189, 0.0638312, -0.0613531, -0.0896685, -0.128536, },
	{-0.0447436, -0.0193089, -0.0604505, 0.0557942, 0.0790273, -0.162967, 0.0901669, -0.0367661, -0.0422115, -0.154129, },
	{-0.0214606, 0.037843, -0.0340389, 0.0221773, 0.0659078, -0.110173, -0.173672, -0.072339, -0.0203858, -0.094609, },
	{-0.0299889, 0.0136416, 0.0860022, 0.0339676, 0.0144543, -0.0224276, -0.295397, -0.080697, 0.107014, 0.00480527, },
	{0.0523057, -0.0293178, -0.0786319, -0.0881926, 0.0212051, -0.0226845, -0.157455, -0.0126418, 0.0731466, 0.0454293, },
	{-0.031396, -0.0516038, -0.0951129, -0.054465, -0.0693177, -0.0146144, -0.0600332, -0.00175727, 0.0798532, 0.0187712, },
	{-0.0192199, -0.0625701, -0.0489086, -0.0379903, -0.125723, -0.0311723, -0.0219142, 0.0484583, 0.0863718, -0.0675395, },
	{0.0363914, -0.0310403, -0.0786952, -0.0265869, -0.0479112, 0.00748308, 0.012892, 0.0334877, 0.0527679, -0.0588994, },
	{-0.0135962, -0.0340481, -0.0499701, -0.0410524, -0.0389468, 0.0721989, -0.0179478, -0.0591594, -0.000152856, 0.00537542, },
	{-0.0252262, -0.0260024, -0.0473017, -0.0398607, -0.0774936, 0.0356657, -0.0541826, -0.0750751, 0.0117185, 0.0404059, },
	{-0.028849, -0.0114997, -0.028368, -0.00116705, -0.0705554, -0.0151989, -0.0441618, -0.102496, 0.0257214, 0.107485, },
	{0.0539294, -0.0702719, 0.0396273, -0.0819408, -0.0481694, -0.0933369, -0.106033, -0.0352332, -0.00693926, -0.117097, },
	{-0.0277053, -0.0655658, 0.0553454, -0.0597134, -0.0533155, -0.159359, -0.0238577, -0.0599331, -0.0329265, -0.134808, },
	{-0.00568491, 0.00146751, 0.0321309, 0.00134963, 0.0388278, -0.185041, 0.0593151, -0.0395163, -0.0433659, -0.121316, },
	{0.0458508, 0.0408674, 0.00395987, 0.000205029, 0.0252664, -0.0825916, -0.170055, -0.0784119, 0.0104219, -0.0626036, },
	{-0.0703693, -0.00729227, -0.00672253, 0.0674551, -0.0934378, 0.0137026, -0.138658, -0.0608652, 0.118752, 0.0351533, },
	{0.0304687, -0.0150049, -0.0521479, -0.0582428, -0.00616824, 0.0292765, -0.142908, 0.0173072, 0.0157313, 0.0587508, },
	{-0.0094939, -0.0524331, -0.0696638, -0.0931429, -0.0861128, -0.0179116, -0.0692528, 0.0589329, 0.0390057, 0.0199995, },
	{0.00997109, -0.0614457, -0.0684718, -0.0890343, -0.130001, -0.105898, -0.0557868, 0.144261, 0.0779197, -0.0730686, },
	{0.0109746, -0.0376046, -0.0364802, -0.00302019, -0.080068, 0.00887622, -0.0732141, 0.047978, 0.106262, -0.0649609, },
	{-0.000889079, -0.0331821, -0.0323255, -0.0343356, -0.0459872, 0.0635587, -0.0416058, -0.0980154, 0.01295, 0.0178075, },
	{-0.0386261, -0.0241901, -0.0367714, -0.042716, -0.0839117, 0.020144, -0.0708887, -0.050535, -0.0292718, 0.0311941, },
	{-0.0386237, -0.0181884, -0.034135, -0.00613932, -0.0757712, -0.0248689, -0.0274676, -0.0911361, -0.0217866, 0.1029, },
	{0.0383455, -0.0732263, 0.0416145, -0.105232, -0.00866732, -0.0952499, -0.077583, -0.056325, 0.00935384, -0.104206, },
	{-0.0105146, -0.0473833, 0.0712294, -0.0687994, -0.00442062, -0.135877, -0.0659009, -0.0642127, 0.0194687, -0.110419, },
	{0.0115835, 0.0221061, 0.0609314, 0.049156, 0.0242473, -0.150716, 0.00294518, -0.0306946, -0.0121456, -0.077441, },
	{0.00104387, 0.0546388, -0.0464052, 0.000250528, -0.0397941, -0.0278946, -0.0806996, -0.0393839, 0.0255892, -0.0266285, },
	{-0.113709, -0.0434648, -0.010481, 0.100266, -0.160117, 0.0207389, -0.131606, 0.0284003, 0.0429099, 0.0459338, },
	{-0.017357, -0.0147623, -0.0358213, -0.0110401, -0.0504888, 0.0196934, -0.154484, 0.0533454, -0.0750915, 0.0806807, },
	{-0.0030617, -0.0364716, -0.0817567, -0.107155, -0.0945727, -0.0714132, -0.101885, 0.069178, -0.0253515, 0.035273, },
	{0.0097738, -0.032744, -0.0941995, -0.096601, -0.131939, -0.187275, -0.0560947, 0.16825, 0.0606798, -0.0494944, },
	{0.00261529, -0.0276437, -0.0344652, 0.00647155, -0.101217, 0.0286213, -0.034625, 0.026469, 0.118845, -0.0396307, },
	{0.00787185, -0.0361289, -0.08417, -0.0301893, -0.0201383, 0.116273, -0.0441421, -0.159164, 0.0387527, 0.0533754, },
	{-0.0251066, -0.0288057, -0.0980815, -0.0400579, -0.0449759, 0.065579, -0.067832, 0.0447447, -0.0559458, -0.0389292, },
	{-0.0364366, -0.0309133, -0.0757451, -0.0252411, -0.0505805, -0.0771969, -0.0343718, 0.0583886, -0.0769622, -0.0151463, },
	{0.027563, -0.0746166, 0.0396288, -0.0786256, 0.052228, -0.0652902, -0.03548, -0.044767, -0.0204972, -0.107466, },
	{0.0183097, -0.0432349, 0.0291512, -0.0548907, 0.0390436, -0.0226337, -0.0800675, -0.0719722, 0.0152524, -0.119459, },
	{-0.0543729, 0.0181293, 0.0575908, 0.0483665, 0.0626309, -0.0476357, -0.0251865, 0.00435725, -0.041556, -0.0983632, },
	{-0.0323916, 0.0257704, -0.084163, -0.0766131, -0.101211, 0.0025746, -0.0763639, 0.0316338, -0.063171, -0.00700394, },
	{-0.165837, -0.0576932, -0.0610218, 0.102297, -0.19877, -0.0187881, -0.152037, 0.0723713, -0.0581873, 0.0544639, },
	{-0.0223472, -0.0398357, -0.093664, -0.0384049, -0.0693952, -0.00402589, -0.138629, 0.0132131, -0.129114, 0.0527043, },
	{-0.00650334, -0.037994, -0.102357, -0.109795, -0.12338, -0.0726824, -0.111554, 0.00185637, -0.053388, 0.0414534, },
	{-0.00227282, -0.0132156, -0.0572985, -0.0689396, -0.140336, -0.0900136, -0.0288029, 0.111046, 0.102525, -0.0540984, },
	{-0.034893, -0.0293248, -0.0451369, -0.0104407, -0.0698203, 0.0393741, 0.00340648, -0.0388732, 0.120823, -0.0592553, },
	{-0.00467903, -0.0405773, -0.0572012, -0.0379686, -0.0502311, 0.0104668, -0.0361956, -0.0312247, 0.0320351, -0.0547495, },
	{-0.0198316, -0.0377428, -0.10593, -0.0871942, -0.0496915, 0.00920254, -0.0313616, 0.0910745, -0.0855878, -0.0832156, },
	{-0.0428633, -0.0269011, -0.0819843, -0.0738404, -0.0434293, -0.0994191, -0.0152887, 0.136726, -0.113486, -0.116317, },
	{0.0125406, -0.0802814, 0.0295277, -0.0757675, 0.0876892, -0.0493571, 0.0131568, 0.00993205, -0.0953626, -0.0986096, },
	{0.03258, -0.0526623, -0.0422618, -0.0559044, 0.0290501, 0.106966, -0.0975281, -0.109267, -0.031167, -0.128034, },
	{-0.0242727, 0.00592896, 0.0234908, 0.0207295, 0.042596, -0.0265815, -0.136693, 0.0390867, -0.0550138, -0.106112, },
	{0.0157884, -0.0242573, -0.121341, -0.107362, -0.172415, -0.113452, -0.130816, 0.123469, -0.112042, -0.00760477, },
	{-0.175552, -0.0438988, -0.0668764, 0.0732958, -0.233068, -0.0976012, -0.141908, 0.0322259, -0.0990679, 0.0773955, },
	{-0.0338787, -0.0285919, -0.129128, -0.0254224, -0.0730805, 0.0108681, -0.0788022, -0.0826102, -0.109032, 0.0966463, },
	{-0.0292135, -0.015715, -0.0718416, -0.0733944, -0.158894, 0.04952, -0.0658424, -0.0172016, -0.0406959, 0.000447939, },
	{-0.00754221, -0.00748685, -0.0238019, -0.0727541, -0.107846, 0.0811281, 0.0066828, 0.00140224, 0.0811675, -0.0401649, },
	{-0.05143, -0.0332697, 0.00680993, -0.0151688, -0.0560567, 0.0895397, -0.00123731, -0.0898029, 0.0584835, -0.0747391, },
	{-0.0314352, -0.042702, 0.0456453, -0.00230307, -0.0763248, 0.0347866, -0.0600268, -0.042965, 0.017279, -0.082707, },
	{0.00354178, -0.0344982, -0.0329301, -0.0588221, -0.042598, 0.0101326, -0.0533691, 0.0452804, -0.0656594, -0.118793, },
	{-0.0476124, -0.0232462, -0.0570285, -0.0510638, -0.0255303, -0.0431531, -0.0290736, 0.0992717, -0.082725, -0.106601, },
	{-0.039488, -0.0900368, -0.0174599, -0.101691, 0.0693576, -0.0222445, 0.0661108, -0.035821, -0.124098, -0.0224266, },
	{-0.0273218, -0.0549482, -0.0628376, -0.06796, -0.0220039, 0.176441, -0.0781488, -0.176488, -0.0382393, -0.133354, },
	{-0.0402596, 0.00104814, -0.05612, 0.000854497, 0.0212499, -0.0772899, -0.0892264, 0.0542872, -0.0330872, -0.109824, },
	{0.0150011, -0.0382238, -0.141435, -0.0656638, -0.195643, -0.0862808, -0.137943, 0.0172457, -0.136361, 0.0201162, },
	{-0.106589, -0.00386157, -0.0965255, -0.0246956, -0.166746, -0.0277167, -0.123037, -0.108832, -0.147363, 0.129331, },
	{-0.0252164, -0.0284591, -0.106173, -0.00395212, -0.0359305, 0.0372703, -0.053533, -0.0502762, -0.116107, 0.0469822, },
	{-0.020906, 0.0204344, -0.024753, -0.0811715, -0.146599, 0.0851763, -0.0330311, -0.0703177, -0.0744069, 0.0273406, },
	{-0.00547478, 0.0210647, 0.00817448, -0.0669727, -0.0979487, 0.192402, -0.0361825, -0.150975, 0.0139525, -0.0793887, },
	{-0.0354907, -0.0240553, -0.028728, -0.0241805, -0.0186803, 0.171866, -0.0354482, -0.16791, 0.00695842, -0.0805054, },
	{-0.0459665, -0.0267838, 0.0503631, -0.0111533, -0.0265314, 0.139262, -0.0469551, -0.122122, -0.0220616, -0.0599442, },
	{0.0212111, -0.0231466, 0.0228004, -0.0266966, -0.0201084, 0.148782, -0.0854939, -0.0739576, -0.0443739, -0.0974625, },
	{-0.0416787, -0.0182741, -0.0438614, -0.0357415, -0.0131498, 0.149742, -0.0465537, -0.0783961, -0.0346751, -0.0812459, },
	{-0.06425, -0.0875945, -0.0340831, -0.0763353, 0.01918, -0.0307693, 0.0959876, -0.102461, -0.0742482, 0.0433237, },
	{-0.021198, -0.0420704, -0.0511131, -0.0205513, -0.0153061, 0.14341, -0.111141, -0.0937755, -0.0121908, -0.187357, },
	{-0.0135487, -0.0121887, -0.0903804, 0.015541, 0.0252754, -0.0215483, -0.0626979, 0.0430378, 0.00828095, -0.131365, },
	{0.0282403, -0.0535597, -0.121696, 0.0482869, -0.203916, -0.072604, -0.16087, -0.00466868, -0.132928, -0.015388, },
	{-0.0230804, 0.0245707, -0.0884261, -0.0927249, -0.152763, -0.0623871, -0.102674, -0.0843532, -0.149884, 0.0869391, },
	{0.0130179, -0.0300293, -0.0608015, -0.00728642, -0.0440633, 0.0207943, -0.0432616, -0.0737798, -0.086603, 0.0872027, },
	{-0.035405, 0.0645006, -0.0127012, -0.0992899, -0.152659, 0.0836497, -0.0696774, -0.0850127, -0.0713649, -0.0373975, },
	{-0.0324294, 0.0545379, -0.0137655, -0.0711048, -0.125929, 0.188269, -0.0696437, -0.144996, -0.0160399, -0.0918829, },
	{-0.021735, -0.0257307, -0.0158597, -0.0189248, -0.0264712, 0.158188, -0.0438901, -0.14522, 0.0162117, -0.0823857, },
	{-0.0229091, -0.0301674, 0.0293554, -0.0393712, -0.0428856, 0.0802044, 0.0049991, -0.0550867, -0.0282067, -0.0748081, },
	{0.00511794, -0.0208422, 0.0548248, -0.0181499, -0.0299849, 0.107532, -0.0561842, -0.0865443, -0.0345461, -0.0610102, },
	{-0.0522847, -0.0159335, -0.0222394, -0.0305151, -0.0193564, 0.150906, -0.0438663, -0.113968, -0.0276446, -0.0440439, },
	{-0.071046, -0.0847271, -0.0581156, -0.0472181, 0.0115325, -0.0682712, 0.122482, -0.13714, -0.040002, 0.0394912, },
	{-0.026126, -0.0482636, -0.020436, 0.00106536, 0.00172339, 0.0440906, -0.108494, -0.0411032, -0.00739296, -0.154694, },
	{0.0287334, -0.0256337, -0.132837, -0.0455266, -0.0148531, -0.0181874, -0.0317123, -0.0365916, 0.0428193, -0.0594745, },
	{0.0446032, -0.060162, -0.129784, 0.00703976, -0.159984, -0.0353947, -0.134436, -0.0933204, -0.0663857, 0.0348794, },
	{-0.00837733, 0.0374834, -0.0757111, -0.126941, -0.112644, -0.00378204, -0.0452877, -0.0550201, -0.0760603, 0.0437481, },
	{-0.0013367, -0.0262972, -0.0363263, -0.0183816, 0.00191527, 0.0562343, -0.0580565, -0.027499, -0.0289049, 0.0184346, },
	{-0.0588211, 0.0910134, -0.030607, -0.0854271, -0.156569, 0.0817914, -0.0743293, -0.0287184, -0.054028, -0.0671535, },
	{-0.0174394, 0.0857844, -0.0351724, -0.0676336, -0.120044, 0.112728, -0.0629349, -0.0256666, -0.00451784, -0.0608226, },
	{0.00348763, -0.013098, 0.00197659, -0.0140567, 0.00566437, 0.0834003, -0.0350069, -0.00593622, 0.0194718, -0.053302, },
	{-0.0348442, -0.0278697, 0.0209473, -0.0275393, -0.0720328, 0.097178, 0.03525, -0.0288453, -0.0374801, -0.0473607, },
	{0.000864463, -0.0231527, 0.0482071, -0.011691, -0.0091258, 0.0797022, -0.0274878, -0.0471451, -0.0353719, -0.0224455, },
	{-0.0347736, -0.0110081, -0.0215334, -0.0393722, -0.00312929, 0.078583, -0.0458828, -0.025831, -0.0172988, -0.0074826, },
	{-0.0660578, -0.0814945, -0.049992, -0.0312042, 0.00277865, -0.0869608, 0.0838272, -0.0636879, 0.00663476, 0.00826827, },
	{-0.0384123, -0.041961, 0.013402, -0.0365014, -0.0255425, -0.0133275, -0.066554, -0.0392835, 0.0169961, -0.119966, },
	{0.0843616, -0.0217112, -0.152239, -0.0983438, -0.0808569, -0.0155102, 0.0257794, -0.0587754, 0.0482135, -0.0359097, },
	{0.0362847, -0.0556997, -0.0869399, -0.0134427, -0.116241, -0.0198303, -0.0950598, -0.0789496, 0.00781105, 0.00646528, },
	{-0.0421114, 0.0468313, -0.0370645, -0.135315, -0.0478924, -0.000153881, -0.0345864, -0.054631, -0.0289222, -0.0028735, },
	{-0.0179004, -0.00832829, -0.0210052, -0.00318283, 0.0147845, 0.0522317, -0.0192094, -0.0328137, -0.00710295, -0.0129211, },
	{-0.0590862, 0.112641, -0.0105343, -0.0879279, -0.136745, 0.062215, -0.0739623, -0.0191563, -0.0313685, -0.0541357, },
	{-0.019208, 0.120811, -0.0237271, -0.0779836, -0.109566, 0.0275797, -0.0522911, -0.00744072, 0.00338805, -0.0238532, },
	{0.00119159, -0.00149491, 0.0370377, -0.00210394, 0.00237507, 0.0307056, -0.0234575, -0.0176256, 0.0101273, -0.0137821, },
	{-0.0411659, -0.0312509, 0.00170549, -0.0413095, -0.0725496, 0.094909, 0.0174851, -0.0500232, -0.0278193, -0.0347522, },
	{-0.0213935, -0.0207235, 0.0459798, -0.0243681, 0.0110972, 0.0460006, -0.0152811, -0.0487502, -0.0391012, 0.0180103, },
	{-0.0261155, -0.00900398, -0.0119583, -0.0342933, 0.00584589, 0.0578861, -0.0429102, -0.022086, -0.0136466, 0.0185907, },
	{-0.0690507, -0.0752973, -0.045146, -0.0359322, 0.0595564, -0.0370437, 0.00933701, -0.0212833, 0.0511914, 0.00234194, },
	{-0.0719142, -0.0353281, 0.0239327, -0.0107091, -0.125172, -0.0211317, 0.0456888, -0.0178183, 0.0184235, -0.0818211, },
	{0.0598868, -0.0138064, -0.19801, 0.0261754, -0.178344, -0.00153036, 0.0916891, -0.0754672, 0.0581912, -0.0101628, },
	{-0.0618112, -0.0525435, -0.0553158, 0.126894, -0.065915, -0.0441115, -0.142044, -0.0843316, 0.0413196, -0.0251327, },
	{-0.038084, 0.0527092, -0.0260054, -0.0692022, -0.0382363, -0.0103524, -0.0622657, -0.0509335, -0.020774, -0.0562912, },
	{-0.0176334, -0.0018044, -0.0170235, 0.0189835, 0.0222773, 0.0583409, -0.015793, -0.0405407, 0.00364118, -0.0265539, },
	{-0.0416956, 0.130503, 0.00223607, -0.0687399, -0.125635, 0.0345935, -0.0892146, -0.0059008, -0.0262505, -0.0455493, },
	{-0.0152456, 0.13798, -0.0280135, -0.0489816, -0.110342, -0.0163348, -0.0442735, -0.0447939, -0.0154501, 0.00873454, },
	{0.0144375, 0.0102421, 0.0268843, 0.00578517, 0.0229415, 0.0144404, -0.0362246, -0.0887663, -0.0207747, 0.0469989, },
	{-0.0230237, -0.0291894, -0.0274316, -0.0446508, 0.0621144, 0.0793831, -0.0847826, -0.0610158, -0.0459507, 0.0139534, },
	{-0.0371029, -0.0168638, 0.0332285, -0.0332985, 0.0385452, 0.0377608, 0.0163257, -0.0475702, -0.0516505, 0.0334899, },
	{-0.0218959, -0.00603006, 0.00516779, -0.0276014, 0.00305446, 0.0685998, -0.0347741, -0.0152182, -0.0295603, 0.00651322, },
	{-0.0878232, -0.0618153, -0.0905228, -0.0502389, 0.14612, -0.0199523, -0.0377786, -0.00182716, 0.0181641, -0.0029054, },
	{-0.0336135, -0.0246718, 0.0806463, 0.0124405, -0.256632, -0.0930196, 0.071513, 0.00805329, -0.035418, -0.0599486, },
	{0.0956011, -0.0191572, -0.187569, 0.0794992, -0.184964, -0.04813, 0.0186402, -0.0800077, 0.0613857, -0.0309071, },
	{-0.0928828, -0.0709212, -0.138055, 0.192307, 0.0214177, -0.0698615, -0.104275, -0.0687775, 0.0220037, -0.0855977, },
	{-0.049585, 0.0473849, -0.075005, -0.0326798, -0.0734819, -0.0242399, -0.0256073, -0.0497717, -0.0316698, -0.101006, },
	{-0.0145209, -0.00391652, -0.0294146, 0.00207292, -0.011056, 0.0371021, 0.0219491, -0.0387653, 0.0106107, -0.0387639, },
	{-0.0307483, 0.134967, -0.0177696, -0.0754125, -0.110687, -0.0146903, -0.047554, -0.0101846, -0.0139106, -0.0394888, },
	{-0.0116868, 0.156955, -0.0327445, -0.0711418, -0.109283, -0.0404342, -0.0232639, -0.0518705, -0.0199481, 0.0125126, },
	{-0.000241636, 0.0182427, 0.0300783, -0.0157109, 0.0258901, 0.000665199, -0.032641, -0.0483579, -0.0368801, 0.0363473, },
	{-0.0370692, -0.0265151, -0.0139487, -0.0615489, 0.210553, 0.0226453, -0.221459, -0.0113251, -0.0719522, 0.037069, },
	{-0.0421132, -0.0173977, 0.0507483, -0.0322534, 0.10369, 0.0412353, -0.0479629, -0.0336957, -0.0760262, 0.0348427, },
	{-0.0233939, -0.00515606, 0.0151179, -0.0197841, 0.0100823, 0.0808619, -0.0226679, -0.0116422, -0.0335983, 0.00229263, },
	{0.0184201, -0.00196008, -0.033869, -0.00926528, -0.0114115, -0.0111441, 0.00539385, -0.00311443, 0.0248089, -0.0241231, },
	{0.0294708, -0.0325641, 0.0640116, -0.0427203, -0.0806771, -0.0387951, -0.0526666, -0.0270095, -0.075388, -0.0390355, },
	{0.0312798, -0.0320834, 0.0565888, -0.00577355, -0.121765, -0.088042, 0.0289248, -0.0383325, -0.0966056, -0.0769019, },
	{-0.022537, -0.0225535, 0.0854293, 0.0566208, 0.0390938, -0.113369, -0.04862, -0.0267631, -0.0856675, -0.107996, },
	{-0.01307, -0.017508, -0.0976359, -0.0371594, 0.182708, -0.106789, -0.0113006, -0.0631321, 0.0270492, -0.0861004, },
	{-0.0469835, -0.069773, -0.198737, -0.0477816, 0.0632471, -0.0817578, 0.186081, -0.0467496, 0.0566537, -0.0294916, },
	{0.00997024, -0.0612608, 0.0502944, 0.0460541, -0.154427, -0.0389561, -0.00373236, -0.0481556, -0.015334, -0.0145982, },
	{0.0295577, -0.036737, 0.0962516, 0.0726128, -0.190188, -0.000157422, 0.00106327, -0.0402842, -0.0664321, -0.0156589, },
	{-0.0371512, -0.0478514, -0.193562, -0.030974, -0.023448, 0.0221012, 0.208115, -0.0123488, -0.0581409, -0.00555932, },
	{0.0263239, -0.0561097, -0.0832698, -0.0764181, 0.0334981, 0.0392542, 0.0833086, -0.0268831, -0.0297598, -0.00121777, },
	{0.0646509, -0.0436502, -0.00469816, -0.0758712, -0.0485961, 0.0534384, 0.0287808, -0.029506, -0.0317702, -0.00608559, },
	{0.0456884, -0.0178941, -0.00366076, -0.0322311, -0.0488416, 0.000936612, -0.0777491, -0.0213855, 0.0135102, 0.0234818, },
	{0.0388287, -0.0131622, -0.0419907, -0.0192704, -0.0368697, -0.0309926, -0.025331, -0.00893011, 0.0557438, -0.0539158, },
	{0.0594416, -0.056145, 0.0306226, -0.0743473, -0.0393446, -0.0649091, -0.0483814, -0.0408449, -0.000141609, -0.0651935, },
	{-0.0236712, -0.0304213, -0.00564805, 0.0272486, 0.0266438, -0.103499, 0.0229238, -0.0314018, 0.0299354, -0.0978736, },
	{-0.04431, 0.0138909, -0.108898, 0.0461225, 0.136482, -0.0876391, 0.0167611, -0.048469, 0.0598274, -0.0870129, },
	{0.046066, 0.0229257, 0.0831449, -0.0161818, 0.0258221, -0.0564985, -0.164923, -0.0708, 0.118042, -0.0387377, },
	{0.0552317, -0.00891473, -0.00384227, -0.033621, 0.0341025, -0.019721, -0.0847325, -0.0559663, 0.111912, 0.00723019, },
	{0.0352558, -0.0183634, -0.0438388, -0.0214426, -0.0197078, -0.0119457, -0.0378064, -0.0383896, 0.0334404, -0.00100321, },
	{0.0264492, -0.0409112, -0.00575916, 0.00380696, -0.0495511, -0.0110535, -0.0217707, 0.00302385, 0.00350725, -0.0310058, },
	{0.0775505, -0.0389002, -0.0160524, -0.00413425, 0.0219716, -0.0140705, -0.0412155, 0.0335059, -0.02676, -0.0510363, },
	{-0.0069935, -0.0374367, -0.0139925, -0.0315183, 0.0199512, 0.0348225, -0.0107708, -0.0095975, -0.0246333, -0.0217253, },
	{-0.0140509, -0.0346588, -0.0853436, -0.0508672, 0.0260872, 0.0453962, -0.0317588, -0.0563694, 0.00249765, 0.0178351, },
	{-0.0188631, -0.016427, -0.073498, -0.0212922, -0.0492097, -0.0062484, -0.026783, -0.0603411, 0.0378729, 0.0586464, },
	{0.0364726, -0.0297064, -0.0358929, -0.0199677, -0.0676784, -0.0467172, -0.0295434, -0.0250097, 0.0918891, -0.0748203, },
	{0.0239281, -0.0652575, 0.000291283, -0.0722829, 0.00547684, -0.0755308, -0.00160159, -0.0589912, 0.0438311, -0.0760665, },
	{-0.0415644, -0.0185942, -0.00980215, -0.00785212, 0.0411316, -0.101323, -0.0285457, -0.0539784, 0.0459592, -0.092326, },
	{0.0597293, 0.0146326, 0.0535875, 0.000777509, 0.050906, -0.0899477, -0.127816, -0.056321, 0.0683407, -0.0716342, },
	{0.0255067, 0.015103, 0.0219239, -0.0146258, -0.0222329, -0.0359047, -0.0635903, -0.0681508, 0.113464, -0.0244911, },
	{0.0460218, -0.00606777, 0.018705, -0.0530082, -0.0459583, 0.0129972, -0.0355162, -0.0460699, 0.0872707, -0.00447914, },
	{0.03174, -0.0209283, 0.0267117, -0.0448724, -0.0688276, 0.024551, -0.0375032, -0.00472992, 0.0120378, -0.00329864, },
	{0.0468367, -0.0409857, 0.0138144, -0.0472397, -0.0803465, -0.0118294, -0.0457921, 0.038272, -0.00459898, -0.0427412, },
	{0.0534698, -0.0435443, -0.00701563, -0.0168735, -0.0439662, -0.0276277, -0.0549542, 0.102971, -0.0278018, -0.0800528, },
	{-0.00946102, -0.0466086, -0.0200267, -0.0147357, -0.0304041, 0.0542586, 0.00429154, -0.0189835, -0.0277913, -0.0448052, },
	{-0.00772231, -0.0385849, -0.038169, -0.0529043, -0.0407838, 0.037596, -0.0551026, -0.0507927, -0.0238419, -0.00391067, },
	{-0.0612919, -0.0257716, -0.057791, -0.0213188, -0.089509, 0.0058917, -0.0151174, -0.0805402, -0.00776538, 0.076546, },
	{-0.000767922, -0.0335232, -0.0129452, -0.0289496, -0.0711613, -0.067436, -0.0205246, -0.0342831, 0.127665, -0.0648945, },
	{0.0273043, -0.0539673, 0.00254311, -0.0767531, 0.00595586, -0.0826344, -0.00960021, -0.0668112, 0.0718384, -0.0564174, },
	{0.00295006, -0.0109033, -0.0216438, 0.0183158, -0.00242079, -0.0989407, -0.0164378, -0.0592587, 0.0717945, -0.0599766, },
	{0.00708865, 0.0180307, -0.0244315, 0.0269261, 0.0540597, -0.0507167, -0.0221443, -0.0659986, 0.102475, -0.0401038, },
	{-0.0189594, -0.000356598, 0.0335111, 0.050623, -0.0833185, 0.0167303, -0.0725057, -0.0399729, 0.10596, 0.00224814, },
	{0.0147399, -0.0204425, 0.0509944, 0.0287514, -0.0760283, 0.0195336, -0.0549803, 0.0336596, 0.0466567, 0.0180609, },
	{0.0198846, -0.011358, 0.0275958, -0.0552949, -0.0682771, -0.00834612, -0.052895, 0.0226256, -0.00376107, 0.0189258, },
	{0.0371894, -0.011845, -0.00175741, -0.0676176, -0.0905469, -0.0836966, -0.0439291, 0.0667572, -0.0108539, -0.0124675, },
	{0.0425531, -0.0237946, 0.0193428, -0.0354782, -0.056675, -0.0162379, -0.056076, 0.0471692, 0.0120665, -0.0263148, },
	{0.0085093, -0.0488483, -0.0438261, -0.0323004, -0.03723, 0.0749972, -0.00898549, -0.119118, 0.0135299, 0.0270711, },
	{0.0138141, -0.0406421, -0.066708, -0.0499722, -0.0564208, 0.058359, -0.0683776, 0.00700346, -0.0078216, -0.0270229, },
	{-0.0300711, -0.0361416, -0.0826789, -0.0259915, -0.0760071, -0.0169862, -0.0241155, 0.0620985, -0.0487752, -0.0311402, },
	{-0.0261108, -0.0326399, 0.00215835, -0.0360206, -0.0458784, -0.0581606, -0.00483699, -0.0331697, 0.103443, -0.0562536, },
	{0.022664, -0.0477809, -0.00976883, -0.0394935, 0.0182822, -0.0454842, -0.00237282, -0.0537885, 0.0674847, -0.0475373, },
	{-0.0200815, -0.0122281, -0.0264634, 0.0390722, -0.00217151, 0.023521, -0.0130694, -0.0630748, 0.0263058, -0.0587407, },
	{-0.0530063, 0.00266696, -0.0322914, 0.0331149, 0.0340905, 0.0361306, -0.030787, -0.0103603, 0.0395648, -0.0508973, },
	{-0.0894318, -0.0437201, -0.00497691, 0.146261, -0.107343, 0.00263113, -0.0777165, 0.0804116, 0.0180839, -0.0155644, },
	{0.00554241, -0.0445207, -0.000991377, 0.0329705, -0.0707538, -0.0566249, -0.0735999, 0.0515932, 0.00151284, 0.0177806, },
	{-0.00170328, -0.0253109, -0.0163565, -0.0489329, -0.0770774, -0.0780875, -0.063608, 0.00928561, 0.00454468, 0.00264137, },
	{-0.00380869, -0.00463304, -0.0202467, -0.0522602, -0.0984364, -0.0699098, -0.023398, 0.0766938, 0.0394463, -0.0492332, },
	{0.0040096, -0.0207935, -0.0124907, -0.0181216, -0.0302693, 0.040662, -0.0225675, -0.00311144, 0.0759141, -0.02597, },
	{-0.0156234, -0.0530346, -0.0273993, -0.0253488, -0.0211961, 0.0478032, -0.0220766, -0.0662193, 0.044857, -0.0110498, },
	{0.0019575, -0.0451188, -0.0643385, -0.0845622, -0.046479, 0.0850883, -0.0547237, 0.0149025, 0.00105973, -0.0509803, },
	{-0.0310259, -0.0397571, -0.105723, -0.0719242, -0.0562239, 0.039367, -0.0322085, 0.0721243, -0.0607207, -0.115717, },
	{-0.0273934, -0.0367491, 0.0114617, -0.0403504, -0.0153393, -0.0473202, 0.00514532, 0.0272715, 0.0130063, -0.0495708, },
	{-0.00404607, -0.0553216, -0.0242413, -0.0461713, 0.0228371, 0.0538967, 0.0253732, -0.0443216, -0.00479006, -0.0528681, },
	{-0.0430999, -0.021658, -0.0103426, -0.00724492, -0.00579318, 0.0692533, -0.0179842, -0.0162278, -0.0397016, -0.0810324, },
	{-0.047645, -0.0351612, -0.0622655, 0.0403628, -0.0187814, -0.0205122, -0.025467, 0.093303, -0.0177282, -0.0621497, },
	{-0.0986134, -0.063961, -0.00106201, 0.164859, -0.140381, -0.0655249, -0.0993182, 0.059605, -0.0125127, 0.00650739, },
	{-0.0181148, -0.0394438, -0.0575041, 0.00281528, -0.0674995, -0.0250569, -0.0273308, -0.0211153, 0.00659838, 0.00436171, },
	{-0.00469349, -0.0253259, -0.047643, -0.0246531, -0.0834594, -0.0105744, -0.0261265, 0.0249048, 0.0314524, -0.0207507, },
	{-0.00311376, -0.00419757, -0.0140003, -0.0523398, -0.0759438, 0.0422216, -0.00663457, 0.0165447, 0.0805091, -0.0332094, },
	{0.00300709, -0.0377513, 0.0129719, -0.0350751, -0.0226393, 0.0680473, -0.0103677, -0.0508422, 0.0804657, -0.0474176, },
	{-0.0511353, -0.0525263, 0.0244761, 0.00642014, -0.0372321, 0.0229339, -0.0331202, -0.0133225, 0.0541518, -0.0704963, },
	{-0.0186562, -0.0470341, -0.011904, -0.0690843, -0.0568775, 0.0281652, -0.0346072, 0.0388613, -0.00463392, -0.101748, },
	{-0.04416, -0.0330338, -0.0722001, -0.0676772, -0.0324372, -0.00883543, -0.0223602, 0.0925094, -0.0524031, -0.0989073, },
	{-0.0422825, -0.0458631, -0.00753633, -0.0703828, -0.0109722, -0.0784893, 0.0107504, 0.0671032, -0.0575142, 0.0201583, },
	{-0.0468613, -0.061344, -0.030772, -0.0509491, -0.019765, 0.0845243, 0.0325045, -0.0836463, -0.0363326, -0.00398965, },
	{-0.0425385, -0.0217471, -0.0159341, -0.0396052, -0.0321151, 0.0132543, 0.00178104, -0.00427423, -0.039774, -0.0482284, },
	{-0.0287073, -0.0482957, -0.072336, 0.0297057, -0.0312385, -0.0118845, -0.0234684, 0.0400108, -0.0339522, -0.028358, },
	{-0.065729, -0.0442644, -0.0240835, 0.0762031, -0.0550581, 0.0138402, -0.102143, -0.0606602, -0.0322438, 0.0386428, },
	{-0.0152205, -0.03571, -0.0586557, 0.0174553, -0.0239352, 0.0102992, -0.0185727, -0.0042731, -0.00236968, -0.00116045, },
	{0.00109508, -0.0220021, -0.0101591, -0.00721607, -0.0614137, -0.00395037, -0.00824828, 0.0317891, 0.0259937, 0.00947593, },
	{0.00628756, 0.00952962, 0.0232097, -0.0453856, -0.0663913, 0.0632308, -0.0220549, -0.0216645, 0.0637527, -0.0379871, },
	{-0.0027325, -0.0253342, -0.0023699, -0.0180709, -0.00536027, 0.105813, -0.0294891, -0.0831875, 0.0524359, -0.0505589, },
	{-0.0494928, -0.0332079, 0.0230778, 0.00776128, 0.004139, 0.0993096, -0.0189785, -0.0714909, 0.0375173, -0.0394533, },
	{-0.0198229, -0.0367486, 0.0206421, -0.0341628, -0.008418, 0.0887789, -0.0377066, -0.00703943, 0.00148836, -0.0775866, },
	{-0.0432628, -0.027336, -0.0472965, -0.0422071, -0.00417539, 0.0862185, -0.0440491, -0.0032444, -0.0180002, -0.0603935, },
	{-0.0481087, -0.043238, -0.020796, -0.0626662, -0.0145563, -0.0638846, 0.000961643, 0.00482718, -0.047054, 0.089252, },
	{-0.0550897, -0.0539775, -0.0303147, -0.0326227, -0.0428925, 0.0699467, 0.0355994, -0.0459473, -0.0302597, -0.0238562, },
	{-0.0531312, -0.0233754, -0.0129429, 0.00945293, -0.0166028, 0.0203717, -0.00406781, 0.0247387, -0.0229974, -0.0527789, },
	{-0.0318227, -0.0610364, -0.0651607, 0.0436857, -0.0177161, -0.00298964, -0.0307624, -0.0183179, -0.0623986, -0.0054391, },
	{-0.0168219, -0.0395001, -0.0249876, 0.0133264, -0.0407074, -0.0548353, -0.0563489, -0.0145724, -0.0701587, 0.0264987, },
	{0.00948437, -0.0404194, -0.0417504, 0.0101103, -0.0421105, -0.0219044, -0.00549705, -0.00530447, -0.0120466, 0.034924, },
	{0.00675189, -0.00915714, -0.00479737, -0.0420754, -0.0453837, 0.0204137, -0.0215389, -0.0101805, 0.0154822, -0.0197101, },
	{-0.0228631, 0.0184392, 0.000308345, -0.0395963, -0.0681526, 0.0860271, -0.0362528, -0.0493306, 0.0401816, -0.0776263, },
	{-0.0111569, -0.0326871, -0.0131312, -0.0121695, -0.0122019, 0.0763905, -0.0345863, -0.054421, 0.0636975, -0.0746809, },
	{-0.0276639, -0.0359961, 0.0173816, -0.0278671, 0.00836887, 0.031036, -0.0211479, 0.00721488, 0.0356139, -0.0597019, },
	{-0.0408634, -0.0333201, 0.0113727, -0.0388546, 0.00131547, 0.0561653, 0.00406707, -0.0259919, 0.000186946, -0.0530888, },
	{-0.0514906, -0.0228239, -0.0171189, -0.0381028, -0.0212844, 0.148217, -0.0357039, -0.100647, -0.0217555, -0.0395105, },
	{-0.0538036, -0.0431988, -0.0242222, -0.0386981, -0.00996661, -0.062142, 0.0155162, -0.0530968, -0.0395632, 0.0950268, },
	{-0.0422492, -0.0517112, -0.0234148, -0.0149303, -0.0243222, 0.042875, 0.00278754, -0.0115366, -0.0266559, -0.0502807, },
	{-0.0332682, -0.0341277, 0.000847217, 0.0146121, 0.011654, -0.00205954, -0.0269956, 0.00130127, -0.0237133, -0.0179909, },
	{0.0134703, -0.0603997, -0.0774062, 0.0363247, -0.0250669, -0.0058676, -0.0338106, -0.0539103, -0.0570474, 0.0268676, },
	{-0.00066344, -0.0234182, -0.0206767, -0.0170719, -0.0742205, -0.0122842, 0.00564346, -0.0487067, -0.0368419, 0.0390298, },
	{0.00806104, -0.0481557, -0.0159544, 0.00250288, -0.0103755, 0.0284103, -0.0256329, -0.0222346, 0.00440444, 0.0157919, },
	{-0.0111907, 0.00576301, -0.0191758, -0.0352226, -0.0297859, 0.0499422, -0.0316502, -0.00749982, 0.00792018, -0.0383898, },
	{-0.0263125, 0.0376076, -0.0232316, -0.0382831, -0.060955, 0.0740883, -0.0355378, -0.000962381, 0.0241389, -0.0732072, },
	{0.00304073, -0.0193094, -0.0150532, 0.00703096, 0.00941186, 0.0617479, -0.0132844, 0.00711218, 0.0504145, -0.0435604, },
	{-0.0287784, -0.0336064, 0.0484471, -0.0176065, -0.0137598, 0.0156377, 0.00355465, 0.0259067, 0.0275064, -0.0279146, },
	{-0.035412, -0.0336644, 0.0266459, -0.0223203, 0.027609, 0.027307, 0.0132863, 0.00204365, 0.0042007, -0.0144315, },
	{-0.0300744, -0.0191473, 0.00394275, -0.0318568, -0.0216539, 0.060482, -0.0346593, -0.00121713, -0.010324, -0.0100767, },
	{-0.0455133, -0.042747, -0.0208329, -0.0258776, -0.0184191, -0.0551416, 0.0069766, -0.0524564, -0.0232723, 0.0866356, },
	{-0.0455643, -0.0471257, 0.00627405, -0.0438957, -0.0463979, 0.014751, -0.00270545, -0.0348619, -0.00158994, -0.0191146, },
	{0.0112761, -0.0324448, 0.0113554, -0.0170142, -0.0193195, 0.0170333, -0.0199108, -0.028777, -0.0113623, -0.00126951, },
	{0.0431203, -0.0502683, -0.0553987, 0.00907081, -0.0682198, 0.020243, -0.0120547, -0.0515868, -0.0294265, 0.0207194, },
	{-0.0167558, -0.0190407, 0.0152319, -0.0235164, -0.0603224, -0.00262463, 0.0246699, -0.0351046, -0.0176587, 0.0262989, },
	{-0.00438076, -0.0360043, -0.00983359, 0.00552795, -0.00592829, 0.0312679, 0.00235389, -0.0259525, 0.00750542, -0.00774587, },
	{-0.01772, 0.00899896, -0.01337, -0.0261681, -0.031222, 0.05018, 0.0002013, -0.0233286, 0.00807628, -0.0355575, },
	{-0.025704, 0.0640201, -0.00567246, -0.0601234, -0.0685402, 0.0331043, 0.00379706, 0.00775983, 0.0187114, -0.0413341, },
	{0.00990834, -0.00915118, -0.0054069, 0.0188826, 0.000953073, -0.00816604, 0.016763, 0.00513915, 0.0395354, -0.00113751, },
	{-0.0123679, -0.0300484, 0.0527417, -0.0204573, -0.0234925, -0.00611526, 0.0110917, 0.00392952, 0.0147108, -0.00701719, },
	{-0.0338394, -0.0299683, 0.0500404, -0.0314716, 0.0122386, -0.00297825, -0.00977803, -0.00945745, -0.00872731, 0.0109521, },
	{-0.0234562, -0.0139831, 0.0230185, -0.0272333, -0.00567032, 0.0171292, -0.0350316, 0.0075607, -0.00118769, 0.0250867, },
	{-0.0324497, -0.0335435, 0.00780622, -0.026488, -0.0120509, -0.00177548, -0.0202599, -0.0235904, 0.0143452, 0.0365113, },
	{-0.0618591, -0.0399411, 0.0344129, -0.0493866, -0.0634025, 0.0216389, 4.76665e-06, -0.0157827, 0.00627181, -0.0191781, },
	{-0.00175233, -0.0288048, 0.0118014, 0.0139676, -0.0669852, 0.0342661, 0.0247136, -0.0290212, 9.12329e-05, 0.00213995, },
	{-0.0123318, -0.0453689, -0.0451109, 0.0607252, -0.0781923, 0.019664, -0.0131984, -0.0584903, 0.00862207, 0.0178578, },
	{-0.0254854, -0.0189032, 0.0241635, 0.0195568, -0.0253464, -0.00566473, -0.00789605, -0.0393007, -0.0129356, -0.00266531, },
	{-0.0158669, -0.0211414, 0.0112523, 0.0343323, -0.00275776, 0.0350075, 0.0199029, -0.0399398, -0.00369317, -0.01523, },
	{-0.014458, 0.012791, -0.00114956, 0.00249356, -0.0223313, 0.0584502, -0.0192937, -0.0254901, -0.000621533, -0.0292785, },
	{-0.0124359, 0.0695464, -0.00609704, -0.0276589, -0.0497497, -0.00755467, -0.00653319, -0.0166127, 0.00509499, -0.0175359, },
	{0.0263679, 0.00144558, -0.000145634, 0.040289, 0.00349486, -0.0267893, 0.0139903, -0.0287422, 0.00936165, 0.00558855, },
	{0.0109657, -0.027536, 0.0375629, -0.0135092, 0.0202278, -0.00654364, -0.0252924, -0.00934954, -0.00132701, -0.00373663, },
	{-0.0310612, -0.0243135, 0.0516676, -0.0366721, 0.0214718, 0.0018354, -0.0171108, -0.0226141, -0.0211881, 0.0162907, },
	{-0.0204871, -0.00840879, 0.0354438, -0.0182888, -0.00187552, 0.0288745, -0.0207358, -0.00952506, -0.0129268, 0.0167275, },
	{-0.0435697, -0.0219968, 0.00303145, -0.0281712, 0.0238134, 0.0450987, -0.0171431, -0.0178083, 0.0208067, 0.0176535, },
	{-0.0584392, -0.0292903, 0.012677, -0.0453582, -0.0791365, 0.0118135, 0.038105, -0.00242126, -0.0158861, -0.0201572, },
	{0.011299, -0.0241881, 0.0508803, 0.0364078, -0.0921373, 0.00994921, 0.00978023, -0.0354761, 0.000350754, -0.00211837, },
	{0.00762069, -0.0496227, -0.0188018, 0.0880256, -0.0453964, -7.83133e-05, -0.0715617, -0.0557417, 0.00855675, -0.0111592, },
	{-0.0236854, -0.0185721, -0.0309696, 0.0425012, -0.0238168, -0.00010639, 0.0093309, -0.0455227, -0.0098065, -0.0348655, },
	{-0.0128865, -0.0234552, -0.00731837, 0.0377667, -0.0235196, 0.0440273, 0.0262328, -0.0457254, -0.0016745, -0.0373808, },
	{0.000970455, 0.0014952, -0.0154782, 0.00493596, -0.022975, 0.0272397, 0.00382526, -0.0288515, 0.004429, -0.0245716, },
	{-0.0130492, 0.0790748, -0.0214317, -0.0343626, -0.0631025, -0.0452128, 0.0340802, -0.0341914, -0.00699803, -0.01764, },
	{0.0222717, 0.0021606, -0.0122041, 0.0429414, -0.0120277, -0.024106, 0.0452184, -0.0364901, -0.0039059, 0.0023664, },
	{0.0143464, -0.0280895, 0.0469258, -0.0141676, 0.0365514, -0.0112711, -0.0437267, -0.0108852, -0.0103605, 0.00708568, },
	{-0.0227273, -0.023161, 0.0714054, -0.0367218, 0.0353992, -0.000142883, -0.0286704, -0.0246039, -0.0435063, 0.0161139, },
	{-0.0196664, -0.00732783, 0.0503995, -0.0121748, 0.0068005, 0.0429367, -0.0177306, -0.00957501, -0.0224304, 0.00599382, },
	{0.00896292, -0.00122587, -0.00825063, -0.00386163, -0.00316553, -0.00305551, 0.0077453, -0.000979992, 0.00191062, -0.00448386, },
	{0.00740532, -0.00817077, -0.00254983, -0.0113418, -0.00904605, -0.010212, 0.0198971, -0.00368466, -0.0197294, -0.00981866, },
	{0.00599621, -0.00983882, -0.00860121, -0.0233498, -0.0359869, -0.0296572, 0.0635543, -0.0131063, -0.0465348, -0.020973, },
	{0.000910083, 0.00773618, 0.0616272, 0.02918, -0.0751192, -0.0503649, -0.00349011, -0.011893, -0.0860007, -0.0364172, },
	{0.0307365, 0.0164668, 0.0804396, -0.0262874, -0.0573005, -0.0750767, -0.0523408, -0.0280995, -0.101771, -0.0573254, },
	{-0.0278155, -0.00488249, -0.0399884, -0.0155292, -0.0497815, -0.095105, 0.0516723, -0.0298831, -0.0839918, -0.0516867, },
	{-0.0528556, -0.0174026, -0.13923, -0.0562603, 0.0475426, -0.103211, 0.0404681, -0.0306606, -0.0549091, -0.0434924, },
	{0.00224909, 0.00923931, 0.0267118, -0.058445, 0.0344426, -0.0786348, -0.0781508, -0.0343677, -0.105531, -0.0411549, },
	{0.0563132, 0.0241689, 0.135559, 0.00996801, -0.0792463, -0.0297014, -0.0969106, -0.0230931, -0.124186, -0.0144427, },
	{0.0662881, -0.00247383, 0.0754215, -0.026767, -0.13094, 0.0192238, -0.00458903, -0.0227777, -0.0887944, 0.0172246, },
	{0.0294464, -0.014542, -0.0196637, -0.0282993, -0.0414301, 0.0447671, 0.00987375, -0.0178815, -0.0440879, 0.0233603, },
	{0.0103736, -0.00726161, -0.0284906, -0.0103659, -0.0122099, 0.0222068, -0.00979318, -0.0017955, 0.0110459, 0.0162498, },
	{0.0187071, -0.00354597, -0.0170686, -0.00750126, -0.00740967, -0.00768589, 0.00434685, -0.00104486, 0.0260099, -0.0113778, },
	{0.0236827, -0.019062, 0.0212379, -0.0220501, -0.0204884, -0.0222672, 0.00456972, -0.00853574, -0.014333, -0.0184851, },
	{0.0030432, -0.0202431, 0.0186833, -3.8207e-05, -0.0273758, -0.0457221, 0.0723586, -0.0151554, -0.0355375, -0.0362117, },
	{-0.00266069, -0.0102266, 0.00331307, 0.0324946, 0.0319434, -0.0602871, 0.0462489, -0.0168075, -0.0337605, -0.0447255, },
	{-0.00154648, 0.0171016, 0.0157304, -0.00683041, 0.0388872, -0.0661404, -0.00950016, -0.0242128, -0.0189577, -0.0508157, },
	{-0.0143971, 0.0121579, -0.0369493, -0.0493714, 0.0597543, -0.0610716, 0.0344714, -0.0263418, -0.0666968, -0.0335338, },
	{-0.019259, 0.00203386, -0.0813496, -0.0582626, 0.0852897, -0.0649739, 0.0213071, -0.0239715, -0.111369, -0.0310194, },
	{-0.0426001, 0.0231558, -0.0220594, -0.0313166, 0.0827972, -0.0544367, -0.0229222, -0.0215889, -0.0615057, -0.0175135, },
	{-0.0175842, 0.0179167, -0.0359838, 0.00587297, 0.0633769, -0.0349485, -0.0186237, -0.0102684, -0.0666452, -0.00660524, },
	{0.00671946, -0.0177165, -0.0023753, 0.0141601, -0.0691017, 0.0168483, 0.0813906, -0.0185706, -0.0852857, 0.0112031, },
	{0.0819998, -0.0354671, 0.0811694, -0.0566047, -0.0921875, 0.0492061, -0.0340841, -0.0334761, -0.0738965, 0.0261694, },
	{0.0397978, -0.015643, -0.0416914, -0.018055, -0.032261, 0.0196902, -0.0442136, -0.0117099, 0.0123259, 0.0308725, },
	{0.0255414, -0.00804084, -0.0303568, -0.00914312, -0.0185432, -0.0162103, -0.00385468, -0.00398541, 0.0490241, -0.0259222, },
	{0.0462769, -0.026666, 0.0305655, -0.0370988, -0.00870942, -0.0379862, -0.0197853, -0.0146354, 0.0141627, -0.031292, },
	{-0.00549845, -0.0209353, 0.0353947, 0.00682368, -0.0256976, -0.068598, 0.0485865, -0.0116222, 0.00932448, -0.0513118, },
	{0.0010609, -0.00784073, 0.0392619, 0.0548298, 0.0105294, -0.0717346, 0.0256289, -0.0202321, 0.0112722, -0.0608049, },
	{0.00795297, -0.00502664, 0.0279258, 0.0473854, 0.062581, -0.0610474, -0.0207023, -0.0257622, -0.015547, -0.0581134, },
	{0.00285583, 0.0124617, -0.0223983, -0.0143469, 0.109739, -0.0309316, -0.016442, -0.0204577, -0.0587278, -0.0406104, },
	{0.00681484, 0.0177574, -0.0454802, -0.0177885, 0.0902852, -0.0374031, -0.0133615, 0.00568244, -0.0939878, -0.0249816, },
	{-0.0348164, 0.0160031, -0.02592, 0.0155859, 0.0667144, -0.0568973, -0.0482577, 0.0348041, -0.0791303, -0.0356151, },
	{0.0218677, 0.00942673, -0.00209216, -0.0309047, 0.0510267, -0.0523681, -0.0509398, 0.0328561, -0.0728881, -0.0182103, },
	{-0.0254734, -0.0230972, -0.0284147, 0.0142184, -0.0119533, 0.00867023, 0.0298064, -0.0238745, -0.0857587, 0.0229461, },
	{0.0538333, -0.0475639, 0.0304052, -0.0638863, -0.0555009, 0.0486094, -0.000484932, -0.0557008, -0.0706694, 0.0406622, },
	{0.0563355, -0.0278846, -0.0372009, -0.03594, -0.0665064, 0.00862051, -0.0713509, -0.0526749, 0.000630701, 0.0681935, },
	{0.0247714, -0.0134827, -0.0330969, -0.00855546, -0.0341057, -0.0278934, -0.0154598, -0.0116158, 0.0769129, -0.0365078, },
	{0.0623399, -0.033213, 0.0190761, -0.0425994, 0.0114267, -0.0508656, -0.042601, -0.022166, 0.0409275, -0.0417217, },
	{0.0237607, -0.0189862, 0.056791, -0.0268458, -0.0550468, -0.0865834, 0.03214, -0.0209323, 0.017211, -0.0610218, },
	{0.0238367, -0.00316327, 0.0725036, 0.00835267, -0.0300961, -0.0815337, 0.0411532, -0.0203435, 0.0231813, -0.0675396, },
	{0.0214579, -0.00314325, 0.055946, 0.032462, 0.0143877, -0.0534846, -0.0249292, -0.0210179, 0.00774959, -0.0589914, },
	{0.00684434, 0.00402512, 0.00535509, 0.0192556, 0.0522635, -0.0158467, -0.000974304, -0.00545902, -0.0475903, -0.0456932, },
	{0.0080644, 0.011501, 0.00862332, 0.00887861, 0.0295379, -0.00745271, -0.0260541, 0.0136226, -0.0905968, -0.0261816, },
	{-0.0106654, 0.00509166, 0.0175502, 0.010207, -0.0260436, -0.0551556, -0.0607829, 0.0350851, -0.0822285, -0.0175517, },
	{0.0291936, 0.0145115, -0.0316203, -0.0658697, -0.00331338, -0.0612506, 0.000550928, 0.0850096, -0.08331, -0.0492161, },
	{0.00123648, -0.0293598, -0.026003, 0.0125866, -0.03447, -0.0136118, -0.0064899, 0.0134781, -0.108842, -0.0116966, },
	{0.0395713, -0.0509528, -0.0020294, -0.069768, -0.0176762, 0.0215724, -0.0129688, -0.0358773, -0.0738726, 0.022165, },
	{0.0268892, -0.0401539, -0.0420083, -0.0530603, -0.0821439, -0.00947928, -0.0589503, -0.054393, -0.00427545, 0.0891736, },
	{-0.00160109, -0.0147407, -0.0247509, -0.00703529, -0.0387499, -0.0354557, 0.000169165, -0.0150912, 0.094588, -0.0409075, },
	{0.0462167, -0.0338593, 0.0259918, -0.0367736, 0.00766364, -0.0463774, -0.0335833, -0.0313754, 0.0679693, -0.0465515, },
	{0.0171027, -0.0241281, 0.0371365, -0.0208919, -0.0218994, -0.0588256, 0.0201716, -0.0326877, 0.0218387, -0.06663, },
	{0.029019, -0.00657735, 0.0542981, -0.0414562, -0.0202408, -0.0578397, 0.0625519, -0.0285923, 0.0372924, -0.0698299, },
	{0.0366367, -0.00385102, 0.0915237, -0.0141504, -0.0243213, -0.0422579, -0.035126, 0.000298967, 0.0185955, -0.0630983, },
	{0.00329361, -0.00184426, 0.0204017, 0.0202205, 0.00113215, -0.0155052, 0.0127008, 0.0166097, -0.0412018, -0.0433255, },
	{-0.0102313, 0.00283149, 0.00666849, 0.0163355, 0.00234099, -0.00041414, 0.00346899, 0.00116427, -0.077497, -0.032366, },
	{-0.0121445, 0.00764656, 0.0285318, -0.00866721, -0.0872589, -0.0634612, -0.0402116, 0.0566957, -0.081408, -0.0336147, },
	{0.0276167, 0.0152269, -0.0209284, -0.116616, -0.024338, -0.0472683, 0.0223887, 0.0563278, -0.0713104, -0.0141665, },
	{-0.00121555, -0.0356078, -0.0283428, 0.00179538, -0.0272893, -0.0145268, -0.0190561, 0.0155717, -0.103807, -0.00582357, },
	{0.0192286, -0.0512036, -0.0428476, -0.0521425, -0.00334774, -0.0172725, -0.00485288, 0.01529, -0.0800466, -0.00908522, },
	{-0.0101263, -0.0482812, -0.0634582, -0.0672356, -0.0735024, -0.0606979, -0.0306673, 0.00964991, -0.0116195, 0.0475401, },
	{-0.0296391, -0.0151684, -0.00388645, -0.00752746, -0.0334769, -0.0373437, 0.00186342, -0.000701869, 0.0991763, -0.0420765, },
	{0.00769038, -0.034599, 0.0392044, -0.013404, -0.0066682, -0.0276118, 0.0117692, -0.0241453, 0.0751078, -0.0542554, },
	{-0.0241132, -0.0272991, 0.0389337, 0.0085819, -0.00723206, -0.0148446, 0.0193383, -0.035443, 0.0288935, -0.0779961, },
	{0.0188233, -0.0136836, 0.0221838, -0.0491726, 0.00450569, -0.0234306, 0.0311578, -0.0107914, 0.0266757, -0.0822599, },
	{0.0263892, -0.0128491, 0.0484905, -0.0196359, -0.026672, -0.0288477, -0.028035, 0.0310347, 0.0245681, -0.0777095, },
	{-0.0168291, -0.0115405, -0.017755, 0.0011358, -0.0038183, -0.029184, 0.0106461, 0.0152412, -0.0130103, -0.0442624, },
	{-0.0101382, -0.00918257, -0.0226819, 0.0025638, -0.00900301, -0.0179227, 0.0125983, 0.000786473, -0.0486076, -0.0335396, },
	{-0.0230684, 0.00420358, 0.001595, 0.0150547, -0.0812896, -0.0372198, -0.033653, 0.0370563, -0.0462518, -0.0528809, },
	{0.0170659, -0.00965001, -0.0607268, -0.0899634, -0.0235804, -0.070165, 0.014701, 0.0508839, -0.0568274, -0.0263594, },
	{-0.0331802, -0.0387974, -0.0251779, -0.012932, 0.0126965, -0.0442414, -0.0117683, 0.0164799, -0.0849795, 0.0123987, },
	{0.0184944, -0.0516315, -0.0216715, -0.0307225, -0.00223993, -0.031632, -0.0140611, 0.0249744, -0.0612563, 0.00989362, },
	{-0.0452534, -0.0485771, -0.0624291, -0.0734096, -0.0650101, -0.111092, -0.0184404, 0.0789606, -0.0169442, 0.0107943, },
	{-0.0380762, -0.0185948, 0.0029728, -0.0218381, -0.0358996, -0.0206635, -0.00910684, -0.00262985, 0.0681012, -0.0367164, },
	{-0.0166299, -0.0374206, 0.0272514, -0.0234108, -0.00141447, 0.0294967, 0.0091625, -0.0493828, 0.0458976, -0.0548307, },
	{-0.0567156, -0.0287923, 0.0279391, -0.0106909, 0.0239813, 0.0376265, 0.027055, -0.0534501, 0.0141404, -0.085901, },
	{-0.00986435, -0.0250095, 0.0185688, -0.0289424, -0.0127346, 0.00177852, 0.0364148, -0.00602254, 0.0213261, -0.0890829, },
	{0.0103357, -0.014202, 0.0339238, -0.0172734, -0.029937, -0.0127164, -0.0251869, -0.00244214, 0.022668, -0.0722139, },
	{-0.0192611, -0.0118343, -0.0340539, 0.00869229, 0.0103199, -0.0164552, -0.0134922, 0.0154394, 0.00557376, -0.0661711, },
	{-0.0156639, -0.0239975, -0.047492, 0.00547476, -0.00858543, 0.00441659, 0.0128578, 0.0137147, -0.0295792, -0.0450157, },
	{-0.0210937, -0.00206209, -0.000927064, 0.0139213, -0.0514457, 0.0175025, -0.0342261, -0.0123102, -0.0397446, -0.0480189, },
	{-0.00583995, -0.0279921, -0.069932, -0.0284481, -0.0309825, -0.0108803, 0.0114778, -0.00627321, -0.0395982, -0.0351745, },
	{-0.0622368, -0.0378546, -0.0307366, -0.0243793, 0.0193425, -0.0528008, 0.00137416, 0.0190323, -0.064524, 0.0056959, },
	{-0.0368977, -0.0515372, -0.0131303, -0.0347691, -0.00233091, -0.0703651, 0.0102958, 0.0568797, -0.0465334, 0.00947527, },
	{-0.0459881, -0.0513663, -0.0576321, -0.0715743, -0.0557907, -0.138904, -0.0229357, 0.11837, -0.0193577, 0.0142057, },
	{-0.046286, -0.023732, 0.00059686, -0.0356731, -0.0461368, -0.0157952, -0.0171728, 0.00259909, 0.0545803, -0.0135295, },
	{-0.0388811, -0.0424416, 0.00576418, -0.0323313, -0.016452, 0.0496306, 0.0341523, -0.0576043, 0.00912712, -0.0516158, },
	{-0.0500258, -0.0311131, 0.0121313, -0.039317, 0.0235533, 0.0470937, 0.0153364, -0.0451882, 0.00581942, -0.0841075, },
	{-0.0170102, -0.0263721, 0.00540156, -0.0220479, -0.0143595, 0.0304299, 0.00515806, -0.0107984, 0.0143627, -0.0937061, },
	{0.0118567, -0.0041917, 0.0034986, -0.0338819, -0.04296, -0.00905354, -0.0235763, 0.0124726, 0.0124085, -0.0821574, },
	{-0.0190527, -0.0213945, -0.0482705, 0.0112664, 0.00300727, -0.00311909, -0.00139935, 0.0206078, 0.00623709, -0.0700037, },
	{-0.00671103, -0.0319657, -0.0651395, 0.00304333, -0.0170222, -0.0282892, 0.021097, 0.0294309, -0.00701698, -0.0456246, },
	{-0.0114956, -0.00566454, -0.0151043, -0.00950386, -0.0472645, 0.00413002, -0.0426976, -0.00438582, -0.0231584, -0.0573082, },
	{-0.0236653, -0.0393405, -0.0762772, -0.0023964, -0.0153026, -0.00594286, -0.0119121, -0.0294518, -0.0351024, -0.0400427, },
	{-0.0477881, -0.0323116, -0.0361794, -0.0503557, 0.0242821, -0.0174378, 0.00220988, -0.0148089, -0.0416403, -0.00266874, },
	{-0.0507273, -0.0488546, -0.0164361, -0.0470396, 0.00550202, -0.0141421, -0.0149659, 0.00277701, -0.0160788, -0.00636703, },
	{-0.0616589, -0.0522979, -0.0579025, -0.0679776, -0.0544263, -0.0596845, -0.0184396, 0.05947, -0.0121535, -0.004779, },
	{-0.0466055, -0.0252494, -0.00959444, -0.0303546, -0.0381819, -0.0179542, -0.0167423, -0.0186202, 0.0409679, 0.0363612, },
	{-0.0370086, -0.0442729, -0.00406392, -0.0224341, -0.0171198, 0.0294961, 0.030363, -0.0394137, 0.00951502, -0.0169551, },
	{-0.0460987, -0.0344319, 0.00161634, -0.0265346, 0.0107641, 0.0336282, 0.0141779, -0.028183, 0.0162434, -0.0553812, },
	{-0.0229995, -0.0355439, -0.0105559, -0.012905, 0.0191935, 0.0407289, -0.0159291, -0.0122051, 0.0218722, -0.0689862, },
	{-0.00770633, 0.00656005, -0.0226377, -0.0200527, -0.0353808, -0.00821222, -0.021215, 0.0254062, 0.0230773, -0.0650621, },
	{-0.0300428, -0.0258699, -0.0707031, 0.0205601, 0.0295003, -0.025212, -0.00147177, 0.0397681, 0.0291656, -0.0423679, },
	{-0.0156017, -0.0476339, -0.0692702, 0.0214031, 0.00625769, -0.0273819, 0.00421044, 0.0164975, 0.0155256, -0.018776, },
	{-0.0132172, -0.00666506, -0.0231205, -0.0145243, -0.04438, -0.0552499, -0.0371186, 0.0225893, 0.0172554, -0.0291312, },
	{-0.0225319, -0.0414607, -0.0743602, 0.0299672, 0.0188767, -0.045332, -0.0325428, 0.0199432, 0.0181098, -0.0397487, },
	{-0.0508095, -0.0309452, -0.0345773, -0.0314495, 0.0238567, -0.0385622, 5.63292e-05, 0.0273849, 0.000810454, -0.0127975, },
	{-0.0648359, -0.045788, -0.00887417, -0.0346209, -0.0031944, -0.0280775, -0.00779319, 0.0110314, 0.0145247, -0.00346673, },
	{-0.0576166, -0.0505573, -0.0590815, -0.0560266, -0.0500189, -0.00678846, -0.00998159, 0.000399113, 0.0155039, 0.00599719, },
	{-0.043338, -0.0261486, 0.00253592, -0.0175316, -0.0348523, -0.00976182, -0.0236142, -0.0190529, 0.0419894, 0.0406703, },
	{-0.0417243, -0.0436753, -0.00878616, -0.0281172, -0.018264, 0.0110559, 0.0437674, -0.0223994, 0.0121838, 0.00655371, },
	{-0.0433687, -0.0399444, 0.00635871, -0.00569597, -0.00031465, 0.00767972, 0.0169425, -0.0127115, 0.0188494, -0.0172512, },
	{-0.0103994, -0.0379861, -0.00961185, 0.00561978, -0.00104797, 0.0165873, -0.0246521, -0.0188145, 0.0323953, -0.0235593, },
	{-0.0201132, 0.00692532, -0.00501312, -0.0134962, -0.0516829, -0.0102564, -0.0175494, -0.011196, 0.0366943, -0.0265949, },
	{-0.0483037, -0.0305789, -0.055582, 0.023782, 0.017854, -0.0276431, 0.00559268, 3.90618e-05, 0.0466376, -0.0157786, },
	{-0.0442043, -0.0516363, -0.0603354, 0.038068, 0.00827459, -0.0439394, 0.0155384, 0.0219026, 0.034245, -0.00992977, },
	{-0.041184, -0.0134236, -0.0111234, 0.00151317, -0.0432717, -0.0708422, -0.0278093, 0.0375838, 0.0342382, -0.0249636, },
	{-0.0139368, -0.0400524, -0.0375833, 0.0313145, -0.00773647, -0.0888102, -0.0184755, 0.0215843, 0.0492565, -0.0131142, },
	{-0.0327503, -0.0283363, -0.0294931, -0.030018, 0.0155467, -0.0714774, 0.0243341, 0.00659681, 0.0306566, 0.0243053, },
	{-0.0722438, -0.0433184, 0.0114473, -0.0223522, -0.0145728, -0.0514282, 0.00365927, -0.00179252, 0.0421758, 0.0352242, },
	{-0.0496425, -0.0472622, -0.0271546, -0.0342501, -0.0486097, 0.00393662, 0.00934556, -0.0539249, 0.0290682, 0.0651908, },
	{-0.0336392, -0.0257524, 0.0148473, -0.0170549, -0.0387677, -0.0107284, -0.0258726, 0.00754925, 0.0410379, 0.0152672, },
	{-0.0413736, -0.0387358, 0.0157531, -0.0429828, -0.0230044, -0.0136795, 0.026928, 0.00777266, 0.0187361, -0.0166428, },
	{-0.0108773, -0.0379176, 0.00340387, -0.0214532, 0.0129518, -0.0109125, -0.00291383, 0.00214733, 0.0139385, -0.0232573, },
	{-0.0105776, -0.0308235, -0.0063955, 0.0115313, 0.00630523, 0.00176082, -0.0420677, -0.0238321, 0.031069, -0.0195029, },
	{-0.00881313, 0.00972332, -0.00633969, -0.0130946, -0.0345062, -0.028469, -0.0603801, -0.0328926, 0.044337, -0.0140941, },
	{-0.0334475, -0.0319512, -0.042301, 0.0234112, 0.0169517, -0.0312168, -0.00937368, -0.0410251, 0.0421717, 0.00461307, },
	{-0.0322693, -0.0573105, -0.0469312, 0.0341203, 0.00561429, -0.0338479, -0.00747454, -0.0186846, 0.0464843, -0.00538428, },
	{-0.0299191, -0.00985464, -0.000299775, 0.021813, -0.0249554, -0.0744671, -0.0489155, 0.0190417, 0.0426293, -0.0306945, },
	{-0.00913161, -0.0347295, -0.000657636, 0.0278588, -0.0149305, -0.117975, -0.0235832, 0.0143304, 0.0496475, -0.019015, },
	{0.00205252, -0.0253739, -0.0263553, -0.0422071, 0.00424205, -0.0820906, 0.0491061, -0.026858, 0.0385073, 0.0334635, },
	{-0.064316, -0.0375556, 0.031751, -0.0430731, 8.03893e-05, -0.0524497, 0.0029208, -0.0207401, 0.0439653, 0.0335418, },
	{-0.0400052, -0.0384923, -0.00197903, -0.0325526, -0.0201217, 0.0142782, -0.00431044, -0.0599342, 0.0237271, 0.0704016, },
	{-0.0301278, -0.0211382, 0.0208349, -0.0143078, -0.0141756, 0.0149536, -0.0270293, -0.015405, 0.0349422, 0.029688, },
	{-0.0517382, -0.0365447, -0.0101869, -0.0345298, -0.0130257, -0.015438, 0.0374934, -0.00242341, 0.005288, 0.00970664, },
	{-0.0264037, -0.0371359, 0.0135961, -0.00509045, -0.00921334, -0.0174625, 0.0168974, -0.00651118, 0.0131295, -0.00132581, },
	{-0.00144088, -0.0360306, 0.0316392, 0.0356258, -0.0418829, -0.00848372, -0.0250807, -0.0343386, 0.0287724, -0.00218913, },
	{-0.0110589, 0.00130267, -0.00460376, 0.0259822, -0.0520845, -0.034995, -0.0500505, -0.0383807, 0.0406778, -0.0174092, },
	{-0.0344456, -0.0307261, -0.0308063, 0.0520144, -0.046837, -0.0488134, 0.0161644, -0.0548389, 0.0426607, 0.00179529, },
	{-0.0208091, -0.077326, -0.0368659, 0.0891286, -0.0345396, -0.0435932, 0.0246582, -0.031914, 0.0578255, -0.00873863, },
	{-0.0309217, -0.0250333, -0.0081391, 0.0530771, -0.0717532, -0.095391, 0.0346944, -0.0185104, 0.0627297, -0.0330284, },
	{-0.0167893, -0.0386873, 0.0069219, 0.0670616, -0.0290928, -0.129818, 0.0204211, -0.022521, 0.0682684, -0.0295196, },
	{0.0109615, -0.0281541, -0.0174043, -0.00157913, -0.0491278, -0.0868295, 0.0789699, -0.0257941, 0.0551037, 0.00587876, },
	{-0.0546597, -0.0345239, 0.0101385, -0.0289545, -0.00124149, -0.0597028, 0.0352388, -0.0125906, 0.0352877, 0.013319, },
	{-0.0433757, -0.0288022, 0.0057509, -0.0261622, 0.0218031, 0.0107633, -0.0104647, -0.0344185, 0.0192303, 0.0359204, },
	{0.00116667, -0.00180614, -0.012628, -0.00315357, -0.006968, -0.00221771, 0.0144725, -0.00166027, -0.000654015, -0.00217169, },
	{0.00121148, -0.0108288, -0.00457918, -0.0145267, -0.0201996, -0.0118613, 0.0270784, -0.0109166, -0.0207514, -0.00800607, },
	{-0.00133237, -0.0190639, 0.0192645, 0.0267601, -0.0324804, -0.0286803, 0.00698919, -0.0171552, -0.057313, -0.0174824, },
	{0.042978, 0.000386787, 0.0642524, -0.0201365, -0.0198935, -0.0564043, -0.0529336, -0.0263152, -0.0691243, -0.0341093, },
	{0.0356461, -0.0398955, 0.0419915, -0.0426072, -0.106201, -0.0965962, -0.0467753, -0.056059, -0.029541, -0.0436459, },
	{-0.01019, -0.107096, -0.0266048, -0.0386369, -0.211782, -0.134604, -0.010038, -0.077775, 0.0387805, -0.0480813, },
	{0.0285359, -0.109538, 0.0534669, -0.0517233, -0.198124, -0.115465, -0.0727226, -0.0860708, 0.0187815, -0.0411191, },
	{0.0993278, -0.0337427, 0.157611, -0.0345568, -0.0662514, -0.0506683, -0.152163, -0.0612759, -0.0234771, -0.0152111, },
	{0.0456823, -0.00999531, 0.0577697, 0.0106625, -0.0472246, 0.0098078, -0.0314755, -0.0306491, -0.0486457, -0.00147779, },
	{0.0127503, -0.0221025, -0.0113301, 0.00723635, -0.022731, 0.0442345, 0.00796472, -0.020423, -0.0320957, 0.00308422, },
	{0.0129717, -0.0119021, -0.0263261, -0.00792327, -0.0075046, 0.0418485, 0.00633324, -0.00983822, -0.00414969, 0.00717869, },
	{0.00193743, -0.00248919, -0.014948, -0.00550091, -0.0027397, 0.0222821, -0.000641112, -0.00306084, 0.00284986, 0.00458508, },
	{-0.00714123, -0.00578349, -0.0263683, -0.011157, -0.0140412, -0.00838878, 0.0301034, -0.0031356, 0.00849958, -0.00435992, },
	{-0.0571504, -0.0255322, -0.0275492, 0.0218909, -0.0215808, -0.0213986, 0.0695386, -0.0115547, -0.010744, -0.014801, },
	{-0.0768992, -0.039536, -0.0415282, 0.104253, 0.01223, -0.0347001, 0.0526484, -0.0171988, -0.0234283, -0.0293111, },
	{-0.00399271, -0.0159443, 0.004947, 0.0504949, 0.0273929, -0.0322877, 0.00938244, -0.0324929, -0.0169072, -0.0277912, },
	{0.0246909, -0.0139153, 0.0540558, -0.0473949, -0.0420823, -0.0317599, 0.0140959, -0.0499788, -0.0298218, -0.0202181, },
	{0.0252413, -0.0411855, 0.0176018, -0.084317, -0.0436565, -0.0271492, 0.0270221, -0.0603845, -0.109752, -0.0135449, },
	{0.0199387, -0.0386854, 0.013944, -0.0643308, -0.025374, -0.00330235, 0.0165213, -0.0686169, -0.0703214, -0.0083719, },
	{0.0397693, -0.0135794, 0.07386, -0.00461747, 0.0284094, 0.0258493, -0.0663427, -0.0458825, -0.00146827, -0.0106843, },
	{0.00975065, -0.028172, 0.0288016, 0.0695332, 0.030148, 0.0616884, -0.0475033, -0.0288862, -0.00991517, -0.0173582, },
	{-0.0161092, -0.0402898, -0.015497, 0.0538767, -0.0358696, 0.090367, 0.0228187, -0.0326189, -0.0304205, -0.00537424, },
	{0.000647889, -0.0247509, -0.0381573, 0.00624777, -0.0270524, 0.0978736, 0.00221932, -0.0236327, -0.0192472, 0.00687147, },
	{0.000972853, -0.00937977, -0.0323471, -0.00474192, -0.0145418, 0.0569811, 0.00255257, -0.00916568, -0.000251715, 0.00828737, },
	{-0.0139107, -0.0141543, -0.0594757, -0.0261621, -0.0190986, -0.0210866, 0.0206795, -0.0114896, 0.0348271, -0.0158039, },
	{-0.051158, -0.0345613, -0.0386136, 0.0170634, -0.0316182, -0.036343, 0.0247296, -0.0215009, 0.0266744, -0.0243698, },
	{-0.0616404, -0.0462778, -0.00985371, 0.131109, -0.00465496, -0.0390375, -0.015502, -0.0281896, 0.010077, -0.0367763, },
	{-0.0190075, -0.0368487, 0.0364, 0.141295, 0.0255027, -0.0293878, -0.0368802, -0.0334634, 0.00924044, -0.0280991, },
	{0.0609768, -0.0177766, 0.0810223, 0.0351234, 0.0332896, -0.0183463, -0.0559217, -0.029344, -0.0223242, -0.0161618, },
	{0.0905128, -0.00822822, 0.0909201, -0.0272914, 0.00553706, 0.00400673, -0.0762, -0.0231001, -0.0687703, -0.0204149, },
	{0.0814425, -0.0121637, 0.0900473, -0.0041111, -0.005417, 0.0187508, -0.0809208, -0.0197448, -0.0576957, -0.0238008, },
	{0.040075, -0.0311173, 0.0653744, 0.0642362, 0.0263173, 0.0293429, -0.0936281, -0.00525588, -0.0354624, -0.0389074, },
	{0.00348798, -0.0477282, -0.00102793, 0.0936839, 0.0321174, 0.0595579, -0.0835284, -0.0254647, -0.0130854, -0.0303815, },
	{-0.0176983, -0.0531439, -0.0256938, 0.0536437, -0.0295148, 0.137823, -0.0193482, -0.0600445, -0.0239416, -0.0159375, },
	{0.0248401, -0.0386521, -0.0442036, -0.0234021, -0.048489, 0.160363, -0.0314357, -0.055727, -0.0288635, -0.0123705, },
	{0.0166029, -0.0169687, -0.0708706, -0.021542, -0.02919, 0.0844083, -0.0137498, -0.032253, -0.00219716, -0.00295732, },
	{0.0825867, -0.0266636, -0.108663, -0.0550457, -0.0323438, -0.0347076, -0.0243464, -0.0270197, 0.0541998, -0.0231434, },
	{0.0836786, -0.0490701, -0.0930098, -0.0419207, -0.0536665, -0.0615957, -0.0399735, -0.0391324, 0.037233, -0.0319696, },
	{0.0309187, -0.0474841, -0.0184764, 0.0462669, -0.0492151, -0.0678104, -0.0307821, -0.0318251, 0.0322784, -0.0454785, },
	{0.0116675, -0.0246324, 0.021941, 0.0964084, -0.0118267, -0.0529804, -0.0164894, -0.0305787, 0.0264269, -0.0387573, },
	{0.0526184, -0.0140002, 0.0520363, 0.0696772, 0.00169856, -0.00714682, -0.00956685, -0.0324215, -0.0178274, -0.0333132, },
	{0.0580392, -0.00765531, 0.083016, 0.0350788, -0.0345958, 0.0568682, -0.0324039, -0.0287569, -0.0632468, -0.0523146, },
	{0.0693744, -0.0158904, 0.106586, 0.0367305, -0.0573711, 0.0749368, -0.0671207, -0.0131907, -0.0613081, -0.0534854, },
	{0.0337147, -0.0191682, 0.0893585, 0.0494246, -0.0367287, 0.0662435, -0.080506, 0.00933728, -0.05651, -0.0469662, },
	{0.00280539, -0.0387435, 0.0172272, 0.0638306, -0.0451402, 0.10482, -0.079104, -0.0281615, -0.0368302, -0.0346738, },
	{0.00720106, -0.0596187, -0.0599869, 0.0316064, -0.0597956, 0.181311, -0.0682968, -0.0861665, -0.0510288, -0.0357045, },
	{0.0949498, -0.0550218, -0.115629, -0.0690327, -0.0654299, 0.188231, -0.0616624, -0.0689988, -0.0570843, -0.0502944, },
	{0.0760378, -0.0328719, -0.122781, -0.0363999, -0.0429888, 0.0998468, -0.0241303, -0.0326714, -0.0272647, -0.0260065, },
	{0.0581144, -0.0300539, -0.136051, -0.0720244, -0.0458316, -0.0584747, 0.0486869, -0.0269435, 0.0352024, -0.0301368, },
	{0.0668983, -0.051047, -0.131578, -0.062515, -0.0636287, -0.0791925, 0.0184574, -0.0356671, 0.00496288, -0.0463016, },
	{0.0555016, -0.0453001, -0.0609165, 0.0141117, -0.0376427, -0.0612503, 0.012758, -0.0335603, 0.0079164, -0.0554291, },
	{0.0634075, -0.018889, 0.0357104, 0.0105659, -0.00762334, 0.00467445, 0.00264888, -0.0368611, 0.0223813, -0.0382698, },
	{0.0567917, -0.0235239, 0.0975588, 0.0156095, -0.0292373, 0.046256, 0.00632323, -0.0245166, -0.00654968, -0.037179, },
	{0.0460912, -0.0215118, 0.103765, 0.0331269, -0.056057, 0.0957026, 0.00885611, -0.0478096, -0.0529701, -0.0574382, },
	{0.0256026, -0.0155127, 0.12297, 0.00475437, -0.0726636, 0.116975, -0.014547, -0.0510307, -0.0639428, -0.0764931, },
	{0.0322415, -0.00685155, 0.121887, -0.02779, -0.0405545, 0.0883295, -0.045895, -0.0203832, -0.0589869, -0.060276, },
	{0.0172713, -0.031407, 0.00727584, 0.026185, -0.0217544, 0.0891676, -0.0703647, -0.03545, -0.0597921, -0.0311185, },
	{0.022598, -0.0613318, -0.103909, 0.045022, -0.057656, 0.0968249, -0.0554232, -0.0443047, -0.100761, -0.0535984, },
	{0.0439457, -0.0570357, -0.174764, -0.0706821, -0.0609848, 0.0882368, 0.00958435, -0.0290662, -0.105993, -0.0640571, },
	{0.0198066, -0.035224, -0.160918, -0.0568611, -0.0415643, 0.0719759, 0.0363073, -0.0254553, -0.0573391, -0.0437259, },
	{0.0194543, -0.0220209, -0.106953, -0.0381721, -0.0296139, -0.0561578, 0.111611, -0.00294696, 0.0275776, -0.0329996, },
	{0.0269102, -0.0415036, -0.0851706, -0.0236567, -0.0463739, -0.0427132, 0.0889828, -0.0188529, 0.0090373, -0.0470908, },
	{0.00389989, -0.049901, -0.0383655, 0.0491138, -0.022547, 0.0104344, 0.0586225, -0.0318544, -0.0107219, -0.0569002, },
	{0.0229214, -0.029822, 0.0238656, 0.00755505, 5.2892e-05, 0.0575113, 0.0156538, -0.0313368, -0.0154759, -0.058749, },
	{0.028704, -0.0148506, 0.0640367, -0.00830042, -0.0303338, 0.0302273, -0.00418661, -0.00805575, -0.0205991, -0.0650711, },
	{0.0326899, -0.00895884, 0.0762252, -0.00481214, -0.0588593, 0.0213241, -0.00047917, -0.0114671, -0.0206554, -0.064899, },
	{0.0323579, 0.00180029, 0.068095, -0.0237885, -0.0577702, 0.0657218, -0.0136431, -0.0418555, -0.0211349, -0.070977, },
	{0.0396836, -0.00693565, 0.0313051, -0.030557, -0.035601, 0.0575693, -0.0213237, -0.0320768, -0.0136782, -0.0531965, },
	{0.000527291, -0.0516219, -0.0452335, 0.0281174, 0.00711535, 0.00493542, -0.0126461, 0.00845673, -0.053145, -0.0300696, },
	{0.0113401, -0.0709862, -0.0959434, 0.0430398, -0.0364099, 0.00913233, -0.00762129, -0.00426772, -0.105803, -0.0285718, },
	{0.0161501, -0.0536259, -0.108758, -0.058477, -0.0565409, 0.144469, 0.0301378, -0.12465, -0.116996, -0.0340208, },
	{-0.0149118, -0.0326385, -0.100511, -0.0503172, -0.0604751, 0.193955, 0.0245115, -0.137066, -0.0482296, -0.0400483, },
	{-0.00153662, -0.0227871, -0.073678, -0.0310782, -0.0253162, -0.024776, 0.0840478, 0.00555285, -0.0140045, -0.0328609, },
	{-0.0247192, -0.0429973, -0.041671, 0.010778, -0.0173118, -0.0295755, 0.0673105, -0.00638486, -0.0252487, -0.0450857, },
	{-0.0370773, -0.0500699, -0.0122623, 0.0684337, -0.0150773, -0.0473344, 0.0434584, 0.00678518, -0.00162087, -0.0632281, },
	{-0.00136244, -0.0320608, 0.0267996, 0.0264452, -0.0110849, -0.0393294, 0.00620286, 0.0128843, 0.00833799, -0.0638152, },
	{0.018787, 0.00104439, 0.0389088, 0.0025688, -0.0291665, -0.0181041, -0.0156993, 0.00714767, 0.0045353, -0.0643869, },
