layer_type::conv
input:
0 0 0 0 0 0 0 0 0 0 0 0 0 0 0 0 0 0 0 0 0 0 0 0 0 0 0 0 
0 0 0 0 0 0 0 0 0 0 0 0 0 0 0 0 0 0 0 0 0 0 0 0 0 0 0 0 
0 0 0 0 0 0 0 0 0 0 0 0 0 0 0 0 0 0 0 0 0 0 0 0 0 0 0 0 
0 0 0 0 0 0 0 0 0 0 0 0 0 0 0 0 0 0 0 0 0 0 0 0 0 0 0 0 
0 0 0 0 0 0 0 0 0 0 0 0 0 0 0 0 0 0 0 0 0 0 0 0 0 0 0 0 
0 0 0 0 0 0 0 0 0 0 0 0 0 0 0 0 0 0 0 0 0 0 0 0 0 0 0 0 
0 0 0 0 0 0 0 0 0 0 0 0 0 0 0 0 0 0 0 0 0 0 0 0 0 0 0 0 
0 0 0 0 0 0 0 0 0 0 0 0 0 0 0 0 0 0 0 0 0 0 0 0 0 0 0 0 
0 0 0 0 0 0 0 0 0 0 0 0 0.00392157 0 0.00392157 0.278431 0.0509804 0.0156863 0 0 0.00392157 0 0 0 0 0 0 0 
0 0 0 0 0 0 0 0 0 0 0 0 0.00392157 0 0.243137 0.0509804 0 0.133333 0 0 0 0 0 0.0156863 0.164706 0.0745098 0 0 
0 0 0 0 0 0 0 0 0 0 0 0 0.00392157 0 0.407843 0.266667 0 0.2 0.145098 0.109804 0.0745098 0.184314 0.282353 0.372549 0.427451 0.231373 0 0 
0 0 0.00392157 0 0 0.00392157 0.00392157 0 0 0.00392157 0.00392157 0 0 0 0 0.580392 0.521569 0.109804 0.164706 0.129412 0.105882 0.368627 0.384314 0.211765 0.380392 0.223529 0 0.0117647 
0.00392157 0 0.00392157 0 0.0156863 0 0 0 0 0 0 0.00392157 0 0.0235294 0 0.105882 0.466667 0.396078 0.0156863 0.294118 0.145098 0.105882 0.317647 0.509804 0.368627 0 0 0.00392157 
0.0117647 0.00392157 0 0 0 0 0.521569 0.615686 0.027451 0.0823529 0.00392157 0 0 0 0 0 0 0.415686 0.568627 0.337255 0.0156863 0.313726 0.486275 0.0980392 0 0 0 0 
0 0 0 0 0.0352941 0.219608 0.564706 0.521569 0.505882 0.6 0.133333 0 0.0117647 0.0117647 0 0.0117647 0 0.0941176 0.407843 0.34902 0.407843 0.427451 0 0 0 0.00392157 0.00392157 0 
0.00392157 0.00392157 0.0117647 0 0.0980392 0.615686 0.666667 0.615686 0.788235 0.8 0.0980392 0 0 0 0 0 0 0.2 0.337255 0.368627 0.360784 0 0 0 0 0 0 0 
0 0 0 0 0 0.145098 0.356863 0 0 0.337255 0 0 0 0.141176 0.360784 0.505882 0.580392 0.258824 0.392157 0.266667 0.384314 0.678431 0.521569 0.478431 0.533333 0.498039 0.439216 0.0823529 
0.0862745 0.105882 0.0745098 0.145098 0.172549 0.32549 0.231373 0.219608 0.176471 0.2 0.639216 0.694118 0.678431 0.784314 0.690196 0.694118 0.737255 0.258824 0.478431 0.34902 0.360784 0.717647 0.682353 0.72549 0.705882 0.694118 0.694118 0.184314 
0.396078 0.921569 0.760784 0.87451 0.909804 1 0.384314 0.294118 0.211765 0.533333 0.333333 0.854902 0.729412 0.729412 0.658824 0.764706 0.694118 0.145098 0.188235 0.0862745 0.301961 0.866667 0.74902 0.717647 0.705882 0.627451 0.729412 0.223529 
0.0156863 0.337255 0.243137 0.211765 0.133333 0.109804 0.372549 0.337255 0.317647 0.384314 0.305882 0.301961 0.32549 0.294118 0.345098 0.345098 0.34902 0.247059 0.294118 0.317647 0.337255 0.345098 0.258824 0.2 0.164706 0.0823529 0.0705882 0 
0 0 0 0 0 0 0 0 0 0 0 0 0 0 0 0 0 0 0 0 0 0 0 0 0 0 0 0 
0 0 0 0 0 0 0 0 0 0 0 0 0 0 0 0 0 0 0 0 0 0 0 0 0 0 0 0 
0 0 0 0 0 0 0 0 0 0 0 0 0 0 0 0 0 0 0 0 0 0 0 0 0 0 0 0 
0 0 0 0 0 0 0 0 0 0 0 0 0 0 0 0 0 0 0 0 0 0 0 0 0 0 0 0 
0 0 0 0 0 0 0 0 0 0 0 0 0 0 0 0 0 0 0 0 0 0 0 0 0 0 0 0 
0 0 0 0 0 0 0 0 0 0 0 0 0 0 0 0 0 0 0 0 0 0 0 0 0 0 0 0 
0 0 0 0 0 0 0 0 0 0 0 0 0 0 0 0 0 0 0 0 0 0 0 0 0 0 0 0 
0 0 0 0 0 0 0 0 0 0 0 0 0 0 0 0 0 0 0 0 0 0 0 0 0 0 0 0 
output:
0 0 0 0 0 0 0 0 0 0 0 0 0 0 0 0 0 0 0 0 0 0 0 0 
0 0 0 0 0 0 0 0 0 0 0 0 0 0 0 0 0 0 0 0 0 0 0 0 
0 0 0 0 0 0 0 0 0 0 0 0 0 0 0 0 0 0 0 0 0 0 0 0 
0 0 0 0 0 0 0 0 0 0 0 0 0 0 0 0 0 0 0 0 0 0 0 0 
0 0 0 0 0 0 0 0 -0.00106919 -0.00151541 -0.000850889 -0.0758523 -0.121008 -0.00690188 0.108918 0.0403165 0.008705 -0.00044728 0.000218302 0.0015757 0.000267031 0 0 0 
0 0 0 0 0 0 0 0 -0.00268911 -0.00280244 -0.0658472 -0.220946 -0.116835 0.173541 0.120036 0.015213 0.054041 0.00642282 0.00184422 -0.00264247 -0.05131 -0.0830885 -0.0133212 0.0713951 
0 0 0 0 0 0 0 0 -0.00446537 -0.00261047 -0.208931 -0.453501 0.00924007 0.361515 0.032149 -0.0479894 0.069252 -0.0160674 -0.0876452 -0.169112 -0.239743 -0.158979 0.162844 0.31231 
0.000218302 0.000506505 -0.00231757 -0.0012971 0.001794 0.000773537 -0.00231757 -0.0012971 -0.0053929 0.00343657 -0.275638 -0.678394 0.0317608 0.185234 0.0827346 0.152072 0.0915865 -0.0975536 -0.284883 -0.280403 -0.179175 0.00825572 0.40825 0.488889 
-0.00194721 -0.00447155 -0.00210901 0.00685997 0.00454664 -0.000327922 -0.00324925 -0.000512007 -0.00680052 -0.000982936 -0.425112 -0.475925 -0.0957559 -0.167328 0.265059 0.337971 0.0916619 -0.17189 -0.285437 -0.259187 -0.278541 0.210922 0.794809 0.53719 
-0.000187752 -0.00464879 -0.137654 -0.36027 -0.214951 0.208476 0.249049 0.057008 0.0296902 0.00251027 -0.595863 -0.250987 0.0674235 -0.204708 0.0434609 -0.0196153 0.0681891 -0.0116228 -0.318695 -0.373957 -0.103248 0.658848 0.971227 0.280193 
-0.0123812 -0.0770188 -0.44543 -0.753103 -0.187414 0.370617 0.201422 0.218937 0.31222 0.0726354 -0.325789 -0.701774 -0.128272 0.256127 -0.0948943 -0.374423 0.0264539 -0.142496 -0.457993 -0.00720462 0.335574 0.695743 0.695173 0.0547114 
-0.0537876 -0.296346 -0.932419 -0.887914 0.149419 0.258997 0.110552 0.679168 0.652578 0.0498215 0.0114286 -0.557277 -0.652648 -0.0788779 0.0259299 -0.41081 0.140915 -0.0585252 -0.303108 0.35971 0.531848 0.507096 0.167663 -0.0684135 
-0.0642041 -0.415285 -1.30898 -0.577901 0.960743 0.283698 0.245471 0.863698 0.450915 -0.209308 -0.17829 -0.346405 -0.626835 -0.805013 -0.361804 0.0445998 0.527693 -0.129795 -0.294882 0.285409 0.148193 0.0520934 0.00858949 0.115997 
-0.121787 -0.632063 -1.3255 -0.319086 0.805897 0.105965 0.611501 0.541445 -0.32985 -0.567042 -0.360351 -0.359654 -0.242532 -0.423585 -0.485557 0.112763 0.378688 -0.100885 -0.132162 0.0412926 -0.021298 -0.0871236 -0.00708561 0.294725 
-0.311776 -1.07373 -0.820562 0.392526 0.480773 -0.333419 0.570997 0.200556 -0.479907 -0.53215 -0.213992 -0.122761 -0.0432656 0.203473 0.239386 0.144418 -0.0699761 -0.196914 -0.385554 -0.119506 0.0697486 -0.0136464 0.0746976 0.511573 
-0.0347501 -0.69416 -0.380936 0.641462 0.228872 -0.711395 0.214745 0.176022 -0.0373388 -0.15415 -0.0782033 -0.0737475 -0.0406566 0.687058 0.394559 -0.0681772 -0.32666 -0.627972 -0.380261 0.336063 0.27976 0.157061 0.235738 0.870912 
0.168908 -0.189953 0.0945603 0.427908 0.160712 -0.467448 -0.414818 -0.125768 0.132511 0.0116422 -0.0126573 -0.256087 -0.272206 0.934895 0.231995 -0.101017 -0.310261 -1.02688 -0.305687 0.407143 0.260868 0.0831894 0.0774348 1.00796 
0.0153321 -0.263144 0.415559 0.148913 0.011402 -0.413641 -0.316432 -0.629364 -0.189084 -0.0378828 0.0460989 -0.205831 -0.103644 0.895572 0.10776 -0.117398 -0.328255 -0.933895 -0.154329 0.184954 0.017109 -0.0276101 -0.167895 0.754627 
-0.0641333 -0.219842 0.0396301 0.19656 0.249009 -0.275629 0.000676036 -0.405287 -0.24724 -0.126821 -0.0698273 -0.177748 -0.0865633 0.461364 0.15342 0.0407639 -0.192957 -0.584694 -0.207683 -0.0349574 -0.0441906 0.0233933 -0.128838 0.317241 
0.0616879 0.0382653 -0.207909 -0.127044 -0.0529351 -0.0842382 -0.0127939 -0.0152646 -0.0470851 -0.0275584 -0.0717096 -0.0632644 -0.0571936 0.0342707 -0.0300616 -0.0637117 -0.0754061 -0.0635448 0.0175741 0.047575 0.0385793 0.0680556 0.0377346 0.0648007 
0 0 0 0 0 0 0 0 0 0 0 0 0 0 0 0 0 0 0 0 0 0 0 0 
0 0 0 0 0 0 0 0 0 0 0 0 0 0 0 0 0 0 0 0 0 0 0 0 
0 0 0 0 0 0 0 0 0 0 0 0 0 0 0 0 0 0 0 0 0 0 0 0 
0 0 0 0 0 0 0 0 0 0 0 0 0 0 0 0 0 0 0 0 0 0 0 0 
0 0 0 0 0 0 0 0 0 0 0 0 0 0 0 0 0 0 0 0 0 0 0 0 
0 0 0 0 0 0 0 0 0 0 0 0 0 0 0 0 0 0 0 0 0 0 0 0 
0 0 0 0 0 0 0 0 0 0 0 0 0 0 0 0 0 0 0 0 0 0 0 0 
0 0 0 0 0 0 0 0 0 0 0 0 0 0 0 0 0 0 0 0 0 0 0 0 
0 0 0 0 0 0 0 0 -0.000259051 0.000384216 0.000154241 -0.017986 0.023003 0.0333248 0.00717908 -0.0919131 -0.0173546 -0.00490354 0.000413292 2.24135e-05 -0.00132194 0 0 0 
0 0 0 0 0 0 0 0 -6.03131e-05 0.000656957 -0.0143691 0.036173 0.0495779 0.0802918 0.0370499 -0.176796 -0.0294999 -0.0556625 0.00108004 0.000277474 -0.0120906 0.0128683 0.024748 0.00350616 
0 0 0 0 0 0 0 0 0.000103989 0.000812903 -0.0117735 0.0580452 0.145595 0.209581 -0.0415755 -0.32521 0.0227672 -0.170543 -0.0398367 -0.0102639 0.0190465 0.0248923 0.0304658 -0.0340509 
0.000413292 -0.000236638 -0.00119677 0.000797508 0.000435706 -0.00155858 -0.00119677 0.000797508 0.00067263 -0.00139098 0.0335571 0.0142108 0.180611 0.6657 -0.041558 -0.572563 0.0260414 -0.249913 -0.0482322 0.0614421 0.140348 0.0466982 0.0595375 0.0328178 
-0.000864811 0.0030717 -0.00194463 0.00144244 -0.00289403 -0.00123492 -0.00227586 0.00109373 0.00249166 -0.00341209 0.0121213 0.00308532 0.242677 0.930162 0.140131 -0.495606 -0.0725425 -0.283413 -0.0299027 0.0149532 0.369963 0.160714 0.0571922 0.0451241 
-0.00362735 0.00429816 -0.0369098 0.0170288 0.106727 0.0639837 -0.165625 -0.196781 -0.00430787 -0.0277571 -0.0335447 -0.0563474 0.264427 0.924114 0.492268 -0.150697 -0.161263 -0.337189 -0.114022 -0.0603484 0.599391 0.245583 -0.00631064 0.0789157 
-0.00988203 -0.00627137 0.00953043 0.125262 0.242873 0.343722 -0.234987 -0.494287 -0.138701 -0.256415 -0.0791226 -0.0797059 -0.0333872 0.537155 1.06115 0.336907 -0.129934 -0.226131 -0.111168 -0.287309 0.590445 0.207846 -0.0865105 0.0444312 
-0.0174314 -0.0190254 0.0986043 0.2906 0.483598 0.727533 -0.189399 -0.766939 -0.329586 -0.729689 -0.127538 -0.0369529 -0.121866 -0.0413655 0.758659 0.855649 0.415248 0.026067 -0.154714 -0.562087 0.308378 0.208013 -0.143362 -0.149043 
-0.00396231 0.0362374 0.112787 0.389527 0.948244 1.20478 -0.092493 -0.5568 -0.255841 -1.30522 -0.227462 0.0227807 0.0101743 -0.0459238 0.0103458 0.416384 0.938781 0.484751 -0.324854 -0.468016 0.0455078 -0.275848 -0.326888 -0.16178 
-0.0150124 0.00389296 0.0342465 0.310066 1.11505 0.924064 -0.101062 0.17662 0.0439626 -1.61743 -0.343085 -0.0188728 0.0756751 0.0454333 -0.131606 -0.211665 0.457443 0.798428 -0.165031 0.093932 -0.0573821 -0.55517 -0.273027 -0.135925 
-0.00915075 -0.213641 -0.122296 0.192377 0.869471 0.0906478 -0.260063 0.69256 0.587535 -1.08733 -0.0914188 -0.0665333 0.184684 0.127994 -0.0274137 -0.378103 -0.434213 0.63118 0.1134 0.601928 0.246413 -0.513744 -0.125006 -0.0817994 
0.39849 -0.176735 -0.0277201 0.0906446 0.607899 -0.274193 -0.478725 0.525445 0.895908 -0.149393 0.302214 -0.0711561 0.298172 0.191999 0.230848 -0.395011 -1.06208 0.533464 -0.0294251 0.872524 0.974577 -0.271668 0.0536131 0.0664712 
0.788915 -0.192882 0.177094 0.138104 0.335862 -0.441106 -0.317408 0.0177933 0.776551 0.418985 0.695131 -0.0103271 0.270089 0.165042 0.474016 -0.167424 -1.14502 0.466072 -0.172908 0.783705 1.34864 -0.102071 0.158413 0.170621 
1.0322 -0.177287 0.26833 0.295101 0.288433 -0.384481 -0.169057 -0.0189302 0.379923 0.200304 0.840897 0.116308 0.239814 0.247165 0.504645 -0.0361448 -0.828067 0.21252 -0.15306 0.568617 1.00432 -0.0486578 0.135195 0.144582 
0.748172 -0.0465678 0.173301 0.154113 0.330771 0.150856 -0.0407159 0.033045 0.244909 -0.0931626 0.41238 0.120392 0.121555 0.236128 0.340307 0.128538 -0.279195 0.0675158 -0.0647912 0.217046 0.42647 0.00111569 0.0657502 0.0878666 
0.203594 0.0161898 0.00629869 -0.0622732 -0.00308586 0.165643 0.0288584 0.0499728 0.0884829 0.0099743 0.0431112 0.0493171 0.0260718 0.0795477 0.067105 0.0482519 -0.0162358 0.0565424 0.0605699 0.0794794 0.0746459 0.0197592 0.0247698 0.0232199 
0 0 0 0 0 0 0 0 0 0 0 0 0 0 0 0 0 0 0 0 0 0 0 0 
0 0 0 0 0 0 0 0 0 0 0 0 0 0 0 0 0 0 0 0 0 0 0 0 
0 0 0 0 0 0 0 0 0 0 0 0 0 0 0 0 0 0 0 0 0 0 0 0 
0 0 0 0 0 0 0 0 0 0 0 0 0 0 0 0 0 0 0 0 0 0 0 0 
0 0 0 0 0 0 0 0 0 0 0 0 0 0 0 0 0 0 0 0 0 0 0 0 
0 0 0 0 0 0 0 0 0 0 0 0 0 0 0 0 0 0 0 0 0 0 0 0 
0 0 0 0 0 0 0 0 0 0 0 0 0 0 0 0 0 0 0 0 0 0 0 0 
0 0 0 0 0 0 0 0 0 0 0 0 0 0 0 0 0 0 0 0 0 0 0 0 
0 0 0 0 0 0 0 0 0.00111972 0.00129648 0.00100368 0.0809044 0.106607 0.0132021 0.0114591 0.00922544 0.00306873 0.00176331 -0.000116042 0.000107958 0.000116706 0 0 0 
0 0 0 0 0 0 0 0 0.00131232 0.00278711 0.0696292 0.110129 0.118098 0.0725605 0.054384 -0.0133669 0.00163169 0.00487333 0.000130128 0.00439657 0.0520678 0.0752628 0.0201913 0.00279625 
0 0 0 0 0 0 0 0 0.00115628 0.00366176 0.127912 0.294482 0.162392 0.0491223 0.0779513 0.00597991 0.0398165 0.0764516 0.146353 0.199118 0.257352 0.2764 0.115961 0.0144384 
-0.000116042 0.00122768 0.00253291 0.00118044 -8.08442e-06 0.00134438 0.00253291 0.00118044 0.000838805 0.00430541 0.00974571 0.440033 0.572825 0.0374859 -0.186084 -0.137785 0.0325181 0.134229 0.314283 0.304895 0.339497 0.410687 0.161177 -0.0634772 
0.00460966 0.00540419 0.00118943 0.00205258 0.00051465 -3.60338e-05 0.00153689 0.00274047 0.00385031 0.00820501 0.040424 0.377475 0.340483 -0.018904 -0.4255 -0.293616 -0.0428501 -0.079779 0.239411 0.406562 0.376815 0.266521 -0.111676 -0.420982 
0.00087472 0.00460317 0.149164 0.348436 0.193792 0.0264842 0.0598722 0.0186679 0.00554544 0.00271225 0.204364 0.185878 0.0393135 -0.250008 -0.5221 -0.279632 -0.237514 -0.306852 0.184068 0.286911 0.0838342 -0.311054 -0.874853 -1.22027 
0.00641342 0.0733621 0.255417 0.554015 0.551274 0.362728 0.251855 0.036678 0.025825 0.0163313 0.199117 0.159711 0.151458 -0.193821 -0.887512 -0.971023 -0.554569 -0.272872 -0.0494877 -0.111623 -0.548351 -1.17292 -1.63163 -1.65317 
0.0228885 0.233307 0.472043 0.701307 0.73773 0.506727 0.23134 -0.0607191 -0.0194413 -0.0160675 0.00492476 0.285354 0.256903 0.00222438 -0.458113 -1.137 -0.946312 -0.51099 -0.450729 -0.49543 -0.60071 -1.37386 -1.74964 -1.42055 
-0.00781839 0.0978486 0.541254 0.832361 0.326936 -0.452185 -0.814848 -0.85375 -0.452769 -0.215811 0.107354 0.291878 0.501586 0.3889 0.255001 0.104738 -0.834637 -1.05182 -0.553732 -0.373778 -0.628015 -1.18143 -1.07399 -0.664012 
0.0871781 0.208252 0.794322 0.754072 -0.444518 -1.37409 -1.76393 -1.68616 -1.19543 -0.467903 0.409385 0.595799 0.674524 0.770532 0.685724 0.571592 -0.325632 -0.783618 -0.772726 -0.859565 -0.701876 -0.443013 0.142051 0.376795 
0.649872 0.935753 1.18769 0.532849 -0.588492 -1.4305 -1.89428 -2.10012 -1.81385 -0.739695 0.569409 0.781214 0.745756 0.562514 0.30318 0.247524 -0.124984 -0.554487 -0.958158 -0.905628 -0.53871 0.101903 0.502101 0.358592 
0.480687 0.71398 0.805677 0.241348 -0.740099 -1.38687 -1.37223 -1.31089 -1.23671 -0.701658 0.289885 0.395342 0.273885 -0.0957707 -0.866951 -0.915143 -0.88088 -0.896328 -0.631242 -0.789686 -0.977107 -0.863372 -0.794224 -0.893777 
-0.30148 -0.30928 -0.19737 -0.722782 -1.0249 -0.944267 -0.568098 -0.149651 -0.38174 -0.845382 -0.985848 -1.19691 -1.38847 -1.98757 -2.4863 -2.37769 -1.64723 -0.864023 -0.823773 -1.10902 -1.96657 -2.48497 -2.3791 -2.59972 
-1.18001 -1.47161 -1.64792 -2.1362 -2.25032 -1.75445 -0.730354 -0.689133 -0.85501 -1.51825 -2.32381 -2.69538 -2.55738 -2.91506 -2.94746 -2.72571 -1.76609 -0.654509 -0.618686 -1.0363 -2.10274 -2.74293 -2.59648 -2.81634 
-1.50443 -2.03047 -2.13225 -1.99905 -1.91168 -1.46893 -1.14985 -0.846423 -1.1633 -1.41368 -1.62807 -1.89112 -1.81426 -2.08221 -2.04046 -1.85795 -1.10904 -0.36753 -0.647149 -1.05206 -1.72015 -2.05892 -1.75612 -1.85352 
-0.38373 -0.561967 -0.294059 -0.256011 -0.271312 -0.434521 -0.672538 -0.637125 -0.637026 -0.643065 -0.550811 -0.565994 -0.576384 -0.643295 -0.64688 -0.608992 -0.535641 -0.4984 -0.609671 -0.661443 -0.657298 -0.597107 -0.446576 -0.363833 
0 0 0 0 0 0 0 0 0 0 0 0 0 0 0 0 0 0 0 0 0 0 0 0 
0 0 0 0 0 0 0 0 0 0 0 0 0 0 0 0 0 0 0 0 0 0 0 0 
0 0 0 0 0 0 0 0 0 0 0 0 0 0 0 0 0 0 0 0 0 0 0 0 
0 0 0 0 0 0 0 0 0 0 0 0 0 0 0 0 0 0 0 0 0 0 0 0 
0 0 0 0 0 0 0 0 0 0 0 0 0 0 0 0 0 0 0 0 0 0 0 0 
0 0 0 0 0 0 0 0 0 0 0 0 0 0 0 0 0 0 0 0 0 0 0 0 
0 0 0 0 0 0 0 0 0 0 0 0 0 0 0 0 0 0 0 0 0 0 0 0 
0 0 0 0 0 0 0 0 0 0 0 0 0 0 0 0 0 0 0 0 0 0 0 0 
0 0 0 0 0 0 0 0 3.47933e-05 -0.000182435 3.45223e-05 0.00404943 -0.0113547 -0.000490171 0.125482 0.104271 0.0219802 0.00440193 -2.70935e-07 0.00176154 0.00114609 0 0 0 
0 0 0 0 0 0 0 0 -1.69339e-06 -2.0196e-05 0.00275857 -0.00945092 0.0112674 0.159741 0.244815 0.103127 0.0789048 0.0424373 0.000638145 0.00221366 0.00155857 -0.00700227 0.00356853 0.078564 
0 0 0 0 0 0 0 0 -6.04937e-05 -0.000390414 0.00276731 -0.00533551 0.00570481 0.377044 0.494899 0.189432 0.174661 0.152374 0.086486 0.0579675 0.0908357 0.171512 0.277255 0.403432 
-2.70935e-07 0.00179634 0.00099845 -0.000182706 0.00176127 0.00294243 0.00099845 -0.000182706 0.00173383 0.00347455 -0.00357615 0.00403666 0.157748 0.483617 0.438045 0.320488 0.369488 0.256831 0.199508 0.168052 0.354012 0.515684 0.570256 0.694469 
0.00192314 0.0030698 0.00209775 0.00784655 0.007297 0.00286499 0.000952744 0.000835177 0.00245169 0.00346695 5.96005e-05 -0.00622904 0.162326 0.201914 0.197829 0.459735 0.52265 0.28402 0.352741 0.366988 0.501684 0.765232 0.990465 0.908533 
0.00735092 0.00620701 0.00828736 -0.0100416 -0.0218986 0.236743 0.425474 0.192504 0.0483855 0.0300815 0.00626118 0.0706059 0.0288433 -0.241185 -0.0256642 0.555582 0.524243 0.391641 0.495627 0.382835 0.621764 0.838804 0.572188 0.0717732 
0.00735469 0.000267487 -0.00784139 0.0215851 0.201404 0.67162 0.814263 0.533244 0.466321 0.250165 0.0262059 0.00500807 -0.0280449 -0.222865 -0.542069 -0.414549 0.0858169 0.332445 0.443967 0.374003 0.235908 -0.100262 -0.341002 -0.708877 
0.00531417 0.00500074 -0.0188905 0.0239955 0.552296 1.33355 1.40103 1.15395 1.0872 0.487265 0.0594065 0.00132339 0.00838814 -0.109359 -0.612431 -1.12766 -0.49438 0.528293 0.505702 0.202505 0.178464 -0.281064 -0.85667 -1.11191 
-0.0115283 -0.0064306 0.0123567 0.263544 1.00768 1.1984 0.565371 0.794112 1.18678 0.449414 0.0362428 -0.0171349 0.019782 0.113814 0.13791 -0.0150872 -0.171511 -0.067328 0.0492145 0.424249 0.466896 -0.49785 -0.90062 -0.472429 
0.0588505 0.0548249 0.08348 0.417759 0.741529 0.112465 -0.532145 -0.0270709 0.259584 0.0556727 0.40057 0.512989 0.662502 0.816659 0.929272 0.928307 0.358671 -0.185563 -0.0990461 0.192333 0.0432371 -0.0332047 0.469852 0.899977 
0.587721 0.681332 0.811191 0.97751 0.641713 -0.362999 -1.04457 -1.21829 -1.16458 -0.362264 0.890662 1.1814 1.28901 1.43143 1.6613 1.65819 0.798615 0.0787263 -0.441555 -0.340528 0.602273 1.34365 1.62938 1.63506 
0.936328 1.0177 1.04421 0.898784 0.241888 -0.764414 -0.883536 -0.821697 -0.714052 0.201958 1.43124 1.67986 1.71012 1.51946 1.32076 0.843252 0.150098 -0.102893 -0.211727 0.250376 0.861239 1.1048 1.16156 1.08769 
0.874386 0.928088 0.94243 0.940585 0.563661 0.0511894 0.101676 0.404626 0.488661 0.339129 0.545276 0.502015 0.170971 -0.207342 -0.472163 -0.823618 -0.779627 -0.520806 -0.60792 -0.275945 -0.412719 -0.742242 -0.69006 -0.791221 
-0.250186 -0.50352 -0.533743 -0.945883 -1.31429 -1.00977 -0.402372 -0.198469 -0.381401 -0.859112 -1.42856 -1.8025 -1.77396 -1.69842 -1.75056 -1.83755 -1.26252 -0.639035 -0.489924 -0.384707 -1.16931 -1.84998 -1.82672 -1.86178 
-1.54612 -2.07996 -1.9962 -2.04509 -1.79121 -1.39218 -0.919528 -0.858621 -1.05846 -1.3389 -1.54868 -1.87758 -1.73218 -1.69679 -1.75653 -1.59784 -0.986976 -0.487914 -0.550837 -0.912419 -1.62491 -1.965 -1.77563 -1.67131 
-0.419919 -0.588417 -0.457456 -0.352559 -0.361635 -0.572772 -0.751358 -0.727396 -0.744055 -0.725437 -0.665792 -0.673262 -0.682878 -0.701525 -0.745348 -0.712368 -0.639629 -0.607065 -0.673496 -0.711781 -0.70199 -0.604867 -0.464215 -0.35035 
0 0 0 0 0 0 0 0 0 0 0 0 0 0 0 0 0 0 0 0 0 0 0 0 
0 0 0 0 0 0 0 0 0 0 0 0 0 0 0 0 0 0 0 0 0 0 0 0 
0 0 0 0 0 0 0 0 0 0 0 0 0 0 0 0 0 0 0 0 0 0 0 0 
0 0 0 0 0 0 0 0 0 0 0 0 0 0 0 0 0 0 0 0 0 0 0 0 
0 0 0 0 0 0 0 0 0 0 0 0 0 0 0 0 0 0 0 0 0 0 0 0 
0 0 0 0 0 0 0 0 0 0 0 0 0 0 0 0 0 0 0 0 0 0 0 0 
0 0 0 0 0 0 0 0 0 0 0 0 0 0 0 0 0 0 0 0 0 0 0 0 
0 0 0 0 0 0 0 0 0 0 0 0 0 0 0 0 0 0 0 0 0 0 0 0 
0 0 0 0 0 0 0 0 9.20777e-05 0.000515808 -0.000742594 0.00691582 0.0367494 -0.0523254 -0.0187857 -0.0218359 -0.00351746 -0.000425583 -0.000834672 -0.000137505 -0.000235348 0 0 0 
0 0 0 0 0 0 0 0 0.00012752 0.00147537 0.00437655 0.0366849 0.0224667 -0.0413052 0.00977819 -0.053425 -0.00800082 -0.00828483 -0.000533031 0.000537629 0.00561985 0.0200747 -0.0258059 -0.0225754 
0 0 0 0 0 0 0 0 6.62144e-05 0.00316138 0.00912326 0.116904 0.0445937 -0.126942 -0.0206668 -0.0854719 -0.0204666 -0.0361867 0.00123458 -0.00272492 -0.00691008 0.000243094 -0.0940329 -0.0908505 
-0.000834672 -4.54276e-05 0.000372538 -0.000318864 -0.000972177 -0.000280775 0.000372538 -0.000318864 -0.00201858 0.00500279 -0.00346527 0.149234 0.224416 -0.1002 -0.0712095 -0.105682 -0.0461652 -0.0269552 0.0509819 0.00680579 -0.0012848 0.0930105 -0.110356 -0.153486 
-0.00123474 0.00213049 -0.00288967 -0.000123488 -0.0013051 -0.000105882 0.000684363 0.000518611 -0.00462863 0.00437939 -0.0701354 0.0672529 0.154488 0.0515587 0.136031 -0.0884918 -0.0583819 -0.0785016 0.0868097 0.090402 0.0204032 0.0996979 -0.179606 -0.22923 
-0.00276666 0.00339059 0.0111839 0.0842007 -0.0321691 -0.144413 -0.0464279 -0.0544242 -0.0106711 -0.00284802 -0.328233 0.178949 0.560101 -0.0303161 0.0628859 0.0546843 -0.0367017 -0.168924 0.163375 0.124111 -0.144749 0.142581 0.0404698 -0.13413 
-0.00198493 0.0144368 0.0360657 0.172839 0.0287038 -0.118405 -0.0742303 -0.214698 -0.08146 -0.0467312 -0.38189 -0.373601 0.552855 0.465294 0.015787 0.0291336 0.150436 -0.255267 -0.091572 -0.0418127 -0.176544 0.162481 0.231872 0.0861099 
-0.00346531 0.0444465 0.116673 0.297539 0.0973844 -0.230272 -0.123853 -0.353447 -0.132609 -0.101296 0.000771492 -0.577876 -0.482703 0.472695 0.67731 0.130459 0.138952 -0.338527 -0.311853 0.120298 -0.0132534 0.0800774 0.168747 0.1508 
-0.0138553 0.0471846 0.117514 0.473927 0.402529 -0.0471478 0.107869 -0.364057 -0.183813 -0.137071 0.0154185 -0.0623745 -0.424335 -0.427198 0.400463 0.439822 0.106821 -0.0107555 -0.163062 -0.350612 -0.280493 0.208977 0.220364 -0.00387365 
-0.0151919 -0.0092043 -0.225379 -0.198606 0.384196 0.434214 0.48771 -0.227049 -0.226547 -0.14086 -0.043878 -0.0570817 -0.0131791 -0.456274 -0.652748 0.222489 0.392362 0.119484 -0.166208 -0.0186691 0.234699 0.0886083 -0.0279435 -0.0859685 
-0.117089 -0.403818 -0.25875 -0.193816 -0.212211 -0.0405251 0.883943 0.325382 0.19614 0.0213015 0.0662246 0.0156636 0.058385 -0.162862 -0.709377 -0.123186 -0.167075 0.179372 0.561833 0.224793 0.056899 -0.058629 -0.0969827 -0.0884236 
0.0309014 -0.576618 -0.365104 -0.0116472 -0.332672 -0.446155 0.830679 0.6854 0.375663 0.0336487 0.0737554 0.0443451 0.146945 0.0452762 -0.685905 -0.100783 -0.212822 0.338101 0.805008 0.243757 0.151298 0.125857 0.105923 0.215663 
0.0986135 -0.146671 -0.161284 -0.0365708 0.165079 -0.277444 0.145729 0.357889 0.508128 0.0293867 -0.0713517 -0.218118 -0.0802137 0.476541 -0.249856 0.167309 0.000183966 -0.292043 0.396507 0.257427 0.125754 0.113311 0.13261 0.67723 
0.111848 -0.00234859 0.344847 0.154603 0.0812158 -0.0331644 -0.1823 -0.532495 0.117834 0.0309277 0.103998 0.136002 0.138717 0.682679 -0.00484486 0.0536194 0.0120566 -0.400169 0.0813851 0.0311459 0.0239894 0.134037 0.0318258 0.744039 
-0.139362 -0.173008 0.364999 0.653194 0.361753 -0.146048 0.0576411 -0.356413 -0.261781 0.0355127 0.061221 0.00456759 0.0341431 0.613916 0.410602 0.244346 -0.0151254 -0.610512 -0.314456 -0.0106859 0.00938504 0.0962648 -0.0739481 0.386199 
0.0795948 0.0836175 -0.220008 -0.187599 -0.0387668 -0.0841007 -0.00244361 0.0243843 -0.0318307 -0.00968695 -0.0538174 -0.0624663 -0.041771 0.0605334 0.0115411 -0.0607211 -0.066696 -0.0588519 0.0405993 0.0963584 0.0795223 0.109132 0.0783411 0.0898556 
0 0 0 0 0 0 0 0 0 0 0 0 0 0 0 0 0 0 0 0 0 0 0 0 
0 0 0 0 0 0 0 0 0 0 0 0 0 0 0 0 0 0 0 0 0 0 0 0 
0 0 0 0 0 0 0 0 0 0 0 0 0 0 0 0 0 0 0 0 0 0 0 0 
0 0 0 0 0 0 0 0 0 0 0 0 0 0 0 0 0 0 0 0 0 0 0 0 
0 0 0 0 0 0 0 0 0 0 0 0 0 0 0 0 0 0 0 0 0 0 0 0 
0 0 0 0 0 0 0 0 0 0 0 0 0 0 0 0 0 0 0 0 0 0 0 0 
0 0 0 0 0 0 0 0 0 0 0 0 0 0 0 0 0 0 0 0 0 0 0 0 
0 0 0 0 0 0 0 0 0 0 0 0 0 0 0 0 0 0 0 0 0 0 0 0 
0 0 0 0 0 0 0 0 -0.00214307 -0.00378749 -0.00591472 -0.157929 -0.300506 -0.32758 -0.204969 -0.0382349 -0.00959411 -0.00363895 -0.00377165 -0.00198345 3.71341e-05 0 0 0 
0 0 0 0 0 0 0 0 -0.00389217 -0.0072607 -0.141747 -0.393899 -0.555095 -0.536846 -0.320732 -0.116225 -0.0671636 0.000346223 -0.00335572 -0.0101441 -0.10452 -0.214879 -0.238305 -0.154818 
0 0 0 0 0 0 0 0 -0.00394611 -0.00693761 -0.338454 -0.784647 -0.879159 -0.764853 -0.491039 -0.431347 -0.42902 -0.3242 -0.458085 -0.697081 -1.04395 -1.23118 -1.03354 -0.562412 
-0.00377165 -0.00412651 -0.00589342 -0.00755914 -0.00575509 -0.00408938 -0.00589342 -0.00755914 -0.00631493 -0.00226058 -0.184368 -0.686943 -1.20071 -1.3469 -1.05674 -0.803658 -0.706203 -0.742381 -1.10216 -1.4785 -1.79165 -1.75504 -1.35043 -0.710871 
-0.0156625 -0.0204543 -0.0196326 -0.0147627 -0.00477898 -0.00268168 -0.0045831 -0.008972 -0.0061609 -0.0113624 0.0544953 -0.0154573 -0.634491 -1.35389 -1.38735 -1.08432 -0.783637 -0.824111 -1.12649 -1.47645 -1.75475 -1.47643 -0.87396 -0.28125 
-0.0115338 -0.015362 -0.29666 -0.84611 -1.10854 -0.926516 -0.413392 -0.092421 -0.0458586 -0.00817501 0.198099 0.51295 0.435462 -0.33557 -1.07769 -1.20973 -1.08216 -0.883579 -0.812003 -0.861715 -0.811516 -0.125426 0.449808 0.459138 
-0.0153165 -0.149402 -0.781377 -1.78982 -2.43006 -2.3952 -1.65246 -0.935662 -0.459232 -0.0627893 0.126729 0.569615 1.06476 0.941988 -0.0515998 -0.891378 -1.19485 -1.13794 -0.699613 -0.0799165 0.587471 1.21167 1.16403 0.58938 
-0.0684278 -0.550796 -1.52123 -2.51098 -3.16676 -3.44871 -2.88368 -1.85838 -0.753993 0.0150635 0.0203592 0.233708 0.851341 1.23362 0.636486 -0.533253 -1.19082 -1.03098 -0.317189 0.653009 1.29541 1.39725 0.981065 0.392234 
-0.0444935 -0.431542 -1.07367 -1.29784 -1.22057 -1.31616 -1.29097 -0.969414 -0.272394 0.184807 -0.266943 -0.707974 -0.972766 -0.757713 -0.463744 -0.415927 -0.770388 -0.977484 -0.753015 -0.480806 -0.164659 -0.448297 -1.11205 -1.29325 
-0.350702 -0.490598 -0.376113 0.242758 0.928794 1.08102 0.337215 -0.674536 -1.27054 -1.74854 -2.35501 -2.78613 -3.18466 -2.86401 -1.8761 -0.75098 -0.397162 -1.04835 -1.58267 -2.13038 -2.65531 -3.17863 -3.41154 -2.7987 
-2.77924 -2.70425 -1.9408 -0.593364 0.593482 1.21235 0.709968 -0.98154 -2.78369 -3.73957 -3.94781 -3.82889 -3.80158 -3.12788 -1.94231 -0.522094 0.215992 -0.506682 -1.73019 -3.163 -3.85494 -3.70603 -3.56903 -3.06465 
-2.74281 -2.29271 -1.56423 -0.662317 -0.193767 -0.108713 -0.391681 -1.24407 -2.33636 -2.65536 -2.37037 -1.90793 -1.62528 -1.08908 -0.448209 0.258749 0.471984 -0.24445 -0.834341 -1.3871 -1.31726 -0.749914 -0.629736 -0.435552 
-0.132132 0.344924 0.603289 0.618334 0.285092 -0.00468493 0.0744277 0.461639 0.688933 0.926702 1.28952 1.70433 1.94854 1.86969 1.42891 1.06146 0.876721 0.914243 1.43847 1.86616 2.07576 2.3182 2.41676 2.19559 
2.13499 2.49217 2.49311 2.14671 1.54053 1.22368 1.41457 1.98768 2.63503 3.0452 2.97819 3.0027 2.95503 2.60741 1.96204 1.34216 1.14711 1.50452 2.21486 2.87439 3.04447 2.9533 2.85101 2.48032 
2.03201 1.94087 1.8605 1.51475 1.12206 1.07554 1.40672 1.65379 1.90284 2.04655 2.04908 1.88859 1.9642 1.76742 1.29351 0.832018 0.833597 1.31882 1.85353 2.1421 1.9272 1.56876 1.4381 1.1776 
0.419353 0.225066 0.265787 0.439952 0.610862 0.632855 0.564266 0.556827 0.520316 0.49627 0.528158 0.54953 0.57637 0.559113 0.484674 0.457791 0.502489 0.571856 0.551256 0.465124 0.341638 0.231221 0.155666 0.0762008 
0 0 0 0 0 0 0 0 0 0 0 0 0 0 0 0 0 0 0 0 0 0 0 0 
0 0 0 0 0 0 0 0 0 0 0 0 0 0 0 0 0 0 0 0 0 0 0 0 
0 0 0 0 0 0 0 0 0 0 0 0 0 0 0 0 0 0 0 0 0 0 0 0 
0 0 0 0 0 0 0 0 0 0 0 0 0 0 0 0 0 0 0 0 0 0 0 0 
0 0 0 0 0 0 0 0 0 0 0 0 0 0 0 0 0 0 0 0 0 0 0 0 
0 0 0 0 0 0 0 0 0 0 0 0 0 0 0 0 0 0 0 0 0 0 0 0 
0 0 0 0 0 0 0 0 0 0 0 0 0 0 0 0 0 0 0 0 0 0 0 0 
0 0 0 0 0 0 0 0 0 0 0 0 0 0 0 0 0 0 0 0 0 0 0 0 
0 0 0 0 0 0 0 0 -0.000128455 0.000647123 0.000313954 -0.00842346 0.0446827 0.0393595 0.0118333 -0.000109513 -0.000392016 0.000504853 0.000442408 4.97045e-05 -3.55677e-05 0 0 0 
0 0 0 0 0 0 0 0 -0.000627643 0.00128893 -0.00731467 0.00378296 0.0753604 0.061042 0.0377899 0.00204131 -0.00148928 -0.00149316 0.000706304 -0.00043172 -0.00303802 0.0265082 0.0310753 0.0103511 
0 0 0 0 0 0 0 0 -0.00137461 0.00124098 -0.0433684 0.0390903 0.129145 0.0608188 0.0553363 0.054477 0.0352259 0.0101115 0.0301864 0.0533066 0.0624295 0.12719 0.130751 0.0440832 
0.000442408 -7.87502e-05 0.000483101 0.00108953 0.000492113 -0.000114318 0.000483101 0.00108953 -0.00147662 0.000924965 -0.0963514 -0.0502615 0.241059 0.270532 0.0377553 -0.0348918 0.0534321 0.00920021 0.0631009 0.121674 0.093243 0.169454 0.207397 0.0731872 
0.000599326 0.00222111 0.00164527 0.00154693 0.000646132 -0.000648508 -8.8796e-05 0.00121966 -0.000559695 0.000278095 -0.11718 -0.159103 0.198583 0.238968 -0.0183339 -0.0668806 0.0185535 -0.0430542 0.00376414 0.0889865 0.0919574 0.191503 0.254492 0.0625334 
-0.00104004 0.00203881 -0.0154463 0.0667193 0.159325 0.0771654 0.0186755 0.00469319 0.0013416 -0.00217108 -0.102414 -0.115037 0.0334639 -0.0376107 -0.0649189 0.0946411 0.0834385 -0.128408 -0.107836 0.0661986 0.122272 0.163538 0.102454 -0.196756 
-0.00298909 -0.00298101 -0.0447013 0.110706 0.326983 0.240668 0.151209 0.0720472 0.018661 -0.012689 -0.0543791 -0.109624 -0.0840578 -0.0691994 -0.143726 -0.189321 -0.0272667 -0.126326 -0.15478 0.0329238 -0.0444981 -0.217887 -0.222037 -0.396311 
-0.00959512 -0.02766 -0.0359699 0.10135 0.334162 0.363135 0.375373 0.207737 0.0212693 -0.0475492 -0.00525859 -0.0897302 -0.0776595 -0.0240837 -0.161653 -0.383103 -0.247685 -0.0347708 -0.107494 -0.162543 -0.126329 -0.16765 -0.297249 -0.503624 
-0.0262856 -0.110551 -0.157229 0.0669188 0.375577 0.195073 0.0227651 0.0299119 -0.00904123 -0.111607 0.00145054 0.0441439 0.0481363 0.0291612 -0.0321358 -0.0418918 -0.0454972 -0.185136 -0.253229 -0.016632 0.156066 -0.164438 -0.40465 -0.272194 
-0.00278875 -0.141682 -0.220158 0.120367 0.281388 -0.319957 -0.420374 -0.0552975 -0.116892 -0.202647 0.107858 0.202106 0.243065 0.233643 0.0382528 0.155801 0.101512 -0.300314 -0.159107 0.166892 -0.0711947 -0.237826 0.0317415 0.283695 
0.199862 0.0638189 0.153187 0.389362 0.120695 -0.514544 -0.354508 -0.286925 -0.555282 -0.362388 0.163413 0.219556 0.231746 0.348025 0.103518 0.119996 0.0679286 -0.200546 -0.139739 -0.159058 -0.177762 0.0874715 0.271983 0.425231 
0.18336 0.0343354 0.18551 0.31046 -0.0290885 -0.643302 -0.460626 -0.397863 -0.564291 -0.348481 0.100236 0.141256 0.20418 0.363464 0.085237 -0.176875 -0.236762 -0.375112 -0.293702 -0.057398 -0.107734 -0.108542 -0.0472502 0.162744 
-0.0342267 -0.124655 -0.00804543 0.166026 -0.00445553 -0.387011 -0.256196 -0.13646 -0.117769 -0.174909 -0.190768 -0.209488 -0.283496 -0.17187 -0.429741 -0.717304 -0.568585 -0.552232 -0.472976 -0.205726 -0.479734 -0.683697 -0.625817 -0.435456 
-0.20101 -0.391116 -0.249658 -0.348305 -0.61776 -0.693804 -0.405734 -0.271627 -0.266705 -0.390356 -0.608395 -0.856257 -0.849246 -0.619552 -0.742772 -0.964688 -0.71659 -0.550227 -0.381202 -0.106776 -0.474494 -0.817257 -0.798123 -0.649078 
-0.487899 -0.777954 -0.693842 -0.770182 -0.722228 -0.634167 -0.367147 -0.339202 -0.395488 -0.449076 -0.538578 -0.74043 -0.655966 -0.534041 -0.660336 -0.723291 -0.486103 -0.283484 -0.164252 -0.194412 -0.554769 -0.735979 -0.669873 -0.562628 
-0.119025 -0.225219 -0.215402 -0.13508 -0.0811235 -0.188233 -0.266971 -0.250183 -0.275934 -0.266045 -0.241044 -0.24397 -0.239385 -0.232186 -0.272382 -0.276459 -0.235118 -0.20826 -0.223803 -0.243865 -0.26219 -0.227743 -0.178673 -0.136203 
0 0 0 0 0 0 0 0 0 0 0 0 0 0 0 0 0 0 0 0 0 0 0 0 
0 0 0 0 0 0 0 0 0 0 0 0 0 0 0 0 0 0 0 0 0 0 0 0 
0 0 0 0 0 0 0 0 0 0 0 0 0 0 0 0 0 0 0 0 0 0 0 0 
0 0 0 0 0 0 0 0 0 0 0 0 0 0 0 0 0 0 0 0 0 0 0 0 
0 0 0 0 0 0 0 0 0 0 0 0 0 0 0 0 0 0 0 0 0 0 0 0 
0 0 0 0 0 0 0 0 0 0 0 0 0 0 0 0 0 0 0 0 0 0 0 0 
0 0 0 0 0 0 0 0 0 0 0 0 0 0 0 0 0 0 0 0 0 0 0 0 
0 0 0 0 0 0 0 0 0 0 0 0 0 0 0 0 0 0 0 0 0 0 0 0 
0 0 0 0 0 0 0 0 -0.000200934 0.00116133 0.00168842 -0.0108514 0.0820896 0.150691 0.189568 0.0622538 0.013464 0.00259232 0.00188935 0.00225357 0.000357747 0 0 0 
0 0 0 0 0 0 0 0 -0.00104964 0.00294012 -0.00857547 0.0146881 0.250315 0.380471 0.242812 0.0729337 0.0768997 0.0124138 0.00284179 0.000719833 -0.00417598 0.0525157 0.110432 0.131978 
0 0 0 0 0 0 0 0 -0.00236123 0.00367215 -0.0690172 0.117919 0.510202 0.536293 0.327056 0.216697 0.257466 0.152668 0.15343 0.202933 0.308086 0.54324 0.673551 0.507552 
0.00188935 0.00205263 0.00131815 0.00305068 0.00414292 0.00241038 0.00131815 0.00305068 0.000718519 0.00654609 -0.166652 0.0361423 0.717978 0.721026 0.505439 0.325936 0.381711 0.257066 0.334808 0.544125 0.73932 0.973368 0.998098 0.667726 
0.00428515 0.00757376 0.00846313 0.0136348 0.00579635 0.000292767 0.000547983 0.00441964 0.00192457 0.00336211 -0.208316 -0.140343 0.278841 0.41004 0.456849 0.3532 0.377426 0.153578 0.392666 0.611372 0.734621 1.06434 1.06928 0.426749 
0.00347208 0.00785109 -0.0168746 0.130817 0.431925 0.598561 0.437668 0.113743 0.0524534 0.00793101 -0.185537 -0.196425 -0.183092 -0.267081 -0.108278 0.332325 0.538709 0.184591 0.215963 0.365098 0.600012 0.638494 0.0172012 -0.762621 
-0.00623673 -0.00245072 -0.0596749 0.371929 1.1759 1.35014 1.00693 0.679008 0.483266 0.113404 -0.0874301 -0.342301 -0.37142 -0.528269 -0.909726 -0.747523 0.135708 0.11985 0.00593914 0.181462 -0.177867 -0.904273 -1.29501 -1.45956 
-0.0171966 -0.0292678 0.0152696 0.711048 1.6725 1.76489 1.75199 1.49768 0.853148 0.0989733 0.0107701 -0.179823 -0.349955 -0.604035 -0.937649 -1.26371 -0.470541 0.118415 0.0223905 -0.237868 -0.628983 -1.21587 -1.61476 -1.47527 
-0.0483184 -0.168556 -0.0900238 0.799399 1.35262 0.619023 0.401039 0.546837 0.392827 -0.189415 -0.0106021 0.103019 0.216973 0.151073 0.0900318 0.0739443 -0.219151 -0.562796 -0.250263 0.0220055 -0.125784 -0.772106 -0.825216 -0.207001 
0.0822581 -0.124181 -0.0758291 0.44665 0.122252 -1.17151 -1.23929 -0.763292 -0.384953 -0.0682188 0.823002 1.14302 1.41655 1.49015 1.08717 0.809529 0.104367 -0.563591 -0.371964 0.147033 0.279911 0.388499 1.0698 1.60825 
1.21179 1.00481 1.25767 1.20151 -0.0413327 -1.74172 -1.73936 -1.65774 -1.10084 0.0261806 1.62815 1.84847 1.87 2.0333 1.49738 0.921435 0.0267087 -0.640242 -0.675902 0.0644777 0.877805 1.48397 1.89849 2.10295 
1.38094 1.05616 1.13889 0.799128 -0.412602 -1.72794 -1.31925 -0.997606 -0.612858 0.100749 1.32209 1.31086 1.22323 1.3063 0.323603 -0.405005 -0.858481 -1.01033 -0.516258 0.202191 0.211735 0.207632 0.249621 0.535269 
0.251994 -0.0158296 0.0986586 -0.04458 -0.358545 -0.789826 -0.510223 -0.218448 -0.193681 -0.646294 -0.753202 -1.10712 -1.4177 -1.3782 -2.08897 -2.18378 -1.88455 -1.55631 -1.39458 -1.27476 -1.95127 -2.55443 -2.48688 -2.11613 
-1.32278 -1.87146 -1.72095 -2.16868 -2.27443 -2.09366 -1.23247 -1.36673 -1.57524 -2.2457 -2.91311 -3.47131 -3.30892 -2.9719 -3.15608 -2.92591 -2.27105 -1.57364 -1.42999 -1.6419 -2.62798 -3.41162 -3.33263 -2.97134 
-2.27347 -3.01926 -2.80484 -2.68252 -2.30825 -2.09946 -1.53214 -1.64696 -1.81134 -2.23863 -2.34127 -2.76876 -2.59942 -2.42266 -2.42723 -2.11585 -1.56158 -1.10242 -1.27975 -1.72485 -2.3814 -2.73008 -2.48709 -2.17675 
-0.519281 -0.723654 -0.620429 -0.539742 -0.587352 -0.782724 -0.994209 -0.968439 -0.964663 -0.957305 -0.897735 -0.903295 -0.93147 -0.917733 -0.967435 -0.92339 -0.876726 -0.834112 -0.891917 -0.908039 -0.864303 -0.735727 -0.561457 -0.402528 
0 0 0 0 0 0 0 0 0 0 0 0 0 0 0 0 0 0 0 0 0 0 0 0 
0 0 0 0 0 0 0 0 0 0 0 0 0 0 0 0 0 0 0 0 0 0 0 0 
0 0 0 0 0 0 0 0 0 0 0 0 0 0 0 0 0 0 0 0 0 0 0 0 
0 0 0 0 0 0 0 0 0 0 0 0 0 0 0 0 0 0 0 0 0 0 0 0 
grads_in 
-6.80208e-05 -6.80208e-05 0.000130072 0.000130072 8.39284e-05 8.39284e-05 1.31792e-06 1.31792e-06 -0.000148462 -0.000148462 -0.000208765 -0.000208765 -6.02355e-05 -6.02355e-05 6.31698e-05 6.31698e-05 -2.22851e-05 -2.22851e-05 6.12901e-05 6.12901e-05 0.000167389 0.000167389 3.07985e-05 3.07985e-05 0 0 0 0 
-8.21445e-05 8.82959e-06 0.000365637 0.00029693 0.000193667 0.00031302 0.000316036 0.000246691 0.000332793 -0.000229373 -0.000530199 -0.000384701 -0.000422293 -6.43173e-05 -0.000140832 0.000150898 0.000311153 7.14004e-05 0.000269437 7.25929e-05 0.000146377 0.000178271 -2.96143e-05 -9.14027e-06 -7.89164e-05 0 0 0 
-0.000133528 -4.25538e-05 0.000374075 0.000305368 1.74196e-05 0.000136772 0.00033246 0.000263115 0.00074555 0.000183384 -0.000315276 -0.000169777 -0.000428278 -7.03031e-05 -0.000446848 -0.000155118 0.000277433 3.76807e-05 0.000380442 0.000183598 0.0001666 0.000198494 4.16036e-05 6.20777e-05 -7.89164e-05 0 0 0 
-0.000178327 1.93867e-05 0.000529358 0.000253664 -0.000190856 -8.97622e-05 7.40658e-05 0.000140019 0.000512653 0.000244309 -0.000177548 -5.56487e-05 -0.000102755 -0.000116127 -0.000528159 -0.0003312 -0.000129496 -0.000123764 0.000240747 0.000252411 0.000450169 0.000282969 0.000169744 0.000183356 -9.98293e-06 0 0 0 
-0.000224563 -2.68493e-05 0.00047518 0.000199486 -0.000253847 -0.000152754 -5.34335e-05 1.25197e-05 0.000407649 0.000139306 -0.000188135 -6.62361e-05 -1.56902e-05 -2.90625e-05 -0.000499875 -0.000302916 -0.000273192 -0.00026746 4.96094e-06 1.66252e-05 0.000381508 0.000214308 0.00015905 0.000172661 -9.98293e-06 0 0 0 
-0.000223957 -4.89324e-05 0.000372754 9.83917e-05 -0.000290269 -0.000151202 -3.64066e-05 -2.60025e-05 0.000209424 -3.8489e-05 -4.42914e-06 -9.52197e-05 2.08438e-05 4.57586e-05 -0.000268778 -0.000214563 -0.000339947 -0.000199701 -1.05608e-05 -6.34901e-05 0.000118951 0.000159956 9.13222e-05 0.000202171 0 0 0 0 
-0.000116635 5.83904e-05 0.000401818 0.000127455 -0.000170578 -3.1511e-05 0.000106973 0.000117377 5.01331e-05 6.13708e-05 -8.89116e-05 -0.000121352 7.78984e-06 -2.63204e-05 -0.000186373 -8.10048e-05 0 0 -0.000278864 0.000165497 0.000121292 4.15055e-06 0.000143446 5.62759e-05 0 0 0 0 
-5.83174e-05 -0.000229712 0.000113396 -1.01064e-05 -0.00019078 -3.562e-05 3.36217e-05 -0.000102525 0 -3.13444e-05 -0.000120856 6.99454e-05 -7.07227e-05 2.75098e-05 -0.000288848 -0.000269385 -8.20025e-05 0 -0.000165497 0.000190204 0 6.33838e-05 4.65698e-08 0 0 0 0 0 
-7.95173e-05 7.95173e-05 9.99019e-05 1.14544e-05 -4.05107e-05 3.28477e-05 -1.24256e-05 4.80702e-05 -1.88365e-05 0.000120856 1.04804e-05 7.07227e-05 8.65083e-05 0.000115104 -0.000412962 0 -0.000206891 0.000206891 -0.000103135 0.000124953 3.2957e-05 0.000110555 5.64622e-05 0.000107423 0 0 0 0 
-7.95173e-05 -7.76586e-05 0.000115101 -8.16926e-06 -3.28477e-05 6.41255e-05 -4.88284e-05 8.78777e-05 6.06949e-06 -0.000182499 0.000196439 -9.51956e-05 0.000213887 0.000479013 -0.000254192 0 -0.000243168 0 0 -9.25342e-05 -7.06395e-05 2.72303e-05 -0.000103826 0 0 0 0 0 
0 -0.000146693 0.000146693 -6.46057e-05 7.27448e-05 5.69002e-05 0 0.000219733 0.000182499 0 9.51956e-05 0 0 0.000254192 7.4664e-05 -7.4664e-05 7.92494e-05 0 0 -4.11544e-05 -3.07624e-06 3.07624e-06 0 -0.000178663 0.000178663 0 0 0 
0 -0.000146693 0 0.000105902 -2.91915e-05 9.54713e-05 -0.00011371 3.41447e-05 -4.34872e-05 0.000178483 5.65269e-05 0 0 0.000223758 -1.14667e-05 -0.000137627 0 0 0 0 3.50488e-05 -3.8125e-05 0 -0.000331637 0.000152974 0 0 0 
0 0 0.000156466 0.000214575 0.000224659 2.91882e-05 -6.20807e-06 3.90224e-05 0.000104578 0 0 0 0.000299351 0.000328082 0.000137627 0 -5.6093e-05 5.6093e-05 0 0 3.8125e-05 0 0 -0.000152974 0 0 0 0 
9.11074e-05 -0.000183933 0.000183933 6.30615e-06 0.000228194 3.6446e-05 -0.000106092 0 0 0 0 9.27666e-05 -0.000130003 -9.23198e-05 -3.08125e-05 0.000246927 -4.79988e-06 -0.000168153 0 0.000148842 0.000123658 8.28197e-05 0 0.000315115 0 0 0 0 
0 -0.000183933 0.000370752 4.28363e-05 0 0.000106092 0 -9.34887e-06 0.000230708 -0.000221359 0 0.000144393 0.000361305 -0.000135277 0.000307365 0.000513204 0.000170939 0 0 0.000128187 -4.52904e-06 8.85565e-05 0 0.000357047 0.000179427 0 0 0 
0.00012264 0 0.000217584 0.000144676 8.11097e-05 -8.61108e-05 0 0.000111571 0.00010044 0.000125548 0 0 0.000343419 0.000262008 0 0.000290708 0 0.000148939 -0.000148939 7.29916e-05 0 0 0.000183325 0.000165752 0 0 0 0 
5.00488e-05 0.000114549 0.000154214 5.00107e-06 8.61108e-05 0 0 0.00012092 0.000149766 -0.000149766 6.08889e-05 -6.08889e-05 0.000101349 -0.000101349 8.90978e-05 -8.90978e-05 0 0.000148939 0 0.000100583 0.000115592 -0.000216174 0 5.92606e-05 -5.92606e-05 0 0 0 
-0.000114549 0 0 0 -0.000111058 0.000111058 0 4.08216e-05 0.000150134 -4.11887e-05 6.08889e-05 0 9.2347e-05 9.0025e-06 8.90978e-05 0 0 3.40692e-05 -3.40692e-05 0.000270221 0.000286972 -0.000240436 0 0.000155127 -9.58659e-05 0 0 0 
-0.000138846 0.000138846 0 -0.000132992 2.1934e-05 0 0 4.08216e-05 4.11887e-05 0 -7.4178e-05 7.4178e-05 -9.0025e-06 0 -2.39013e-05 2.39013e-05 0 3.40692e-05 0 0.000169639 0.000240436 0 0 9.58659e-05 0 0 0 0 
-0.000255103 0.000116257 -0.000211528 7.85357e-05 -0.000100508 0.000100508 0 0 -2.49495e-05 2.49495e-05 -0.000153359 7.91811e-05 0 -0.000128487 0.000131518 -2.69323e-05 0 1.502e-05 -1.502e-05 0.000361003 -0.000165309 -0.000195695 0 0.000184051 -0.000184051 0 0 0 
-5.99005e-05 5.63565e-05 -0.000155613 5.59147e-05 -1.53143e-06 9.89767e-05 5.38232e-05 6.04945e-05 4.55042e-05 7.7125e-05 -9.39447e-06 6.97866e-05 6.80081e-05 -6.04784e-05 4.32419e-05 1.63095e-05 -1.16498e-05 3.37015e-06 1.34786e-05 0.000374482 0.00024668 5.09856e-05 6.13645e-05 0.000245415 0 0 0 0 
-4.21308e-05 6.45682e-06 -0.000117451 6.15212e-05 0.000296906 9.30602e-05 0.000178116 9.35412e-05 3.67122e-05 0.000182997 0.000176333 0.00012079 1.94301e-05 0.000152156 0.000220035 0.000109217 0.000112377 0.000105384 0.000449693 0.000130046 -6.42402e-06 0.000153323 0.000228371 0.000128027 -0.000222121 0 0 0 
-0.000163541 -0.000114954 -0.00032934 -0.000150368 0.000263772 5.99253e-05 0.000296534 0.000205288 5.24825e-05 0.000198767 0.000189857 0.000134314 -8.85855e-05 4.41407e-05 0.000279694 0.000168876 0.000210677 0.000203683 0.000841414 0.000521767 0.00023449 0.000394237 0.000529021 0.000428677 -0.000222121 0 0 0 
-0.000120038 -0.000107648 -0.000241106 -0.000123887 0.000273199 7.32664e-05 0.00032193 0.000203753 -8.42805e-06 0.000199447 0.000220823 0.000114825 -0.000123064 -6.51532e-06 0.000177574 0.000160692 0.000181365 0.000169552 0.000647543 0.00049655 0.000506581 0.000408845 0.000444093 0.000441595 -0.000249996 0 0 0 
-0.000109967 -9.75775e-05 -0.000182651 -6.54328e-05 0.000285106 8.51732e-05 0.000369702 0.000251525 -1.41461e-05 0.000193729 0.000255651 0.000149653 -7.94905e-05 3.70586e-05 0.000173286 0.000156404 0.000176387 0.000164574 0.000483457 0.000332463 0.000579126 0.00048139 0.000411655 0.000409157 -0.000249996 0 0 0 
-5.49837e-05 -5.49837e-05 -9.75206e-05 -9.75206e-05 7.77486e-05 7.77486e-05 0.000220013 0.000220013 8.71772e-05 8.71772e-05 0.000118138 0.000118138 3.56646e-06 3.56646e-06 7.16801e-05 7.16801e-05 8.16715e-05 8.16715e-05 0.000241113 0.000241113 0.000364444 0.000364444 0.000329577 0.000329577 0 0 0 0 
0 0 0 0 0 0 0 0 0 0 0 0 0 0 0 0 0 0 0 0 0 0 0 0 0 0 0 0 
0 0 0 0 0 0 0 0 0 0 0 0 0 0 0 0 0 0 0 0 0 0 0 0 0 0 0 0 
stride
1
extend_filter
5
filters
0.000793294 0.143841 0.269963 0.265385 -0.815247 
-0.195712 -0.131146 0.568118 0.685621 -0.966733 
-0.22977 0.0956369 0.615436 0.0490422 -0.452998 
-0.0870267 0.416951 0.47038 -0.328077 -0.413134 
0.0683619 0.402026 0.0558036 -0.38627 -0.272661 
-0.419746 0.6343 0.134123 -0.12109 -0.083076 
-1.17138 1.01358 0.479396 -0.132983 -0.032458 
-1.10935 0.777758 0.302705 0.0394071 0.0415898 
-0.700886 0.334732 0.275063 0.0692223 0.050413 
-0.337428 0.00547623 0.105065 0.0977568 -0.0662534 
-0.863463 -0.884577 -0.385976 -0.193355 0.472323 
-0.8468 -1.00351 -0.339113 0.437538 0.206732 
-0.217063 -0.315604 -0.0861274 0.223122 -0.0397049 
-0.037298 -0.0210031 0.0331587 0.380208 0.0492211 
0.0297827 0.0275104 -0.0296136 0.330714 0.285652 
-0.834885 -0.923205 -0.369758 -0.0121837 -0.0223048 
-0.678229 -0.471524 0.300904 0.197588 0.0173054 
0.180903 0.611087 0.212136 -0.094399 -0.014974 
0.210884 0.529033 0.162747 0.0413845 -0.00927062 
0.292236 0.449197 -4.61619e-05 -0.0464849 0.00892887 
0.0650505 0.152609 0.542266 0.0984093 -0.943403 
0.035383 -0.116012 -0.0868973 0.696019 -0.26038 
-0.0623996 -0.0817825 -0.311518 0.429801 -0.0157547 
-0.0792959 0.0430886 -0.136002 0.244605 0.00894894 
-0.0600577 -0.0351116 -0.212898 0.13144 0.0233821 
-0.284683 0.122774 0.706742 0.775618 0.348063 
0.18734 0.357999 0.741551 0.723299 0.317142 
0.22512 0.0305853 0.0132016 0.0824949 -0.0136233 
0.163039 -0.400719 -0.855576 -0.88557 -0.445919 
0.00947647 -0.505732 -0.961728 -0.965795 -0.546459 
-0.420432 -0.395129 0.0511625 0.124122 -0.134041 
-0.413423 -0.162618 0.3542 0.080841 -0.184253 
-0.0409615 0.0439075 0.137443 -0.0122083 -0.190469 
-0.0590008 0.0209735 0.180153 0.163701 -0.127274 
-0.00906294 0.0127235 0.112866 0.165066 -0.0327255 
-1.00303 -0.859108 -0.598273 -0.157871 -0.261712 
-0.975695 -0.790092 -0.0213534 0.363109 -0.322336 
-0.141665 0.0424685 0.275544 0.18668 -0.334432 
-0.097391 0.388593 0.724706 0.453627 -0.216387 
0.091267 0.57473 0.481846 0.296215 -0.0511925 
gradients
-0.000689911 | -0.00944671 -0.000723352 | -0.00148726 -0.00113613 | 0.000667095 -0.00115218 | 0.00772435 -0.000625753 | 0.0110606 
-0.000906113 | -0.0180308 -0.00100658 | -0.00866817 -0.00128857 | 0.00259174 -0.00118086 | 0.00439207 -0.000536806 | 0.0109683 
-0.00103258 | -0.0250872 -0.000919809 | -0.0193229 -0.00114581 | -0.00747676 -0.000812705 | -0.00908351 -0.00039104 | 0.0054433 
-0.00113779 | -0.0259464 -0.00148526 | -0.0210053 -0.0013856 | -0.0108615 -0.000645185 | -0.0114068 -0.00078436 | 0.00593561 
-0.000955192 | -0.02696 -0.00117601 | -0.0227037 -0.000871597 | -0.0137074 -0.000604113 | -0.0154289 -0.000679226 | 0.0020116 
-0.000391303 | 0.0368559 -0.000609754 | 0.0372008 -0.000714448 | 0.04056 -0.000558817 | 0.0423108 -0.000657742 | 0.0339415 
-0.000433451 | 0.0333369 -0.000906405 | 0.0310511 -0.00120796 | 0.0313135 -0.000931131 | 0.0347044 -0.000670161 | 0.0298852 
-0.000581173 | 0.0350451 -0.00104087 | 0.0279132 -0.00123666 | 0.0333534 -0.00120809 | 0.0358702 -0.00127699 | 0.0306847 
-0.00050204 | 0.0320675 -0.000867486 | 0.0252494 -0.00109292 | 0.0344106 -0.00116015 | 0.0325914 -0.00106151 | 0.026476 
-0.000653621 | 0.0336971 -0.000796737 | 0.0239138 -0.000814395 | 0.0323584 -0.000957857 | 0.0217384 -0.00115455 | 0.0196023 
-9.90662e-05 | -8.08768e-05 -1.4764e-05 | 4.17036e-07 -8.2977e-06 | 0.00257306 -0.000253296 | -0.0125144 -0.000797599 | -0.0141892 
-5.49935e-06 | -0.000207659 -1.59796e-05 | -0.000708807 1.82286e-06 | 0.00266526 -0.000348548 | -0.00966538 -0.000796516 | -0.0100503 
-0.000302598 | -0.00154164 -0.000286281 | -0.000292284 -0.000497519 | 0.00538614 -0.000919736 | -0.00881554 -0.00120027 | -0.00839305 
-0.00100105 | -0.00151043 -0.00116092 | 0.00159065 -0.00146522 | 0.0023531 -0.0014235 | -0.0103515 -0.00164233 | -0.0109311 
-0.00192898 | -0.00228004 -0.00198308 | 0.00185337 -0.00204155 | 0.00231534 -0.00187506 | -0.0113672 -0.00172901 | -0.0126739 
5.37001e-05 | 0.00109413 4.52788e-05 | -0.00424588 3.76143e-05 | 0.0021914 0.000122553 | 0.00215885 0.000147901 | -0.00205553 
1.63423e-05 | -0.0010846 8.14567e-05 | -0.00362948 7.8698e-05 | 0.00146666 3.88534e-05 | 0.000888242 0.000160551 | -0.000497078 
7.95045e-05 | -0.00338003 -0.00010712 | -0.00417149 -0.000215662 | -0.000153394 -0.000162352 | -0.000558236 2.18789e-06 | -0.00199294 
-0.00013291 | -0.000292283 -8.35888e-05 | -0.00447231 7.9801e-05 | -0.00218195 1.55472e-05 | -0.00140712 9.70616e-05 | -0.0033387 
0.00023919 | 0.00144124 0.000146188 | -0.000782288 0.000192711 | -0.00229258 7.97331e-05 | -0.00355115 0.000130021 | -0.00566732 
0.000305193 | 0.0163247 0.000279017 | 0.024346 0.000212413 | 0.0196057 0.000175261 | 0.0232011 0.000163256 | 0.019776 
0.000278783 | 0.0112224 0.000182387 | 0.0159555 8.44007e-05 | 0.0150439 -0.000195959 | 0.0142423 -0.000178887 | 0.0145307 
1.62727e-06 | 0.00778811 4.54551e-05 | 0.00979782 -7.5419e-05 | 0.0113593 -0.000375953 | 0.0126972 -0.000405699 | 0.0122043 
4.31957e-05 | 0.00827741 2.05929e-05 | 0.00871939 -0.000162263 | 0.00800583 -0.000288913 | 0.00814304 -0.000321938 | 0.00886538 
-0.000159782 | 0.00446175 -0.0001634 | 0.00481421 -5.13594e-05 | 0.00586978 -0.000210284 | 0.00893375 -0.000148359 | 0.00974226 
-0.000877168 | -0.0032108 -0.00105971 | -0.00778908 -0.000993463 | -0.0126192 -0.000931814 | -0.0100625 -0.000396105 | -0.00376999 
-0.00101471 | -0.0145402 -0.00113899 | -0.0188595 -0.00122218 | -0.0171529 -0.00121246 | -0.0164026 -0.000775141 | -0.0127327 
-0.000700626 | -0.0104056 -0.000814526 | -0.0132659 -0.000475732 | -0.0147709 -0.000414855 | -0.0107116 -0.000669792 | -0.0129075 
-0.000871319 | -0.00394717 -0.000344685 | -0.00840271 -0.00015257 | -0.0124049 -0.00010278 | -0.00902604 -0.000308403 | -0.00987029 
-0.000390703 | -0.000735403 -0.000187161 | -0.00415017 -8.23864e-05 | -0.00330306 -0.000139115 | -0.000491933 -0.000218822 | -0.0018213 
-2.81511e-05 | -0.000794044 -1.43257e-05 | -0.00322888 -6.34488e-05 | -0.00326345 -0.000182758 | -0.00105444 -0.000141902 | -0.000536589 
1.17099e-05 | -0.00154765 -3.87102e-05 | -0.00284867 -0.000123117 | -0.00332426 -0.000144112 | -0.00138819 -0.000124739 | -0.000357935 
-3.51881e-06 | -0.00218863 -5.26647e-05 | -0.00484426 -0.00018894 | -0.00441636 -0.000171319 | -0.00198521 -0.000128599 | -0.000457896 
-9.75437e-05 | -0.00102399 -3.76907e-05 | -0.00385344 -0.00015829 | -0.004692 -0.000194196 | -0.00404344 -0.000144341 | -0.00181798 
-0.000171327 | -0.000672728 -0.000168023 | -0.00489235 -0.000179431 | -0.00526874 -8.27621e-05 | -0.00515223 -0.000151785 | -0.00300774 
-0.000259655 | 0.000891682 -9.96133e-05 | -0.00264718 -0.000135672 | -0.00116976 -0.000151887 | 0.000217447 -0.000108761 | -0.00264446 
-0.000196093 | -0.0026002 -4.22463e-05 | -0.00355255 -0.000129202 | -0.00207173 -0.00028556 | -0.000467374 -0.000343352 | -0.000642524 
-0.000420076 | -0.00769251 -0.000736015 | -0.00827031 -0.000800679 | -0.00427809 -0.000867011 | -0.00138506 -0.000653328 | -0.00195607 
-0.000922084 | -0.00413627 -0.000896136 | -0.00864089 -0.00113536 | -0.00564267 -0.00112461 | -0.00416242 -0.000917388 | -0.00317326 
-0.000836554 | -0.00424578 -0.000829537 | -0.00755768 -0.000990066 | -0.00663469 -0.00103447 | -0.00776538 -0.000740852 | -0.0045194 
layer_type::relu
input:
0 0 0 0 0 0 0 0 0 0 0 0 0 0 0 0 0 0 0 0 0 0 0 0 
0 0 0 0 0 0 0 0 0 0 0 0 0 0 0 0 0 0 0 0 0 0 0 0 
0 0 0 0 0 0 0 0 0 0 0 0 0 0 0 0 0 0 0 0 0 0 0 0 
0 0 0 0 0 0 0 0 0 0 0 0 0 0 0 0 0 0 0 0 0 0 0 0 
0 0 0 0 0 0 0 0 -0.00106919 -0.00151541 -0.000850889 -0.0758523 -0.121008 -0.00690188 0.108918 0.0403165 0.008705 -0.00044728 0.000218302 0.0015757 0.000267031 0 0 0 
0 0 0 0 0 0 0 0 -0.00268911 -0.00280244 -0.0658472 -0.220946 -0.116835 0.173541 0.120036 0.015213 0.054041 0.00642282 0.00184422 -0.00264247 -0.05131 -0.0830885 -0.0133212 0.0713951 
0 0 0 0 0 0 0 0 -0.00446537 -0.00261047 -0.208931 -0.453501 0.00924007 0.361515 0.032149 -0.0479894 0.069252 -0.0160674 -0.0876452 -0.169112 -0.239743 -0.158979 0.162844 0.31231 
0.000218302 0.000506505 -0.00231757 -0.0012971 0.001794 0.000773537 -0.00231757 -0.0012971 -0.0053929 0.00343657 -0.275638 -0.678394 0.0317608 0.185234 0.0827346 0.152072 0.0915865 -0.0975536 -0.284883 -0.280403 -0.179175 0.00825572 0.40825 0.488889 
-0.00194721 -0.00447155 -0.00210901 0.00685997 0.00454664 -0.000327922 -0.00324925 -0.000512007 -0.00680052 -0.000982936 -0.425112 -0.475925 -0.0957559 -0.167328 0.265059 0.337971 0.0916619 -0.17189 -0.285437 -0.259187 -0.278541 0.210922 0.794809 0.53719 
-0.000187752 -0.00464879 -0.137654 -0.36027 -0.214951 0.208476 0.249049 0.057008 0.0296902 0.00251027 -0.595863 -0.250987 0.0674235 -0.204708 0.0434609 -0.0196153 0.0681891 -0.0116228 -0.318695 -0.373957 -0.103248 0.658848 0.971227 0.280193 
-0.0123812 -0.0770188 -0.44543 -0.753103 -0.187414 0.370617 0.201422 0.218937 0.31222 0.0726354 -0.325789 -0.701774 -0.128272 0.256127 -0.0948943 -0.374423 0.0264539 -0.142496 -0.457993 -0.00720462 0.335574 0.695743 0.695173 0.0547114 
-0.0537876 -0.296346 -0.932419 -0.887914 0.149419 0.258997 0.110552 0.679168 0.652578 0.0498215 0.0114286 -0.557277 -0.652648 -0.0788779 0.0259299 -0.41081 0.140915 -0.0585252 -0.303108 0.35971 0.531848 0.507096 0.167663 -0.0684135 
-0.0642041 -0.415285 -1.30898 -0.577901 0.960743 0.283698 0.245471 0.863698 0.450915 -0.209308 -0.17829 -0.346405 -0.626835 -0.805013 -0.361804 0.0445998 0.527693 -0.129795 -0.294882 0.285409 0.148193 0.0520934 0.00858949 0.115997 
-0.121787 -0.632063 -1.3255 -0.319086 0.805897 0.105965 0.611501 0.541445 -0.32985 -0.567042 -0.360351 -0.359654 -0.242532 -0.423585 -0.485557 0.112763 0.378688 -0.100885 -0.132162 0.0412926 -0.021298 -0.0871236 -0.00708561 0.294725 
-0.311776 -1.07373 -0.820562 0.392526 0.480773 -0.333419 0.570997 0.200556 -0.479907 -0.53215 -0.213992 -0.122761 -0.0432656 0.203473 0.239386 0.144418 -0.0699761 -0.196914 -0.385554 -0.119506 0.0697486 -0.0136464 0.0746976 0.511573 
-0.0347501 -0.69416 -0.380936 0.641462 0.228872 -0.711395 0.214745 0.176022 -0.0373388 -0.15415 -0.0782033 -0.0737475 -0.0406566 0.687058 0.394559 -0.0681772 -0.32666 -0.627972 -0.380261 0.336063 0.27976 0.157061 0.235738 0.870912 
0.168908 -0.189953 0.0945603 0.427908 0.160712 -0.467448 -0.414818 -0.125768 0.132511 0.0116422 -0.0126573 -0.256087 -0.272206 0.934895 0.231995 -0.101017 -0.310261 -1.02688 -0.305687 0.407143 0.260868 0.0831894 0.0774348 1.00796 
0.0153321 -0.263144 0.415559 0.148913 0.011402 -0.413641 -0.316432 -0.629364 -0.189084 -0.0378828 0.0460989 -0.205831 -0.103644 0.895572 0.10776 -0.117398 -0.328255 -0.933895 -0.154329 0.184954 0.017109 -0.0276101 -0.167895 0.754627 
-0.0641333 -0.219842 0.0396301 0.19656 0.249009 -0.275629 0.000676036 -0.405287 -0.24724 -0.126821 -0.0698273 -0.177748 -0.0865633 0.461364 0.15342 0.0407639 -0.192957 -0.584694 -0.207683 -0.0349574 -0.0441906 0.0233933 -0.128838 0.317241 
0.0616879 0.0382653 -0.207909 -0.127044 -0.0529351 -0.0842382 -0.0127939 -0.0152646 -0.0470851 -0.0275584 -0.0717096 -0.0632644 -0.0571936 0.0342707 -0.0300616 -0.0637117 -0.0754061 -0.0635448 0.0175741 0.047575 0.0385793 0.0680556 0.0377346 0.0648007 
0 0 0 0 0 0 0 0 0 0 0 0 0 0 0 0 0 0 0 0 0 0 0 0 
0 0 0 0 0 0 0 0 0 0 0 0 0 0 0 0 0 0 0 0 0 0 0 0 
0 0 0 0 0 0 0 0 0 0 0 0 0 0 0 0 0 0 0 0 0 0 0 0 
0 0 0 0 0 0 0 0 0 0 0 0 0 0 0 0 0 0 0 0 0 0 0 0 
0 0 0 0 0 0 0 0 0 0 0 0 0 0 0 0 0 0 0 0 0 0 0 0 
0 0 0 0 0 0 0 0 0 0 0 0 0 0 0 0 0 0 0 0 0 0 0 0 
0 0 0 0 0 0 0 0 0 0 0 0 0 0 0 0 0 0 0 0 0 0 0 0 
0 0 0 0 0 0 0 0 0 0 0 0 0 0 0 0 0 0 0 0 0 0 0 0 
0 0 0 0 0 0 0 0 -0.000259051 0.000384216 0.000154241 -0.017986 0.023003 0.0333248 0.00717908 -0.0919131 -0.0173546 -0.00490354 0.000413292 2.24135e-05 -0.00132194 0 0 0 
0 0 0 0 0 0 0 0 -6.03131e-05 0.000656957 -0.0143691 0.036173 0.0495779 0.0802918 0.0370499 -0.176796 -0.0294999 -0.0556625 0.00108004 0.000277474 -0.0120906 0.0128683 0.024748 0.00350616 
0 0 0 0 0 0 0 0 0.000103989 0.000812903 -0.0117735 0.0580452 0.145595 0.209581 -0.0415755 -0.32521 0.0227672 -0.170543 -0.0398367 -0.0102639 0.0190465 0.0248923 0.0304658 -0.0340509 
0.000413292 -0.000236638 -0.00119677 0.000797508 0.000435706 -0.00155858 -0.00119677 0.000797508 0.00067263 -0.00139098 0.0335571 0.0142108 0.180611 0.6657 -0.041558 -0.572563 0.0260414 -0.249913 -0.0482322 0.0614421 0.140348 0.0466982 0.0595375 0.0328178 
-0.000864811 0.0030717 -0.00194463 0.00144244 -0.00289403 -0.00123492 -0.00227586 0.00109373 0.00249166 -0.00341209 0.0121213 0.00308532 0.242677 0.930162 0.140131 -0.495606 -0.0725425 -0.283413 -0.0299027 0.0149532 0.369963 0.160714 0.0571922 0.0451241 
-0.00362735 0.00429816 -0.0369098 0.0170288 0.106727 0.0639837 -0.165625 -0.196781 -0.00430787 -0.0277571 -0.0335447 -0.0563474 0.264427 0.924114 0.492268 -0.150697 -0.161263 -0.337189 -0.114022 -0.0603484 0.599391 0.245583 -0.00631064 0.0789157 
-0.00988203 -0.00627137 0.00953043 0.125262 0.242873 0.343722 -0.234987 -0.494287 -0.138701 -0.256415 -0.0791226 -0.0797059 -0.0333872 0.537155 1.06115 0.336907 -0.129934 -0.226131 -0.111168 -0.287309 0.590445 0.207846 -0.0865105 0.0444312 
-0.0174314 -0.0190254 0.0986043 0.2906 0.483598 0.727533 -0.189399 -0.766939 -0.329586 -0.729689 -0.127538 -0.0369529 -0.121866 -0.0413655 0.758659 0.855649 0.415248 0.026067 -0.154714 -0.562087 0.308378 0.208013 -0.143362 -0.149043 
-0.00396231 0.0362374 0.112787 0.389527 0.948244 1.20478 -0.092493 -0.5568 -0.255841 -1.30522 -0.227462 0.0227807 0.0101743 -0.0459238 0.0103458 0.416384 0.938781 0.484751 -0.324854 -0.468016 0.0455078 -0.275848 -0.326888 -0.16178 
-0.0150124 0.00389296 0.0342465 0.310066 1.11505 0.924064 -0.101062 0.17662 0.0439626 -1.61743 -0.343085 -0.0188728 0.0756751 0.0454333 -0.131606 -0.211665 0.457443 0.798428 -0.165031 0.093932 -0.0573821 -0.55517 -0.273027 -0.135925 
-0.00915075 -0.213641 -0.122296 0.192377 0.869471 0.0906478 -0.260063 0.69256 0.587535 -1.08733 -0.0914188 -0.0665333 0.184684 0.127994 -0.0274137 -0.378103 -0.434213 0.63118 0.1134 0.601928 0.246413 -0.513744 -0.125006 -0.0817994 
0.39849 -0.176735 -0.0277201 0.0906446 0.607899 -0.274193 -0.478725 0.525445 0.895908 -0.149393 0.302214 -0.0711561 0.298172 0.191999 0.230848 -0.395011 -1.06208 0.533464 -0.0294251 0.872524 0.974577 -0.271668 0.0536131 0.0664712 
0.788915 -0.192882 0.177094 0.138104 0.335862 -0.441106 -0.317408 0.0177933 0.776551 0.418985 0.695131 -0.0103271 0.270089 0.165042 0.474016 -0.167424 -1.14502 0.466072 -0.172908 0.783705 1.34864 -0.102071 0.158413 0.170621 
1.0322 -0.177287 0.26833 0.295101 0.288433 -0.384481 -0.169057 -0.0189302 0.379923 0.200304 0.840897 0.116308 0.239814 0.247165 0.504645 -0.0361448 -0.828067 0.21252 -0.15306 0.568617 1.00432 -0.0486578 0.135195 0.144582 
0.748172 -0.0465678 0.173301 0.154113 0.330771 0.150856 -0.0407159 0.033045 0.244909 -0.0931626 0.41238 0.120392 0.121555 0.236128 0.340307 0.128538 -0.279195 0.0675158 -0.0647912 0.217046 0.42647 0.00111569 0.0657502 0.0878666 
0.203594 0.0161898 0.00629869 -0.0622732 -0.00308586 0.165643 0.0288584 0.0499728 0.0884829 0.0099743 0.0431112 0.0493171 0.0260718 0.0795477 0.067105 0.0482519 -0.0162358 0.0565424 0.0605699 0.0794794 0.0746459 0.0197592 0.0247698 0.0232199 
0 0 0 0 0 0 0 0 0 0 0 0 0 0 0 0 0 0 0 0 0 0 0 0 
0 0 0 0 0 0 0 0 0 0 0 0 0 0 0 0 0 0 0 0 0 0 0 0 
0 0 0 0 0 0 0 0 0 0 0 0 0 0 0 0 0 0 0 0 0 0 0 0 
0 0 0 0 0 0 0 0 0 0 0 0 0 0 0 0 0 0 0 0 0 0 0 0 
0 0 0 0 0 0 0 0 0 0 0 0 0 0 0 0 0 0 0 0 0 0 0 0 
0 0 0 0 0 0 0 0 0 0 0 0 0 0 0 0 0 0 0 0 0 0 0 0 
0 0 0 0 0 0 0 0 0 0 0 0 0 0 0 0 0 0 0 0 0 0 0 0 
0 0 0 0 0 0 0 0 0 0 0 0 0 0 0 0 0 0 0 0 0 0 0 0 
0 0 0 0 0 0 0 0 0.00111972 0.00129648 0.00100368 0.0809044 0.106607 0.0132021 0.0114591 0.00922544 0.00306873 0.00176331 -0.000116042 0.000107958 0.000116706 0 0 0 
0 0 0 0 0 0 0 0 0.00131232 0.00278711 0.0696292 0.110129 0.118098 0.0725605 0.054384 -0.0133669 0.00163169 0.00487333 0.000130128 0.00439657 0.0520678 0.0752628 0.0201913 0.00279625 
0 0 0 0 0 0 0 0 0.00115628 0.00366176 0.127912 0.294482 0.162392 0.0491223 0.0779513 0.00597991 0.0398165 0.0764516 0.146353 0.199118 0.257352 0.2764 0.115961 0.0144384 
-0.000116042 0.00122768 0.00253291 0.00118044 -8.08442e-06 0.00134438 0.00253291 0.00118044 0.000838805 0.00430541 0.00974571 0.440033 0.572825 0.0374859 -0.186084 -0.137785 0.0325181 0.134229 0.314283 0.304895 0.339497 0.410687 0.161177 -0.0634772 
0.00460966 0.00540419 0.00118943 0.00205258 0.00051465 -3.60338e-05 0.00153689 0.00274047 0.00385031 0.00820501 0.040424 0.377475 0.340483 -0.018904 -0.4255 -0.293616 -0.0428501 -0.079779 0.239411 0.406562 0.376815 0.266521 -0.111676 -0.420982 
0.00087472 0.00460317 0.149164 0.348436 0.193792 0.0264842 0.0598722 0.0186679 0.00554544 0.00271225 0.204364 0.185878 0.0393135 -0.250008 -0.5221 -0.279632 -0.237514 -0.306852 0.184068 0.286911 0.0838342 -0.311054 -0.874853 -1.22027 
0.00641342 0.0733621 0.255417 0.554015 0.551274 0.362728 0.251855 0.036678 0.025825 0.0163313 0.199117 0.159711 0.151458 -0.193821 -0.887512 -0.971023 -0.554569 -0.272872 -0.0494877 -0.111623 -0.548351 -1.17292 -1.63163 -1.65317 
0.0228885 0.233307 0.472043 0.701307 0.73773 0.506727 0.23134 -0.0607191 -0.0194413 -0.0160675 0.00492476 0.285354 0.256903 0.00222438 -0.458113 -1.137 -0.946312 -0.51099 -0.450729 -0.49543 -0.60071 -1.37386 -1.74964 -1.42055 
-0.00781839 0.0978486 0.541254 0.832361 0.326936 -0.452185 -0.814848 -0.85375 -0.452769 -0.215811 0.107354 0.291878 0.501586 0.3889 0.255001 0.104738 -0.834637 -1.05182 -0.553732 -0.373778 -0.628015 -1.18143 -1.07399 -0.664012 
0.0871781 0.208252 0.794322 0.754072 -0.444518 -1.37409 -1.76393 -1.68616 -1.19543 -0.467903 0.409385 0.595799 0.674524 0.770532 0.685724 0.571592 -0.325632 -0.783618 -0.772726 -0.859565 -0.701876 -0.443013 0.142051 0.376795 
0.649872 0.935753 1.18769 0.532849 -0.588492 -1.4305 -1.89428 -2.10012 -1.81385 -0.739695 0.569409 0.781214 0.745756 0.562514 0.30318 0.247524 -0.124984 -0.554487 -0.958158 -0.905628 -0.53871 0.101903 0.502101 0.358592 
0.480687 0.71398 0.805677 0.241348 -0.740099 -1.38687 -1.37223 -1.31089 -1.23671 -0.701658 0.289885 0.395342 0.273885 -0.0957707 -0.866951 -0.915143 -0.88088 -0.896328 -0.631242 -0.789686 -0.977107 -0.863372 -0.794224 -0.893777 
-0.30148 -0.30928 -0.19737 -0.722782 -1.0249 -0.944267 -0.568098 -0.149651 -0.38174 -0.845382 -0.985848 -1.19691 -1.38847 -1.98757 -2.4863 -2.37769 -1.64723 -0.864023 -0.823773 -1.10902 -1.96657 -2.48497 -2.3791 -2.59972 
-1.18001 -1.47161 -1.64792 -2.1362 -2.25032 -1.75445 -0.730354 -0.689133 -0.85501 -1.51825 -2.32381 -2.69538 -2.55738 -2.91506 -2.94746 -2.72571 -1.76609 -0.654509 -0.618686 -1.0363 -2.10274 -2.74293 -2.59648 -2.81634 
-1.50443 -2.03047 -2.13225 -1.99905 -1.91168 -1.46893 -1.14985 -0.846423 -1.1633 -1.41368 -1.62807 -1.89112 -1.81426 -2.08221 -2.04046 -1.85795 -1.10904 -0.36753 -0.647149 -1.05206 -1.72015 -2.05892 -1.75612 -1.85352 
-0.38373 -0.561967 -0.294059 -0.256011 -0.271312 -0.434521 -0.672538 -0.637125 -0.637026 -0.643065 -0.550811 -0.565994 -0.576384 -0.643295 -0.64688 -0.608992 -0.535641 -0.4984 -0.609671 -0.661443 -0.657298 -0.597107 -0.446576 -0.363833 
0 0 0 0 0 0 0 0 0 0 0 0 0 0 0 0 0 0 0 0 0 0 0 0 
0 0 0 0 0 0 0 0 0 0 0 0 0 0 0 0 0 0 0 0 0 0 0 0 
0 0 0 0 0 0 0 0 0 0 0 0 0 0 0 0 0 0 0 0 0 0 0 0 
0 0 0 0 0 0 0 0 0 0 0 0 0 0 0 0 0 0 0 0 0 0 0 0 
0 0 0 0 0 0 0 0 0 0 0 0 0 0 0 0 0 0 0 0 0 0 0 0 
0 0 0 0 0 0 0 0 0 0 0 0 0 0 0 0 0 0 0 0 0 0 0 0 
0 0 0 0 0 0 0 0 0 0 0 0 0 0 0 0 0 0 0 0 0 0 0 0 
0 0 0 0 0 0 0 0 0 0 0 0 0 0 0 0 0 0 0 0 0 0 0 0 
0 0 0 0 0 0 0 0 3.47933e-05 -0.000182435 3.45223e-05 0.00404943 -0.0113547 -0.000490171 0.125482 0.104271 0.0219802 0.00440193 -2.70935e-07 0.00176154 0.00114609 0 0 0 
0 0 0 0 0 0 0 0 -1.69339e-06 -2.0196e-05 0.00275857 -0.00945092 0.0112674 0.159741 0.244815 0.103127 0.0789048 0.0424373 0.000638145 0.00221366 0.00155857 -0.00700227 0.00356853 0.078564 
0 0 0 0 0 0 0 0 -6.04937e-05 -0.000390414 0.00276731 -0.00533551 0.00570481 0.377044 0.494899 0.189432 0.174661 0.152374 0.086486 0.0579675 0.0908357 0.171512 0.277255 0.403432 
-2.70935e-07 0.00179634 0.00099845 -0.000182706 0.00176127 0.00294243 0.00099845 -0.000182706 0.00173383 0.00347455 -0.00357615 0.00403666 0.157748 0.483617 0.438045 0.320488 0.369488 0.256831 0.199508 0.168052 0.354012 0.515684 0.570256 0.694469 
0.00192314 0.0030698 0.00209775 0.00784655 0.007297 0.00286499 0.000952744 0.000835177 0.00245169 0.00346695 5.96005e-05 -0.00622904 0.162326 0.201914 0.197829 0.459735 0.52265 0.28402 0.352741 0.366988 0.501684 0.765232 0.990465 0.908533 
0.00735092 0.00620701 0.00828736 -0.0100416 -0.0218986 0.236743 0.425474 0.192504 0.0483855 0.0300815 0.00626118 0.0706059 0.0288433 -0.241185 -0.0256642 0.555582 0.524243 0.391641 0.495627 0.382835 0.621764 0.838804 0.572188 0.0717732 
0.00735469 0.000267487 -0.00784139 0.0215851 0.201404 0.67162 0.814263 0.533244 0.466321 0.250165 0.0262059 0.00500807 -0.0280449 -0.222865 -0.542069 -0.414549 0.0858169 0.332445 0.443967 0.374003 0.235908 -0.100262 -0.341002 -0.708877 
0.00531417 0.00500074 -0.0188905 0.0239955 0.552296 1.33355 1.40103 1.15395 1.0872 0.487265 0.0594065 0.00132339 0.00838814 -0.109359 -0.612431 -1.12766 -0.49438 0.528293 0.505702 0.202505 0.178464 -0.281064 -0.85667 -1.11191 
-0.0115283 -0.0064306 0.0123567 0.263544 1.00768 1.1984 0.565371 0.794112 1.18678 0.449414 0.0362428 -0.0171349 0.019782 0.113814 0.13791 -0.0150872 -0.171511 -0.067328 0.0492145 0.424249 0.466896 -0.49785 -0.90062 -0.472429 
0.0588505 0.0548249 0.08348 0.417759 0.741529 0.112465 -0.532145 -0.0270709 0.259584 0.0556727 0.40057 0.512989 0.662502 0.816659 0.929272 0.928307 0.358671 -0.185563 -0.0990461 0.192333 0.0432371 -0.0332047 0.469852 0.899977 
0.587721 0.681332 0.811191 0.97751 0.641713 -0.362999 -1.04457 -1.21829 -1.16458 -0.362264 0.890662 1.1814 1.28901 1.43143 1.6613 1.65819 0.798615 0.0787263 -0.441555 -0.340528 0.602273 1.34365 1.62938 1.63506 
0.936328 1.0177 1.04421 0.898784 0.241888 -0.764414 -0.883536 -0.821697 -0.714052 0.201958 1.43124 1.67986 1.71012 1.51946 1.32076 0.843252 0.150098 -0.102893 -0.211727 0.250376 0.861239 1.1048 1.16156 1.08769 
0.874386 0.928088 0.94243 0.940585 0.563661 0.0511894 0.101676 0.404626 0.488661 0.339129 0.545276 0.502015 0.170971 -0.207342 -0.472163 -0.823618 -0.779627 -0.520806 -0.60792 -0.275945 -0.412719 -0.742242 -0.69006 -0.791221 
-0.250186 -0.50352 -0.533743 -0.945883 -1.31429 -1.00977 -0.402372 -0.198469 -0.381401 -0.859112 -1.42856 -1.8025 -1.77396 -1.69842 -1.75056 -1.83755 -1.26252 -0.639035 -0.489924 -0.384707 -1.16931 -1.84998 -1.82672 -1.86178 
-1.54612 -2.07996 -1.9962 -2.04509 -1.79121 -1.39218 -0.919528 -0.858621 -1.05846 -1.3389 -1.54868 -1.87758 -1.73218 -1.69679 -1.75653 -1.59784 -0.986976 -0.487914 -0.550837 -0.912419 -1.62491 -1.965 -1.77563 -1.67131 
-0.419919 -0.588417 -0.457456 -0.352559 -0.361635 -0.572772 -0.751358 -0.727396 -0.744055 -0.725437 -0.665792 -0.673262 -0.682878 -0.701525 -0.745348 -0.712368 -0.639629 -0.607065 -0.673496 -0.711781 -0.70199 -0.604867 -0.464215 -0.35035 
0 0 0 0 0 0 0 0 0 0 0 0 0 0 0 0 0 0 0 0 0 0 0 0 
0 0 0 0 0 0 0 0 0 0 0 0 0 0 0 0 0 0 0 0 0 0 0 0 
0 0 0 0 0 0 0 0 0 0 0 0 0 0 0 0 0 0 0 0 0 0 0 0 
0 0 0 0 0 0 0 0 0 0 0 0 0 0 0 0 0 0 0 0 0 0 0 0 
0 0 0 0 0 0 0 0 0 0 0 0 0 0 0 0 0 0 0 0 0 0 0 0 
0 0 0 0 0 0 0 0 0 0 0 0 0 0 0 0 0 0 0 0 0 0 0 0 
0 0 0 0 0 0 0 0 0 0 0 0 0 0 0 0 0 0 0 0 0 0 0 0 
0 0 0 0 0 0 0 0 0 0 0 0 0 0 0 0 0 0 0 0 0 0 0 0 
0 0 0 0 0 0 0 0 9.20777e-05 0.000515808 -0.000742594 0.00691582 0.0367494 -0.0523254 -0.0187857 -0.0218359 -0.00351746 -0.000425583 -0.000834672 -0.000137505 -0.000235348 0 0 0 
0 0 0 0 0 0 0 0 0.00012752 0.00147537 0.00437655 0.0366849 0.0224667 -0.0413052 0.00977819 -0.053425 -0.00800082 -0.00828483 -0.000533031 0.000537629 0.00561985 0.0200747 -0.0258059 -0.0225754 
0 0 0 0 0 0 0 0 6.62144e-05 0.00316138 0.00912326 0.116904 0.0445937 -0.126942 -0.0206668 -0.0854719 -0.0204666 -0.0361867 0.00123458 -0.00272492 -0.00691008 0.000243094 -0.0940329 -0.0908505 
-0.000834672 -4.54276e-05 0.000372538 -0.000318864 -0.000972177 -0.000280775 0.000372538 -0.000318864 -0.00201858 0.00500279 -0.00346527 0.149234 0.224416 -0.1002 -0.0712095 -0.105682 -0.0461652 -0.0269552 0.0509819 0.00680579 -0.0012848 0.0930105 -0.110356 -0.153486 
-0.00123474 0.00213049 -0.00288967 -0.000123488 -0.0013051 -0.000105882 0.000684363 0.000518611 -0.00462863 0.00437939 -0.0701354 0.0672529 0.154488 0.0515587 0.136031 -0.0884918 -0.0583819 -0.0785016 0.0868097 0.090402 0.0204032 0.0996979 -0.179606 -0.22923 
-0.00276666 0.00339059 0.0111839 0.0842007 -0.0321691 -0.144413 -0.0464279 -0.0544242 -0.0106711 -0.00284802 -0.328233 0.178949 0.560101 -0.0303161 0.0628859 0.0546843 -0.0367017 -0.168924 0.163375 0.124111 -0.144749 0.142581 0.0404698 -0.13413 
-0.00198493 0.0144368 0.0360657 0.172839 0.0287038 -0.118405 -0.0742303 -0.214698 -0.08146 -0.0467312 -0.38189 -0.373601 0.552855 0.465294 0.015787 0.0291336 0.150436 -0.255267 -0.091572 -0.0418127 -0.176544 0.162481 0.231872 0.0861099 
-0.00346531 0.0444465 0.116673 0.297539 0.0973844 -0.230272 -0.123853 -0.353447 -0.132609 -0.101296 0.000771492 -0.577876 -0.482703 0.472695 0.67731 0.130459 0.138952 -0.338527 -0.311853 0.120298 -0.0132534 0.0800774 0.168747 0.1508 
-0.0138553 0.0471846 0.117514 0.473927 0.402529 -0.0471478 0.107869 -0.364057 -0.183813 -0.137071 0.0154185 -0.0623745 -0.424335 -0.427198 0.400463 0.439822 0.106821 -0.0107555 -0.163062 -0.350612 -0.280493 0.208977 0.220364 -0.00387365 
-0.0151919 -0.0092043 -0.225379 -0.198606 0.384196 0.434214 0.48771 -0.227049 -0.226547 -0.14086 -0.043878 -0.0570817 -0.0131791 -0.456274 -0.652748 0.222489 0.392362 0.119484 -0.166208 -0.0186691 0.234699 0.0886083 -0.0279435 -0.0859685 
-0.117089 -0.403818 -0.25875 -0.193816 -0.212211 -0.0405251 0.883943 0.325382 0.19614 0.0213015 0.0662246 0.0156636 0.058385 -0.162862 -0.709377 -0.123186 -0.167075 0.179372 0.561833 0.224793 0.056899 -0.058629 -0.0969827 -0.0884236 
0.0309014 -0.576618 -0.365104 -0.0116472 -0.332672 -0.446155 0.830679 0.6854 0.375663 0.0336487 0.0737554 0.0443451 0.146945 0.0452762 -0.685905 -0.100783 -0.212822 0.338101 0.805008 0.243757 0.151298 0.125857 0.105923 0.215663 
0.0986135 -0.146671 -0.161284 -0.0365708 0.165079 -0.277444 0.145729 0.357889 0.508128 0.0293867 -0.0713517 -0.218118 -0.0802137 0.476541 -0.249856 0.167309 0.000183966 -0.292043 0.396507 0.257427 0.125754 0.113311 0.13261 0.67723 
0.111848 -0.00234859 0.344847 0.154603 0.0812158 -0.0331644 -0.1823 -0.532495 0.117834 0.0309277 0.103998 0.136002 0.138717 0.682679 -0.00484486 0.0536194 0.0120566 -0.400169 0.0813851 0.0311459 0.0239894 0.134037 0.0318258 0.744039 
-0.139362 -0.173008 0.364999 0.653194 0.361753 -0.146048 0.0576411 -0.356413 -0.261781 0.0355127 0.061221 0.00456759 0.0341431 0.613916 0.410602 0.244346 -0.0151254 -0.610512 -0.314456 -0.0106859 0.00938504 0.0962648 -0.0739481 0.386199 
0.0795948 0.0836175 -0.220008 -0.187599 -0.0387668 -0.0841007 -0.00244361 0.0243843 -0.0318307 -0.00968695 -0.0538174 -0.0624663 -0.041771 0.0605334 0.0115411 -0.0607211 -0.066696 -0.0588519 0.0405993 0.0963584 0.0795223 0.109132 0.0783411 0.0898556 
0 0 0 0 0 0 0 0 0 0 0 0 0 0 0 0 0 0 0 0 0 0 0 0 
0 0 0 0 0 0 0 0 0 0 0 0 0 0 0 0 0 0 0 0 0 0 0 0 
0 0 0 0 0 0 0 0 0 0 0 0 0 0 0 0 0 0 0 0 0 0 0 0 
0 0 0 0 0 0 0 0 0 0 0 0 0 0 0 0 0 0 0 0 0 0 0 0 
0 0 0 0 0 0 0 0 0 0 0 0 0 0 0 0 0 0 0 0 0 0 0 0 
0 0 0 0 0 0 0 0 0 0 0 0 0 0 0 0 0 0 0 0 0 0 0 0 
0 0 0 0 0 0 0 0 0 0 0 0 0 0 0 0 0 0 0 0 0 0 0 0 
0 0 0 0 0 0 0 0 0 0 0 0 0 0 0 0 0 0 0 0 0 0 0 0 
0 0 0 0 0 0 0 0 -0.00214307 -0.00378749 -0.00591472 -0.157929 -0.300506 -0.32758 -0.204969 -0.0382349 -0.00959411 -0.00363895 -0.00377165 -0.00198345 3.71341e-05 0 0 0 
0 0 0 0 0 0 0 0 -0.00389217 -0.0072607 -0.141747 -0.393899 -0.555095 -0.536846 -0.320732 -0.116225 -0.0671636 0.000346223 -0.00335572 -0.0101441 -0.10452 -0.214879 -0.238305 -0.154818 
0 0 0 0 0 0 0 0 -0.00394611 -0.00693761 -0.338454 -0.784647 -0.879159 -0.764853 -0.491039 -0.431347 -0.42902 -0.3242 -0.458085 -0.697081 -1.04395 -1.23118 -1.03354 -0.562412 
-0.00377165 -0.00412651 -0.00589342 -0.00755914 -0.00575509 -0.00408938 -0.00589342 -0.00755914 -0.00631493 -0.00226058 -0.184368 -0.686943 -1.20071 -1.3469 -1.05674 -0.803658 -0.706203 -0.742381 -1.10216 -1.4785 -1.79165 -1.75504 -1.35043 -0.710871 
-0.0156625 -0.0204543 -0.0196326 -0.0147627 -0.00477898 -0.00268168 -0.0045831 -0.008972 -0.0061609 -0.0113624 0.0544953 -0.0154573 -0.634491 -1.35389 -1.38735 -1.08432 -0.783637 -0.824111 -1.12649 -1.47645 -1.75475 -1.47643 -0.87396 -0.28125 
-0.0115338 -0.015362 -0.29666 -0.84611 -1.10854 -0.926516 -0.413392 -0.092421 -0.0458586 -0.00817501 0.198099 0.51295 0.435462 -0.33557 -1.07769 -1.20973 -1.08216 -0.883579 -0.812003 -0.861715 -0.811516 -0.125426 0.449808 0.459138 
-0.0153165 -0.149402 -0.781377 -1.78982 -2.43006 -2.3952 -1.65246 -0.935662 -0.459232 -0.0627893 0.126729 0.569615 1.06476 0.941988 -0.0515998 -0.891378 -1.19485 -1.13794 -0.699613 -0.0799165 0.587471 1.21167 1.16403 0.58938 
-0.0684278 -0.550796 -1.52123 -2.51098 -3.16676 -3.44871 -2.88368 -1.85838 -0.753993 0.0150635 0.0203592 0.233708 0.851341 1.23362 0.636486 -0.533253 -1.19082 -1.03098 -0.317189 0.653009 1.29541 1.39725 0.981065 0.392234 
-0.0444935 -0.431542 -1.07367 -1.29784 -1.22057 -1.31616 -1.29097 -0.969414 -0.272394 0.184807 -0.266943 -0.707974 -0.972766 -0.757713 -0.463744 -0.415927 -0.770388 -0.977484 -0.753015 -0.480806 -0.164659 -0.448297 -1.11205 -1.29325 
-0.350702 -0.490598 -0.376113 0.242758 0.928794 1.08102 0.337215 -0.674536 -1.27054 -1.74854 -2.35501 -2.78613 -3.18466 -2.86401 -1.8761 -0.75098 -0.397162 -1.04835 -1.58267 -2.13038 -2.65531 -3.17863 -3.41154 -2.7987 
-2.77924 -2.70425 -1.9408 -0.593364 0.593482 1.21235 0.709968 -0.98154 -2.78369 -3.73957 -3.94781 -3.82889 -3.80158 -3.12788 -1.94231 -0.522094 0.215992 -0.506682 -1.73019 -3.163 -3.85494 -3.70603 -3.56903 -3.06465 
-2.74281 -2.29271 -1.56423 -0.662317 -0.193767 -0.108713 -0.391681 -1.24407 -2.33636 -2.65536 -2.37037 -1.90793 -1.62528 -1.08908 -0.448209 0.258749 0.471984 -0.24445 -0.834341 -1.3871 -1.31726 -0.749914 -0.629736 -0.435552 
-0.132132 0.344924 0.603289 0.618334 0.285092 -0.00468493 0.0744277 0.461639 0.688933 0.926702 1.28952 1.70433 1.94854 1.86969 1.42891 1.06146 0.876721 0.914243 1.43847 1.86616 2.07576 2.3182 2.41676 2.19559 
2.13499 2.49217 2.49311 2.14671 1.54053 1.22368 1.41457 1.98768 2.63503 3.0452 2.97819 3.0027 2.95503 2.60741 1.96204 1.34216 1.14711 1.50452 2.21486 2.87439 3.04447 2.9533 2.85101 2.48032 
2.03201 1.94087 1.8605 1.51475 1.12206 1.07554 1.40672 1.65379 1.90284 2.04655 2.04908 1.88859 1.9642 1.76742 1.29351 0.832018 0.833597 1.31882 1.85353 2.1421 1.9272 1.56876 1.4381 1.1776 
0.419353 0.225066 0.265787 0.439952 0.610862 0.632855 0.564266 0.556827 0.520316 0.49627 0.528158 0.54953 0.57637 0.559113 0.484674 0.457791 0.502489 0.571856 0.551256 0.465124 0.341638 0.231221 0.155666 0.0762008 
0 0 0 0 0 0 0 0 0 0 0 0 0 0 0 0 0 0 0 0 0 0 0 0 
0 0 0 0 0 0 0 0 0 0 0 0 0 0 0 0 0 0 0 0 0 0 0 0 
0 0 0 0 0 0 0 0 0 0 0 0 0 0 0 0 0 0 0 0 0 0 0 0 
0 0 0 0 0 0 0 0 0 0 0 0 0 0 0 0 0 0 0 0 0 0 0 0 
0 0 0 0 0 0 0 0 0 0 0 0 0 0 0 0 0 0 0 0 0 0 0 0 
0 0 0 0 0 0 0 0 0 0 0 0 0 0 0 0 0 0 0 0 0 0 0 0 
0 0 0 0 0 0 0 0 0 0 0 0 0 0 0 0 0 0 0 0 0 0 0 0 
0 0 0 0 0 0 0 0 0 0 0 0 0 0 0 0 0 0 0 0 0 0 0 0 
0 0 0 0 0 0 0 0 -0.000128455 0.000647123 0.000313954 -0.00842346 0.0446827 0.0393595 0.0118333 -0.000109513 -0.000392016 0.000504853 0.000442408 4.97045e-05 -3.55677e-05 0 0 0 
0 0 0 0 0 0 0 0 -0.000627643 0.00128893 -0.00731467 0.00378296 0.0753604 0.061042 0.0377899 0.00204131 -0.00148928 -0.00149316 0.000706304 -0.00043172 -0.00303802 0.0265082 0.0310753 0.0103511 
0 0 0 0 0 0 0 0 -0.00137461 0.00124098 -0.0433684 0.0390903 0.129145 0.0608188 0.0553363 0.054477 0.0352259 0.0101115 0.0301864 0.0533066 0.0624295 0.12719 0.130751 0.0440832 
0.000442408 -7.87502e-05 0.000483101 0.00108953 0.000492113 -0.000114318 0.000483101 0.00108953 -0.00147662 0.000924965 -0.0963514 -0.0502615 0.241059 0.270532 0.0377553 -0.0348918 0.0534321 0.00920021 0.0631009 0.121674 0.093243 0.169454 0.207397 0.0731872 
0.000599326 0.00222111 0.00164527 0.00154693 0.000646132 -0.000648508 -8.8796e-05 0.00121966 -0.000559695 0.000278095 -0.11718 -0.159103 0.198583 0.238968 -0.0183339 -0.0668806 0.0185535 -0.0430542 0.00376414 0.0889865 0.0919574 0.191503 0.254492 0.0625334 
-0.00104004 0.00203881 -0.0154463 0.0667193 0.159325 0.0771654 0.0186755 0.00469319 0.0013416 -0.00217108 -0.102414 -0.115037 0.0334639 -0.0376107 -0.0649189 0.0946411 0.0834385 -0.128408 -0.107836 0.0661986 0.122272 0.163538 0.102454 -0.196756 
-0.00298909 -0.00298101 -0.0447013 0.110706 0.326983 0.240668 0.151209 0.0720472 0.018661 -0.012689 -0.0543791 -0.109624 -0.0840578 -0.0691994 -0.143726 -0.189321 -0.0272667 -0.126326 -0.15478 0.0329238 -0.0444981 -0.217887 -0.222037 -0.396311 
-0.00959512 -0.02766 -0.0359699 0.10135 0.334162 0.363135 0.375373 0.207737 0.0212693 -0.0475492 -0.00525859 -0.0897302 -0.0776595 -0.0240837 -0.161653 -0.383103 -0.247685 -0.0347708 -0.107494 -0.162543 -0.126329 -0.16765 -0.297249 -0.503624 
-0.0262856 -0.110551 -0.157229 0.0669188 0.375577 0.195073 0.0227651 0.0299119 -0.00904123 -0.111607 0.00145054 0.0441439 0.0481363 0.0291612 -0.0321358 -0.0418918 -0.0454972 -0.185136 -0.253229 -0.016632 0.156066 -0.164438 -0.40465 -0.272194 
-0.00278875 -0.141682 -0.220158 0.120367 0.281388 -0.319957 -0.420374 -0.0552975 -0.116892 -0.202647 0.107858 0.202106 0.243065 0.233643 0.0382528 0.155801 0.101512 -0.300314 -0.159107 0.166892 -0.0711947 -0.237826 0.0317415 0.283695 
0.199862 0.0638189 0.153187 0.389362 0.120695 -0.514544 -0.354508 -0.286925 -0.555282 -0.362388 0.163413 0.219556 0.231746 0.348025 0.103518 0.119996 0.0679286 -0.200546 -0.139739 -0.159058 -0.177762 0.0874715 0.271983 0.425231 
0.18336 0.0343354 0.18551 0.31046 -0.0290885 -0.643302 -0.460626 -0.397863 -0.564291 -0.348481 0.100236 0.141256 0.20418 0.363464 0.085237 -0.176875 -0.236762 -0.375112 -0.293702 -0.057398 -0.107734 -0.108542 -0.0472502 0.162744 
-0.0342267 -0.124655 -0.00804543 0.166026 -0.00445553 -0.387011 -0.256196 -0.13646 -0.117769 -0.174909 -0.190768 -0.209488 -0.283496 -0.17187 -0.429741 -0.717304 -0.568585 -0.552232 -0.472976 -0.205726 -0.479734 -0.683697 -0.625817 -0.435456 
-0.20101 -0.391116 -0.249658 -0.348305 -0.61776 -0.693804 -0.405734 -0.271627 -0.266705 -0.390356 -0.608395 -0.856257 -0.849246 -0.619552 -0.742772 -0.964688 -0.71659 -0.550227 -0.381202 -0.106776 -0.474494 -0.817257 -0.798123 -0.649078 
-0.487899 -0.777954 -0.693842 -0.770182 -0.722228 -0.634167 -0.367147 -0.339202 -0.395488 -0.449076 -0.538578 -0.74043 -0.655966 -0.534041 -0.660336 -0.723291 -0.486103 -0.283484 -0.164252 -0.194412 -0.554769 -0.735979 -0.669873 -0.562628 
-0.119025 -0.225219 -0.215402 -0.13508 -0.0811235 -0.188233 -0.266971 -0.250183 -0.275934 -0.266045 -0.241044 -0.24397 -0.239385 -0.232186 -0.272382 -0.276459 -0.235118 -0.20826 -0.223803 -0.243865 -0.26219 -0.227743 -0.178673 -0.136203 
0 0 0 0 0 0 0 0 0 0 0 0 0 0 0 0 0 0 0 0 0 0 0 0 
0 0 0 0 0 0 0 0 0 0 0 0 0 0 0 0 0 0 0 0 0 0 0 0 
0 0 0 0 0 0 0 0 0 0 0 0 0 0 0 0 0 0 0 0 0 0 0 0 
0 0 0 0 0 0 0 0 0 0 0 0 0 0 0 0 0 0 0 0 0 0 0 0 
0 0 0 0 0 0 0 0 0 0 0 0 0 0 0 0 0 0 0 0 0 0 0 0 
0 0 0 0 0 0 0 0 0 0 0 0 0 0 0 0 0 0 0 0 0 0 0 0 
0 0 0 0 0 0 0 0 0 0 0 0 0 0 0 0 0 0 0 0 0 0 0 0 
0 0 0 0 0 0 0 0 0 0 0 0 0 0 0 0 0 0 0 0 0 0 0 0 
0 0 0 0 0 0 0 0 -0.000200934 0.00116133 0.00168842 -0.0108514 0.0820896 0.150691 0.189568 0.0622538 0.013464 0.00259232 0.00188935 0.00225357 0.000357747 0 0 0 
0 0 0 0 0 0 0 0 -0.00104964 0.00294012 -0.00857547 0.0146881 0.250315 0.380471 0.242812 0.0729337 0.0768997 0.0124138 0.00284179 0.000719833 -0.00417598 0.0525157 0.110432 0.131978 
0 0 0 0 0 0 0 0 -0.00236123 0.00367215 -0.0690172 0.117919 0.510202 0.536293 0.327056 0.216697 0.257466 0.152668 0.15343 0.202933 0.308086 0.54324 0.673551 0.507552 
0.00188935 0.00205263 0.00131815 0.00305068 0.00414292 0.00241038 0.00131815 0.00305068 0.000718519 0.00654609 -0.166652 0.0361423 0.717978 0.721026 0.505439 0.325936 0.381711 0.257066 0.334808 0.544125 0.73932 0.973368 0.998098 0.667726 
0.00428515 0.00757376 0.00846313 0.0136348 0.00579635 0.000292767 0.000547983 0.00441964 0.00192457 0.00336211 -0.208316 -0.140343 0.278841 0.41004 0.456849 0.3532 0.377426 0.153578 0.392666 0.611372 0.734621 1.06434 1.06928 0.426749 
0.00347208 0.00785109 -0.0168746 0.130817 0.431925 0.598561 0.437668 0.113743 0.0524534 0.00793101 -0.185537 -0.196425 -0.183092 -0.267081 -0.108278 0.332325 0.538709 0.184591 0.215963 0.365098 0.600012 0.638494 0.0172012 -0.762621 
-0.00623673 -0.00245072 -0.0596749 0.371929 1.1759 1.35014 1.00693 0.679008 0.483266 0.113404 -0.0874301 -0.342301 -0.37142 -0.528269 -0.909726 -0.747523 0.135708 0.11985 0.00593914 0.181462 -0.177867 -0.904273 -1.29501 -1.45956 
-0.0171966 -0.0292678 0.0152696 0.711048 1.6725 1.76489 1.75199 1.49768 0.853148 0.0989733 0.0107701 -0.179823 -0.349955 -0.604035 -0.937649 -1.26371 -0.470541 0.118415 0.0223905 -0.237868 -0.628983 -1.21587 -1.61476 -1.47527 
-0.0483184 -0.168556 -0.0900238 0.799399 1.35262 0.619023 0.401039 0.546837 0.392827 -0.189415 -0.0106021 0.103019 0.216973 0.151073 0.0900318 0.0739443 -0.219151 -0.562796 -0.250263 0.0220055 -0.125784 -0.772106 -0.825216 -0.207001 
0.0822581 -0.124181 -0.0758291 0.44665 0.122252 -1.17151 -1.23929 -0.763292 -0.384953 -0.0682188 0.823002 1.14302 1.41655 1.49015 1.08717 0.809529 0.104367 -0.563591 -0.371964 0.147033 0.279911 0.388499 1.0698 1.60825 
1.21179 1.00481 1.25767 1.20151 -0.0413327 -1.74172 -1.73936 -1.65774 -1.10084 0.0261806 1.62815 1.84847 1.87 2.0333 1.49738 0.921435 0.0267087 -0.640242 -0.675902 0.0644777 0.877805 1.48397 1.89849 2.10295 
1.38094 1.05616 1.13889 0.799128 -0.412602 -1.72794 -1.31925 -0.997606 -0.612858 0.100749 1.32209 1.31086 1.22323 1.3063 0.323603 -0.405005 -0.858481 -1.01033 -0.516258 0.202191 0.211735 0.207632 0.249621 0.535269 
0.251994 -0.0158296 0.0986586 -0.04458 -0.358545 -0.789826 -0.510223 -0.218448 -0.193681 -0.646294 -0.753202 -1.10712 -1.4177 -1.3782 -2.08897 -2.18378 -1.88455 -1.55631 -1.39458 -1.27476 -1.95127 -2.55443 -2.48688 -2.11613 
-1.32278 -1.87146 -1.72095 -2.16868 -2.27443 -2.09366 -1.23247 -1.36673 -1.57524 -2.2457 -2.91311 -3.47131 -3.30892 -2.9719 -3.15608 -2.92591 -2.27105 -1.57364 -1.42999 -1.6419 -2.62798 -3.41162 -3.33263 -2.97134 
-2.27347 -3.01926 -2.80484 -2.68252 -2.30825 -2.09946 -1.53214 -1.64696 -1.81134 -2.23863 -2.34127 -2.76876 -2.59942 -2.42266 -2.42723 -2.11585 -1.56158 -1.10242 -1.27975 -1.72485 -2.3814 -2.73008 -2.48709 -2.17675 
-0.519281 -0.723654 -0.620429 -0.539742 -0.587352 -0.782724 -0.994209 -0.968439 -0.964663 -0.957305 -0.897735 -0.903295 -0.93147 -0.917733 -0.967435 -0.92339 -0.876726 -0.834112 -0.891917 -0.908039 -0.864303 -0.735727 -0.561457 -0.402528 
0 0 0 0 0 0 0 0 0 0 0 0 0 0 0 0 0 0 0 0 0 0 0 0 
0 0 0 0 0 0 0 0 0 0 0 0 0 0 0 0 0 0 0 0 0 0 0 0 
0 0 0 0 0 0 0 0 0 0 0 0 0 0 0 0 0 0 0 0 0 0 0 0 
0 0 0 0 0 0 0 0 0 0 0 0 0 0 0 0 0 0 0 0 0 0 0 0 
output:
0 0 0 0 0 0 0 0 0 0 0 0 0 0 0 0 0 0 0 0 0 0 0 0 
0 0 0 0 0 0 0 0 0 0 0 0 0 0 0 0 0 0 0 0 0 0 0 0 
0 0 0 0 0 0 0 0 0 0 0 0 0 0 0 0 0 0 0 0 0 0 0 0 
0 0 0 0 0 0 0 0 0 0 0 0 0 0 0 0 0 0 0 0 0 0 0 0 
0 0 0 0 0 0 0 0 0 0 0 0 0 0 0.108918 0.0403165 0.008705 0 0.000218302 0.0015757 0.000267031 0 0 0 
0 0 0 0 0 0 0 0 0 0 0 0 0 0.173541 0.120036 0.015213 0.054041 0.00642282 0.00184422 0 0 0 0 0.0713951 
0 0 0 0 0 0 0 0 0 0 0 0 0.00924007 0.361515 0.032149 0 0.069252 0 0 0 0 0 0.162844 0.31231 
0.000218302 0.000506505 0 0 0.001794 0.000773537 0 0 0 0.00343657 0 0 0.0317608 0.185234 0.0827346 0.152072 0.0915865 0 0 0 0 0.00825572 0.40825 0.488889 
0 0 0 0.00685997 0.00454664 0 0 0 0 0 0 0 0 0 0.265059 0.337971 0.0916619 0 0 0 0 0.210922 0.794809 0.53719 
0 0 0 0 0 0.208476 0.249049 0.057008 0.0296902 0.00251027 0 0 0.0674235 0 0.0434609 0 0.0681891 0 0 0 0 0.658848 0.971227 0.280193 
0 0 0 0 0 0.370617 0.201422 0.218937 0.31222 0.0726354 0 0 0 0.256127 0 0 0.0264539 0 0 0 0.335574 0.695743 0.695173 0.0547114 
0 0 0 0 0.149419 0.258997 0.110552 0.679168 0.652578 0.0498215 0.0114286 0 0 0 0.0259299 0 0.140915 0 0 0.35971 0.531848 0.507096 0.167663 0 
0 0 0 0 0.960743 0.283698 0.245471 0.863698 0.450915 0 0 0 0 0 0 0.0445998 0.527693 0 0 0.285409 0.148193 0.0520934 0.00858949 0.115997 
0 0 0 0 0.805897 0.105965 0.611501 0.541445 0 0 0 0 0 0 0 0.112763 0.378688 0 0 0.0412926 0 0 0 0.294725 
0 0 0 0.392526 0.480773 0 0.570997 0.200556 0 0 0 0 0 0.203473 0.239386 0.144418 0 0 0 0 0.0697486 0 0.0746976 0.511573 
0 0 0 0.641462 0.228872 0 0.214745 0.176022 0 0 0 0 0 0.687058 0.394559 0 0 0 0 0.336063 0.27976 0.157061 0.235738 0.870912 
0.168908 0 0.0945603 0.427908 0.160712 0 0 0 0.132511 0.0116422 0 0 0 0.934895 0.231995 0 0 0 0 0.407143 0.260868 0.0831894 0.0774348 1.00796 
0.0153321 0 0.415559 0.148913 0.011402 0 0 0 0 0 0.0460989 0 0 0.895572 0.10776 0 0 0 0 0.184954 0.017109 0 0 0.754627 
0 0 0.0396301 0.19656 0.249009 0 0.000676036 0 0 0 0 0 0 0.461364 0.15342 0.0407639 0 0 0 0 0 0.0233933 0 0.317241 
0.0616879 0.0382653 0 0 0 0 0 0 0 0 0 0 0 0.0342707 0 0 0 0 0.0175741 0.047575 0.0385793 0.0680556 0.0377346 0.0648007 
0 0 0 0 0 0 0 0 0 0 0 0 0 0 0 0 0 0 0 0 0 0 0 0 
0 0 0 0 0 0 0 0 0 0 0 0 0 0 0 0 0 0 0 0 0 0 0 0 
0 0 0 0 0 0 0 0 0 0 0 0 0 0 0 0 0 0 0 0 0 0 0 0 
0 0 0 0 0 0 0 0 0 0 0 0 0 0 0 0 0 0 0 0 0 0 0 0 
0 0 0 0 0 0 0 0 0 0 0 0 0 0 0 0 0 0 0 0 0 0 0 0 
0 0 0 0 0 0 0 0 0 0 0 0 0 0 0 0 0 0 0 0 0 0 0 0 
0 0 0 0 0 0 0 0 0 0 0 0 0 0 0 0 0 0 0 0 0 0 0 0 
0 0 0 0 0 0 0 0 0 0 0 0 0 0 0 0 0 0 0 0 0 0 0 0 
0 0 0 0 0 0 0 0 0 0.000384216 0.000154241 0 0.023003 0.0333248 0.00717908 0 0 0 0.000413292 2.24135e-05 0 0 0 0 
0 0 0 0 0 0 0 0 0 0.000656957 0 0.036173 0.0495779 0.0802918 0.0370499 0 0 0 0.00108004 0.000277474 0 0.0128683 0.024748 0.00350616 
0 0 0 0 0 0 0 0 0.000103989 0.000812903 0 0.0580452 0.145595 0.209581 0 0 0.0227672 0 0 0 0.0190465 0.0248923 0.0304658 0 
0.000413292 0 0 0.000797508 0.000435706 0 0 0.000797508 0.00067263 0 0.0335571 0.0142108 0.180611 0.6657 0 0 0.0260414 0 0 0.0614421 0.140348 0.0466982 0.0595375 0.0328178 
0 0.0030717 0 0.00144244 0 0 0 0.00109373 0.00249166 0 0.0121213 0.00308532 0.242677 0.930162 0.140131 0 0 0 0 0.0149532 0.369963 0.160714 0.0571922 0.0451241 
0 0.00429816 0 0.0170288 0.106727 0.0639837 0 0 0 0 0 0 0.264427 0.924114 0.492268 0 0 0 0 0 0.599391 0.245583 0 0.0789157 
0 0 0.00953043 0.125262 0.242873 0.343722 0 0 0 0 0 0 0 0.537155 1.06115 0.336907 0 0 0 0 0.590445 0.207846 0 0.0444312 
0 0 0.0986043 0.2906 0.483598 0.727533 0 0 0 0 0 0 0 0 0.758659 0.855649 0.415248 0.026067 0 0 0.308378 0.208013 0 0 
0 0.0362374 0.112787 0.389527 0.948244 1.20478 0 0 0 0 0 0.0227807 0.0101743 0 0.0103458 0.416384 0.938781 0.484751 0 0 0.0455078 0 0 0 
0 0.00389296 0.0342465 0.310066 1.11505 0.924064 0 0.17662 0.0439626 0 0 0 0.0756751 0.0454333 0 0 0.457443 0.798428 0 0.093932 0 0 0 0 
0 0 0 0.192377 0.869471 0.0906478 0 0.69256 0.587535 0 0 0 0.184684 0.127994 0 0 0 0.63118 0.1134 0.601928 0.246413 0 0 0 
0.39849 0 0 0.0906446 0.607899 0 0 0.525445 0.895908 0 0.302214 0 0.298172 0.191999 0.230848 0 0 0.533464 0 0.872524 0.974577 0 0.0536131 0.0664712 
0.788915 0 0.177094 0.138104 0.335862 0 0 0.0177933 0.776551 0.418985 0.695131 0 0.270089 0.165042 0.474016 0 0 0.466072 0 0.783705 1.34864 0 0.158413 0.170621 
1.0322 0 0.26833 0.295101 0.288433 0 0 0 0.379923 0.200304 0.840897 0.116308 0.239814 0.247165 0.504645 0 0 0.21252 0 0.568617 1.00432 0 0.135195 0.144582 
0.748172 0 0.173301 0.154113 0.330771 0.150856 0 0.033045 0.244909 0 0.41238 0.120392 0.121555 0.236128 0.340307 0.128538 0 0.0675158 0 0.217046 0.42647 0.00111569 0.0657502 0.0878666 
0.203594 0.0161898 0.00629869 0 0 0.165643 0.0288584 0.0499728 0.0884829 0.0099743 0.0431112 0.0493171 0.0260718 0.0795477 0.067105 0.0482519 0 0.0565424 0.0605699 0.0794794 0.0746459 0.0197592 0.0247698 0.0232199 
0 0 0 0 0 0 0 0 0 0 0 0 0 0 0 0 0 0 0 0 0 0 0 0 
0 0 0 0 0 0 0 0 0 0 0 0 0 0 0 0 0 0 0 0 0 0 0 0 
0 0 0 0 0 0 0 0 0 0 0 0 0 0 0 0 0 0 0 0 0 0 0 0 
0 0 0 0 0 0 0 0 0 0 0 0 0 0 0 0 0 0 0 0 0 0 0 0 
0 0 0 0 0 0 0 0 0 0 0 0 0 0 0 0 0 0 0 0 0 0 0 0 
0 0 0 0 0 0 0 0 0 0 0 0 0 0 0 0 0 0 0 0 0 0 0 0 
0 0 0 0 0 0 0 0 0 0 0 0 0 0 0 0 0 0 0 0 0 0 0 0 
0 0 0 0 0 0 0 0 0 0 0 0 0 0 0 0 0 0 0 0 0 0 0 0 
0 0 0 0 0 0 0 0 0.00111972 0.00129648 0.00100368 0.0809044 0.106607 0.0132021 0.0114591 0.00922544 0.00306873 0.00176331 0 0.000107958 0.000116706 0 0 0 
0 0 0 0 0 0 0 0 0.00131232 0.00278711 0.0696292 0.110129 0.118098 0.0725605 0.054384 0 0.00163169 0.00487333 0.000130128 0.00439657 0.0520678 0.0752628 0.0201913 0.00279625 
0 0 0 0 0 0 0 0 0.00115628 0.00366176 0.127912 0.294482 0.162392 0.0491223 0.0779513 0.00597991 0.0398165 0.0764516 0.146353 0.199118 0.257352 0.2764 0.115961 0.0144384 
0 0.00122768 0.00253291 0.00118044 0 0.00134438 0.00253291 0.00118044 0.000838805 0.00430541 0.00974571 0.440033 0.572825 0.0374859 0 0 0.0325181 0.134229 0.314283 0.304895 0.339497 0.410687 0.161177 0 
0.00460966 0.00540419 0.00118943 0.00205258 0.00051465 0 0.00153689 0.00274047 0.00385031 0.00820501 0.040424 0.377475 0.340483 0 0 0 0 0 0.239411 0.406562 0.376815 0.266521 0 0 
0.00087472 0.00460317 0.149164 0.348436 0.193792 0.0264842 0.0598722 0.0186679 0.00554544 0.00271225 0.204364 0.185878 0.0393135 0 0 0 0 0 0.184068 0.286911 0.0838342 0 0 0 
0.00641342 0.0733621 0.255417 0.554015 0.551274 0.362728 0.251855 0.036678 0.025825 0.0163313 0.199117 0.159711 0.151458 0 0 0 0 0 0 0 0 0 0 0 
0.0228885 0.233307 0.472043 0.701307 0.73773 0.506727 0.23134 0 0 0 0.00492476 0.285354 0.256903 0.00222438 0 0 0 0 0 0 0 0 0 0 
0 0.0978486 0.541254 0.832361 0.326936 0 0 0 0 0 0.107354 0.291878 0.501586 0.3889 0.255001 0.104738 0 0 0 0 0 0 0 0 
0.0871781 0.208252 0.794322 0.754072 0 0 0 0 0 0 0.409385 0.595799 0.674524 0.770532 0.685724 0.571592 0 0 0 0 0 0 0.142051 0.376795 
0.649872 0.935753 1.18769 0.532849 0 0 0 0 0 0 0.569409 0.781214 0.745756 0.562514 0.30318 0.247524 0 0 0 0 0 0.101903 0.502101 0.358592 
0.480687 0.71398 0.805677 0.241348 0 0 0 0 0 0 0.289885 0.395342 0.273885 0 0 0 0 0 0 0 0 0 0 0 
0 0 0 0 0 0 0 0 0 0 0 0 0 0 0 0 0 0 0 0 0 0 0 0 
0 0 0 0 0 0 0 0 0 0 0 0 0 0 0 0 0 0 0 0 0 0 0 0 
0 0 0 0 0 0 0 0 0 0 0 0 0 0 0 0 0 0 0 0 0 0 0 0 
0 0 0 0 0 0 0 0 0 0 0 0 0 0 0 0 0 0 0 0 0 0 0 0 
0 0 0 0 0 0 0 0 0 0 0 0 0 0 0 0 0 0 0 0 0 0 0 0 
0 0 0 0 0 0 0 0 0 0 0 0 0 0 0 0 0 0 0 0 0 0 0 0 
0 0 0 0 0 0 0 0 0 0 0 0 0 0 0 0 0 0 0 0 0 0 0 0 
0 0 0 0 0 0 0 0 0 0 0 0 0 0 0 0 0 0 0 0 0 0 0 0 
0 0 0 0 0 0 0 0 0 0 0 0 0 0 0 0 0 0 0 0 0 0 0 0 
0 0 0 0 0 0 0 0 0 0 0 0 0 0 0 0 0 0 0 0 0 0 0 0 
0 0 0 0 0 0 0 0 0 0 0 0 0 0 0 0 0 0 0 0 0 0 0 0 
0 0 0 0 0 0 0 0 0 0 0 0 0 0 0 0 0 0 0 0 0 0 0 0 
0 0 0 0 0 0 0 0 3.47933e-05 0 3.45223e-05 0.00404943 0 0 0.125482 0.104271 0.0219802 0.00440193 0 0.00176154 0.00114609 0 0 0 
0 0 0 0 0 0 0 0 0 0 0.00275857 0 0.0112674 0.159741 0.244815 0.103127 0.0789048 0.0424373 0.000638145 0.00221366 0.00155857 0 0.00356853 0.078564 
0 0 0 0 0 0 0 0 0 0 0.00276731 0 0.00570481 0.377044 0.494899 0.189432 0.174661 0.152374 0.086486 0.0579675 0.0908357 0.171512 0.277255 0.403432 
0 0.00179634 0.00099845 0 0.00176127 0.00294243 0.00099845 0 0.00173383 0.00347455 0 0.00403666 0.157748 0.483617 0.438045 0.320488 0.369488 0.256831 0.199508 0.168052 0.354012 0.515684 0.570256 0.694469 
0.00192314 0.0030698 0.00209775 0.00784655 0.007297 0.00286499 0.000952744 0.000835177 0.00245169 0.00346695 5.96005e-05 0 0.162326 0.201914 0.197829 0.459735 0.52265 0.28402 0.352741 0.366988 0.501684 0.765232 0.990465 0.908533 
0.00735092 0.00620701 0.00828736 0 0 0.236743 0.425474 0.192504 0.0483855 0.0300815 0.00626118 0.0706059 0.0288433 0 0 0.555582 0.524243 0.391641 0.495627 0.382835 0.621764 0.838804 0.572188 0.0717732 
0.00735469 0.000267487 0 0.0215851 0.201404 0.67162 0.814263 0.533244 0.466321 0.250165 0.0262059 0.00500807 0 0 0 0 0.0858169 0.332445 0.443967 0.374003 0.235908 0 0 0 
0.00531417 0.00500074 0 0.0239955 0.552296 1.33355 1.40103 1.15395 1.0872 0.487265 0.0594065 0.00132339 0.00838814 0 0 0 0 0.528293 0.505702 0.202505 0.178464 0 0 0 
0 0 0.0123567 0.263544 1.00768 1.1984 0.565371 0.794112 1.18678 0.449414 0.0362428 0 0.019782 0.113814 0.13791 0 0 0 0.0492145 0.424249 0.466896 0 0 0 
0.0588505 0.0548249 0.08348 0.417759 0.741529 0.112465 0 0 0.259584 0.0556727 0.40057 0.512989 0.662502 0.816659 0.929272 0.928307 0.358671 0 0 0.192333 0.0432371 0 0.469852 0.899977 
0.587721 0.681332 0.811191 0.97751 0.641713 0 0 0 0 0 0.890662 1.1814 1.28901 1.43143 1.6613 1.65819 0.798615 0.0787263 0 0 0.602273 1.34365 1.62938 1.63506 
0.936328 1.0177 1.04421 0.898784 0.241888 0 0 0 0 0.201958 1.43124 1.67986 1.71012 1.51946 1.32076 0.843252 0.150098 0 0 0.250376 0.861239 1.1048 1.16156 1.08769 
0.874386 0.928088 0.94243 0.940585 0.563661 0.0511894 0.101676 0.404626 0.488661 0.339129 0.545276 0.502015 0.170971 0 0 0 0 0 0 0 0 0 0 0 
0 0 0 0 0 0 0 0 0 0 0 0 0 0 0 0 0 0 0 0 0 0 0 0 
0 0 0 0 0 0 0 0 0 0 0 0 0 0 0 0 0 0 0 0 0 0 0 0 
0 0 0 0 0 0 0 0 0 0 0 0 0 0 0 0 0 0 0 0 0 0 0 0 
0 0 0 0 0 0 0 0 0 0 0 0 0 0 0 0 0 0 0 0 0 0 0 0 
0 0 0 0 0 0 0 0 0 0 0 0 0 0 0 0 0 0 0 0 0 0 0 0 
0 0 0 0 0 0 0 0 0 0 0 0 0 0 0 0 0 0 0 0 0 0 0 0 
0 0 0 0 0 0 0 0 0 0 0 0 0 0 0 0 0 0 0 0 0 0 0 0 
0 0 0 0 0 0 0 0 0 0 0 0 0 0 0 0 0 0 0 0 0 0 0 0 
0 0 0 0 0 0 0 0 0 0 0 0 0 0 0 0 0 0 0 0 0 0 0 0 
0 0 0 0 0 0 0 0 0 0 0 0 0 0 0 0 0 0 0 0 0 0 0 0 
0 0 0 0 0 0 0 0 0 0 0 0 0 0 0 0 0 0 0 0 0 0 0 0 
0 0 0 0 0 0 0 0 9.20777e-05 0.000515808 0 0.00691582 0.0367494 0 0 0 0 0 0 0 0 0 0 0 
0 0 0 0 0 0 0 0 0.00012752 0.00147537 0.00437655 0.0366849 0.0224667 0 0.00977819 0 0 0 0 0.000537629 0.00561985 0.0200747 0 0 
0 0 0 0 0 0 0 0 6.62144e-05 0.00316138 0.00912326 0.116904 0.0445937 0 0 0 0 0 0.00123458 0 0 0.000243094 0 0 
0 0 0.000372538 0 0 0 0.000372538 0 0 0.00500279 0 0.149234 0.224416 0 0 0 0 0 0.0509819 0.00680579 0 0.0930105 0 0 
0 0.00213049 0 0 0 0 0.000684363 0.000518611 0 0.00437939 0 0.0672529 0.154488 0.0515587 0.136031 0 0 0 0.0868097 0.090402 0.0204032 0.0996979 0 0 
0 0.00339059 0.0111839 0.0842007 0 0 0 0 0 0 0 0.178949 0.560101 0 0.0628859 0.0546843 0 0 0.163375 0.124111 0 0.142581 0.0404698 0 
0 0.0144368 0.0360657 0.172839 0.0287038 0 0 0 0 0 0 0 0.552855 0.465294 0.015787 0.0291336 0.150436 0 0 0 0 0.162481 0.231872 0.0861099 
0 0.0444465 0.116673 0.297539 0.0973844 0 0 0 0 0 0.000771492 0 0 0.472695 0.67731 0.130459 0.138952 0 0 0.120298 0 0.0800774 0.168747 0.1508 
0 0.0471846 0.117514 0.473927 0.402529 0 0.107869 0 0 0 0.0154185 0 0 0 0.400463 0.439822 0.106821 0 0 0 0 0.208977 0.220364 0 
0 0 0 0 0.384196 0.434214 0.48771 0 0 0 0 0 0 0 0 0.222489 0.392362 0.119484 0 0 0.234699 0.0886083 0 0 
0 0 0 0 0 0 0.883943 0.325382 0.19614 0.0213015 0.0662246 0.0156636 0.058385 0 0 0 0 0.179372 0.561833 0.224793 0.056899 0 0 0 
0.0309014 0 0 0 0 0 0.830679 0.6854 0.375663 0.0336487 0.0737554 0.0443451 0.146945 0.0452762 0 0 0 0.338101 0.805008 0.243757 0.151298 0.125857 0.105923 0.215663 
0.0986135 0 0 0 0.165079 0 0.145729 0.357889 0.508128 0.0293867 0 0 0 0.476541 0 0.167309 0.000183966 0 0.396507 0.257427 0.125754 0.113311 0.13261 0.67723 
0.111848 0 0.344847 0.154603 0.0812158 0 0 0 0.117834 0.0309277 0.103998 0.136002 0.138717 0.682679 0 0.0536194 0.0120566 0 0.0813851 0.0311459 0.0239894 0.134037 0.0318258 0.744039 
0 0 0.364999 0.653194 0.361753 0 0.0576411 0 0 0.0355127 0.061221 0.00456759 0.0341431 0.613916 0.410602 0.244346 0 0 0 0 0.00938504 0.0962648 0 0.386199 
0.0795948 0.0836175 0 0 0 0 0 0.0243843 0 0 0 0 0 0.0605334 0.0115411 0 0 0 0.0405993 0.0963584 0.0795223 0.109132 0.0783411 0.0898556 
0 0 0 0 0 0 0 0 0 0 0 0 0 0 0 0 0 0 0 0 0 0 0 0 
0 0 0 0 0 0 0 0 0 0 0 0 0 0 0 0 0 0 0 0 0 0 0 0 
0 0 0 0 0 0 0 0 0 0 0 0 0 0 0 0 0 0 0 0 0 0 0 0 
0 0 0 0 0 0 0 0 0 0 0 0 0 0 0 0 0 0 0 0 0 0 0 0 
0 0 0 0 0 0 0 0 0 0 0 0 0 0 0 0 0 0 0 0 0 0 0 0 
0 0 0 0 0 0 0 0 0 0 0 0 0 0 0 0 0 0 0 0 0 0 0 0 
0 0 0 0 0 0 0 0 0 0 0 0 0 0 0 0 0 0 0 0 0 0 0 0 
0 0 0 0 0 0 0 0 0 0 0 0 0 0 0 0 0 0 0 0 0 0 0 0 
0 0 0 0 0 0 0 0 0 0 0 0 0 0 0 0 0 0 0 0 3.71341e-05 0 0 0 
0 0 0 0 0 0 0 0 0 0 0 0 0 0 0 0 0 0.000346223 0 0 0 0 0 0 
0 0 0 0 0 0 0 0 0 0 0 0 0 0 0 0 0 0 0 0 0 0 0 0 
0 0 0 0 0 0 0 0 0 0 0 0 0 0 0 0 0 0 0 0 0 0 0 0 
0 0 0 0 0 0 0 0 0 0 0.0544953 0 0 0 0 0 0 0 0 0 0 0 0 0 
0 0 0 0 0 0 0 0 0 0 0.198099 0.51295 0.435462 0 0 0 0 0 0 0 0 0 0.449808 0.459138 
0 0 0 0 0 0 0 0 0 0 0.126729 0.569615 1.06476 0.941988 0 0 0 0 0 0 0.587471 1.21167 1.16403 0.58938 
0 0 0 0 0 0 0 0 0 0.0150635 0.0203592 0.233708 0.851341 1.23362 0.636486 0 0 0 0 0.653009 1.29541 1.39725 0.981065 0.392234 
0 0 0 0 0 0 0 0 0 0.184807 0 0 0 0 0 0 0 0 0 0 0 0 0 0 
0 0 0 0.242758 0.928794 1.08102 0.337215 0 0 0 0 0 0 0 0 0 0 0 0 0 0 0 0 0 
0 0 0 0 0.593482 1.21235 0.709968 0 0 0 0 0 0 0 0 0 0.215992 0 0 0 0 0 0 0 
0 0 0 0 0 0 0 0 0 0 0 0 0 0 0 0.258749 0.471984 0 0 0 0 0 0 0 
0 0.344924 0.603289 0.618334 0.285092 0 0.0744277 0.461639 0.688933 0.926702 1.28952 1.70433 1.94854 1.86969 1.42891 1.06146 0.876721 0.914243 1.43847 1.86616 2.07576 2.3182 2.41676 2.19559 
2.13499 2.49217 2.49311 2.14671 1.54053 1.22368 1.41457 1.98768 2.63503 3.0452 2.97819 3.0027 2.95503 2.60741 1.96204 1.34216 1.14711 1.50452 2.21486 2.87439 3.04447 2.9533 2.85101 2.48032 
2.03201 1.94087 1.8605 1.51475 1.12206 1.07554 1.40672 1.65379 1.90284 2.04655 2.04908 1.88859 1.9642 1.76742 1.29351 0.832018 0.833597 1.31882 1.85353 2.1421 1.9272 1.56876 1.4381 1.1776 
0.419353 0.225066 0.265787 0.439952 0.610862 0.632855 0.564266 0.556827 0.520316 0.49627 0.528158 0.54953 0.57637 0.559113 0.484674 0.457791 0.502489 0.571856 0.551256 0.465124 0.341638 0.231221 0.155666 0.0762008 
0 0 0 0 0 0 0 0 0 0 0 0 0 0 0 0 0 0 0 0 0 0 0 0 
0 0 0 0 0 0 0 0 0 0 0 0 0 0 0 0 0 0 0 0 0 0 0 0 
0 0 0 0 0 0 0 0 0 0 0 0 0 0 0 0 0 0 0 0 0 0 0 0 
0 0 0 0 0 0 0 0 0 0 0 0 0 0 0 0 0 0 0 0 0 0 0 0 
0 0 0 0 0 0 0 0 0 0 0 0 0 0 0 0 0 0 0 0 0 0 0 0 
0 0 0 0 0 0 0 0 0 0 0 0 0 0 0 0 0 0 0 0 0 0 0 0 
0 0 0 0 0 0 0 0 0 0 0 0 0 0 0 0 0 0 0 0 0 0 0 0 
0 0 0 0 0 0 0 0 0 0 0 0 0 0 0 0 0 0 0 0 0 0 0 0 
0 0 0 0 0 0 0 0 0 0.000647123 0.000313954 0 0.0446827 0.0393595 0.0118333 0 0 0.000504853 0.000442408 4.97045e-05 0 0 0 0 
0 0 0 0 0 0 0 0 0 0.00128893 0 0.00378296 0.0753604 0.061042 0.0377899 0.00204131 0 0 0.000706304 0 0 0.0265082 0.0310753 0.0103511 
0 0 0 0 0 0 0 0 0 0.00124098 0 0.0390903 0.129145 0.0608188 0.0553363 0.054477 0.0352259 0.0101115 0.0301864 0.0533066 0.0624295 0.12719 0.130751 0.0440832 
0.000442408 0 0.000483101 0.00108953 0.000492113 0 0.000483101 0.00108953 0 0.000924965 0 0 0.241059 0.270532 0.0377553 0 0.0534321 0.00920021 0.0631009 0.121674 0.093243 0.169454 0.207397 0.0731872 
0.000599326 0.00222111 0.00164527 0.00154693 0.000646132 0 0 0.00121966 0 0.000278095 0 0 0.198583 0.238968 0 0 0.0185535 0 0.00376414 0.0889865 0.0919574 0.191503 0.254492 0.0625334 
0 0.00203881 0 0.0667193 0.159325 0.0771654 0.0186755 0.00469319 0.0013416 0 0 0 0.0334639 0 0 0.0946411 0.0834385 0 0 0.0661986 0.122272 0.163538 0.102454 0 
0 0 0 0.110706 0.326983 0.240668 0.151209 0.0720472 0.018661 0 0 0 0 0 0 0 0 0 0 0.0329238 0 0 0 0 
0 0 0 0.10135 0.334162 0.363135 0.375373 0.207737 0.0212693 0 0 0 0 0 0 0 0 0 0 0 0 0 0 0 
0 0 0 0.0669188 0.375577 0.195073 0.0227651 0.0299119 0 0 0.00145054 0.0441439 0.0481363 0.0291612 0 0 0 0 0 0 0.156066 0 0 0 
0 0 0 0.120367 0.281388 0 0 0 0 0 0.107858 0.202106 0.243065 0.233643 0.0382528 0.155801 0.101512 0 0 0.166892 0 0 0.0317415 0.283695 
0.199862 0.0638189 0.153187 0.389362 0.120695 0 0 0 0 0 0.163413 0.219556 0.231746 0.348025 0.103518 0.119996 0.0679286 0 0 0 0 0.0874715 0.271983 0.425231 
0.18336 0.0343354 0.18551 0.31046 0 0 0 0 0 0 0.100236 0.141256 0.20418 0.363464 0.085237 0 0 0 0 0 0 0 0 0.162744 
0 0 0 0.166026 0 0 0 0 0 0 0 0 0 0 0 0 0 0 0 0 0 0 0 0 
0 0 0 0 0 0 0 0 0 0 0 0 0 0 0 0 0 0 0 0 0 0 0 0 
0 0 0 0 0 0 0 0 0 0 0 0 0 0 0 0 0 0 0 0 0 0 0 0 
0 0 0 0 0 0 0 0 0 0 0 0 0 0 0 0 0 0 0 0 0 0 0 0 
0 0 0 0 0 0 0 0 0 0 0 0 0 0 0 0 0 0 0 0 0 0 0 0 
0 0 0 0 0 0 0 0 0 0 0 0 0 0 0 0 0 0 0 0 0 0 0 0 
0 0 0 0 0 0 0 0 0 0 0 0 0 0 0 0 0 0 0 0 0 0 0 0 
0 0 0 0 0 0 0 0 0 0 0 0 0 0 0 0 0 0 0 0 0 0 0 0 
0 0 0 0 0 0 0 0 0 0 0 0 0 0 0 0 0 0 0 0 0 0 0 0 
0 0 0 0 0 0 0 0 0 0 0 0 0 0 0 0 0 0 0 0 0 0 0 0 
0 0 0 0 0 0 0 0 0 0 0 0 0 0 0 0 0 0 0 0 0 0 0 0 
0 0 0 0 0 0 0 0 0 0 0 0 0 0 0 0 0 0 0 0 0 0 0 0 
0 0 0 0 0 0 0 0 0 0.00116133 0.00168842 0 0.0820896 0.150691 0.189568 0.0622538 0.013464 0.00259232 0.00188935 0.00225357 0.000357747 0 0 0 
0 0 0 0 0 0 0 0 0 0.00294012 0 0.0146881 0.250315 0.380471 0.242812 0.0729337 0.0768997 0.0124138 0.00284179 0.000719833 0 0.0525157 0.110432 0.131978 
0 0 0 0 0 0 0 0 0 0.00367215 0 0.117919 0.510202 0.536293 0.327056 0.216697 0.257466 0.152668 0.15343 0.202933 0.308086 0.54324 0.673551 0.507552 
0.00188935 0.00205263 0.00131815 0.00305068 0.00414292 0.00241038 0.00131815 0.00305068 0.000718519 0.00654609 0 0.0361423 0.717978 0.721026 0.505439 0.325936 0.381711 0.257066 0.334808 0.544125 0.73932 0.973368 0.998098 0.667726 
0.00428515 0.00757376 0.00846313 0.0136348 0.00579635 0.000292767 0.000547983 0.00441964 0.00192457 0.00336211 0 0 0.278841 0.41004 0.456849 0.3532 0.377426 0.153578 0.392666 0.611372 0.734621 1.06434 1.06928 0.426749 
0.00347208 0.00785109 0 0.130817 0.431925 0.598561 0.437668 0.113743 0.0524534 0.00793101 0 0 0 0 0 0.332325 0.538709 0.184591 0.215963 0.365098 0.600012 0.638494 0.0172012 0 
0 0 0 0.371929 1.1759 1.35014 1.00693 0.679008 0.483266 0.113404 0 0 0 0 0 0 0.135708 0.11985 0.00593914 0.181462 0 0 0 0 
0 0 0.0152696 0.711048 1.6725 1.76489 1.75199 1.49768 0.853148 0.0989733 0.0107701 0 0 0 0 0 0 0.118415 0.0223905 0 0 0 0 0 
0 0 0 0.799399 1.35262 0.619023 0.401039 0.546837 0.392827 0 0 0.103019 0.216973 0.151073 0.0900318 0.0739443 0 0 0 0.0220055 0 0 0 0 
0.0822581 0 0 0.44665 0.122252 0 0 0 0 0 0.823002 1.14302 1.41655 1.49015 1.08717 0.809529 0.104367 0 0 0.147033 0.279911 0.388499 1.0698 1.60825 
1.21179 1.00481 1.25767 1.20151 0 0 0 0 0 0.0261806 1.62815 1.84847 1.87 2.0333 1.49738 0.921435 0.0267087 0 0 0.0644777 0.877805 1.48397 1.89849 2.10295 
